{"learner":{"attributes":{"scikit_learn":"{\"_estimator_type\": \"regressor\"}"},"feature_names":["home_team_id","away_team_id","home_avg_scored","home_avg_conceded","home_goal_diff","home_win_rate","away_avg_scored","away_avg_conceded","away_goal_diff","away_win_rate"],"feature_types":["int","int","float","float","float","float","float","float","float","float"],"gradient_booster":{"model":{"cats":{"enc":[],"feature_segments":[],"sorted_idx":[]},"gbtree_model_param":{"num_parallel_tree":"1","num_trees":"300"},"iteration_indptr":[0,1,2,3,4,5,6,7,8,9,10,11,12,13,14,15,16,17,18,19,20,21,22,23,24,25,26,27,28,29,30,31,32,33,34,35,36,37,38,39,40,41,42,43,44,45,46,47,48,49,50,51,52,53,54,55,56,57,58,59,60,61,62,63,64,65,66,67,68,69,70,71,72,73,74,75,76,77,78,79,80,81,82,83,84,85,86,87,88,89,90,91,92,93,94,95,96,97,98,99,100,101,102,103,104,105,106,107,108,109,110,111,112,113,114,115,116,117,118,119,120,121,122,123,124,125,126,127,128,129,130,131,132,133,134,135,136,137,138,139,140,141,142,143,144,145,146,147,148,149,150,151,152,153,154,155,156,157,158,159,160,161,162,163,164,165,166,167,168,169,170,171,172,173,174,175,176,177,178,179,180,181,182,183,184,185,186,187,188,189,190,191,192,193,194,195,196,197,198,199,200,201,202,203,204,205,206,207,208,209,210,211,212,213,214,215,216,217,218,219,220,221,222,223,224,225,226,227,228,229,230,231,232,233,234,235,236,237,238,239,240,241,242,243,244,245,246,247,248,249,250,251,252,253,254,255,256,257,258,259,260,261,262,263,264,265,266,267,268,269,270,271,272,273,274,275,276,277,278,279,280,281,282,283,284,285,286,287,288,289,290,291,292,293,294,295,296,297,298,299,300],"tree_info":[0,0,0,0,0,0,0,0,0,0,0,0,0,0,0,0,0,0,0,0,0,0,0,0,0,0,0,0,0,0,0,0,0,0,0,0,0,0,0,0,0,0,0,0,0,0,0,0,0,0,0,0,0,0,0,0,0,0,0,0,0,0,0,0,0,0,0,0,0,0,0,0,0,0,0,0,0,0,0,0,0,0,0,0,0,0,0,0,0,0,0,0,0,0,0,0,0,0,0,0,0,0,0,0,0,0,0,0,0,0,0,0,0,0,0,0,0,0,0,0,0,0,0,0,0,0,0,0,0,0,0,0,0,0,0,0,0,0,0,0,0,0,0,0,0,0,0,0,0,0,0,0,0,0,0,0,0,0,0,0,0,0,0,0,0,0,0,0,0,0,0,0,0,0,0,0,0,0,0,0,0,0,0,0,0,0,0,0,0,0,0,0,0,0,0,0,0,0,0,0,0,0,0,0,0,0,0,0,0,0,0,0,0,0,0,0,0,0,0,0,0,0,0,0,0,0,0,0,0,0,0,0,0,0,0,0,0,0,0,0,0,0,0,0,0,0,0,0,0,0,0,0,0,0,0,0,0,0,0,0,0,0,0,0,0,0,0,0,0,0,0,0,0,0,0,0,0,0,0,0,0,0,0,0,0,0,0,0,0,0,0,0,0,0,0,0,0,0,0,0],"trees":[{"base_weights":[1.1315404E-2,-2.5639343E-1,4.7309363E-1,1.2146492E-2,-3.8486943E-1,1.2801164E0,3.0843544E-1,3.6776006E-1,-5.6819946E-2,-5.56593E-1,-2.8781107E-1,1.1082047E0,1.844524E0,1.465591E-1,8.6936927E-1,-9.896329E-3,2.8789734E-2,-1.095993E-2,2.3253546E-3,-2.1939939E-2,-3.5640646E-2,-9.473565E-3,-2.695402E-2,7.4280255E-2,4.828119E-2,1.4048563E-1,6.763516E-2,1.7027823E-2,-3.7242156E-3,5.063693E-2,-1.792584E-2],"categories":[],"categories_nodes":[],"categories_segments":[],"categories_sizes":[],"default_left":[0,0,0,0,0,0,0,0,0,0,0,0,0,0,0,0,0,0,0,0,0,0,0,0,0,0,0,0,0,0,0],"id":0,"left_children":[1,3,5,7,9,11,13,15,17,19,21,23,25,27,29,-1,-1,-1,-1,-1,-1,-1,-1,-1,-1,-1,-1,-1,-1,-1,-1],"loss_changes":[5.4133887E2,9.5641235E1,2.1314798E2,2.2044706E1,3.109082E1,2.4347595E1,1.2118395E2,1.7295599E1,1.2644107E1,1.2126846E1,2.9549583E1,9.919373E0,2.5630676E1,4.4536713E1,5.299942E1,0E0,0E0,0E0,0E0,0E0,0E0,0E0,0E0,0E0,0E0,0E0,0E0,0E0,0E0,0E0,0E0],"parents":[2147483647,0,0,1,1,2,2,3,3,4,4,5,5,6,6,7,7,8,8,9,9,10,10,11,11,12,12,13,13,14,14],"right_children":[2,4,6,8,10,12,14,16,18,20,22,24,26,28,30,-1,-1,-1,-1,-1,-1,-1,-1,-1,-1,-1,-1,-1,-1,-1,-1],"split_conditions":[1.5159575E0,-3.107765E-1,-6E-1,-1E0,1.0526316E0,2.1625E0,1.1600177E0,2.5E-1,1.0946558E0,2.96875E-1,5.176471E-1,1.25E-1,1.06E2,4.117647E-1,1.1587481E0,-9.896329E-3,2.8789734E-2,-1.095993E-2,2.3253546E-3,-2.1939939E-2,-3.5640646E-2,-9.473565E-3,-2.695402E-2,7.4280255E-2,4.828119E-2,1.4048563E-1,6.763516E-2,1.7027823E-2,-3.7242156E-3,5.063693E-2,-1.792584E-2],"split_indices":[6,4,4,4,6,6,8,9,6,4,5,5,0,5,4,0,0,0,0,0,0,0,0,0,0,0,0,0,0,0,0],"split_type":[0,0,0,0,0,0,0,0,0,0,0,0,0,0,0,0,0,0,0,0,0,0,0,0,0,0,0,0,0,0,0],"sum_hessian":[4.377E3,2.771E3,1.606E3,8.97E2,1.874E3,2.71E2,1.335E3,1.45E2,7.52E2,6.75E2,1.199E3,2.1E2,6.1E1,1.037E3,2.98E2,3.9E1,1.06E2,2.92E2,4.6E2,3.87E2,2.88E2,8.63E2,3.36E2,5.5E1,1.55E2,1.9E1,4.2E1,5.52E2,4.85E2,2.67E2,3.1E1],"tree_param":{"num_deleted":"0","num_feature":"10","num_nodes":"31","size_leaf_vector":"1"}},{"base_weights":[7.8246845E-3,-2.6311302E-1,4.2334175E-1,-3.4213734E-1,1.9725046E-1,6.329023E-2,8.021778E-1,-2.3903747E-1,-5.131617E-1,3.0879608E-1,-1.405699E-1,-5.055412E-2,6.4463764E-1,5.923545E-1,1.1818149E0,-1.9306518E-2,-6.2872763E-3,-3.207046E-2,-1.8361779E-2,1.9871488E-3,2.7155025E-2,-1.0296272E-2,3.0612564E-2,-1.4390555E-2,3.360981E-3,6.566912E-3,4.5670636E-2,2.0395512E-2,5.6798913E-2,4.906125E-2,7.732788E-2],"categories":[],"categories_nodes":[],"categories_segments":[],"categories_sizes":[],"default_left":[0,0,0,0,0,0,0,0,0,0,0,0,0,0,0,0,0,0,0,0,0,0,0,0,0,0,0,0,0,0,0],"id":1,"left_children":[1,3,5,7,9,11,13,15,17,19,21,23,25,27,29,-1,-1,-1,-1,-1,-1,-1,-1,-1,-1,-1,-1,-1,-1,-1,-1],"loss_changes":[4.9174493E2,9.625598E1,2.3510367E2,3.9674072E1,1.4664172E1,5.8604652E1,6.621155E1,2.3448303E1,1.5634476E1,1.838619E1,4.8985796E0,2.0724846E1,1.9884537E1,5.3982285E1,2.0285278E1,0E0,0E0,0E0,0E0,0E0,0E0,0E0,0E0,0E0,0E0,0E0,0E0,0E0,0E0,0E0,0E0],"parents":[2147483647,0,0,1,1,2,2,3,3,4,4,5,5,6,6,7,7,8,8,9,9,10,10,11,11,12,12,13,13,14,14],"right_children":[2,4,6,8,10,12,14,16,18,20,22,24,26,28,30,-1,-1,-1,-1,-1,-1,-1,-1,-1,-1,-1,-1,-1,-1,-1,-1],"split_conditions":[1.4854167E0,1.7579787E0,1.4505264E0,4.3137255E-1,2.8421053E-1,2.2429078E0,8E-1,1.1029412E0,1.1578947E0,1.1470588E0,2.625E0,1.1382979E0,1.1441176E0,1.939785E0,2.487234E0,-1.9306518E-2,-6.2872763E-3,-3.207046E-2,-1.8361779E-2,1.9871488E-3,2.7155025E-2,-1.0296272E-2,3.0612564E-2,-1.4390555E-2,3.360981E-3,6.566912E-3,4.5670636E-2,2.0395512E-2,5.6798913E-2,4.906125E-2,7.732788E-2],"split_indices":[6,3,3,5,5,6,8,6,6,6,7,3,3,3,6,0,0,0,0,0,0,0,0,0,0,0,0,0,0,0,0],"split_type":[0,0,0,0,0,0,0,0,0,0,0,0,0,0,0,0,0,0,0,0,0,0,0,0,0,0,0,0,0,0,0],"sum_hessian":[4.366E3,2.643E3,1.723E3,2.256E3,3.87E2,8.84E2,8.39E2,1.409E3,8.47E2,2.91E2,9.6E1,7.4E2,1.44E2,5.42E2,2.97E2,6.12E2,7.97E2,4.49E2,3.98E2,1.36E2,1.55E2,8.9E1,7E0,2.45E2,4.95E2,5E1,9.4E1,4.06E2,1.36E2,1.94E2,1.03E2],"tree_param":{"num_deleted":"0","num_feature":"10","num_nodes":"31","size_leaf_vector":"1"}},{"base_weights":[1.2818985E-2,-1.3910067E-1,6.0994744E-1,-2.698235E-1,2.7155435E-1,3.015657E-1,1.1594839E0,-5.83137E-1,-2.050832E-1,4.248919E-2,4.7941917E-1,4.5172904E-2,5.307316E-1,9.465091E-1,2.1504092E0,-2.521707E-2,-3.484383E-2,-1.6323205E-2,-2.328433E-3,-2.1993152E-3,2.3969762E-2,3.6673386E-2,1.354634E-2,1.2051242E-2,-5.2109365E-3,1.058842E-2,4.0913604E-2,3.7613694E-2,6.6542275E-2,6.530444E-2,1.1754973E-1],"categories":[],"categories_nodes":[],"categories_segments":[],"categories_sizes":[],"default_left":[0,0,0,0,0,0,0,0,0,0,0,0,0,0,0,0,0,0,0,0,0,0,0,0,0,0,0,0,0,0,0],"id":2,"left_children":[1,3,5,7,9,11,13,15,17,19,21,23,25,27,29,-1,-1,-1,-1,-1,-1,-1,-1,-1,-1,-1,-1,-1,-1,-1,-1],"loss_changes":[3.998683E2,1.8871176E2,1.5115387E2,5.3957596E1,4.040442E1,3.3702255E1,6.570911E1,3.7352753E0,4.252584E1,1.5322662E1,2.3371674E1,7.9834704E0,2.7616302E1,1.8856186E1,6.413452E0,0E0,0E0,0E0,0E0,0E0,0E0,0E0,0E0,0E0,0E0,0E0,0E0,0E0,0E0,0E0,0E0],"parents":[2147483647,0,0,1,1,2,2,3,3,4,4,5,5,6,6,7,7,8,8,9,9,10,10,11,11,12,12,13,13,14,14],"right_children":[2,4,6,8,10,12,14,16,18,20,22,24,26,28,30,-1,-1,-1,-1,-1,-1,-1,-1,-1,-1,-1,-1,-1,-1,-1,-1],"split_conditions":[5.535714E-1,1.6305407E0,1.5263158E0,1.0789474E0,3.1578946E-1,6.262626E-1,2.1176472E0,1.55E2,-1.5E-1,-2.8392598E-1,2.2950819E-1,4.2105263E-1,1.2830188E0,1.2846289E0,1.0349462E0,-2.521707E-2,-3.484383E-2,-1.6323205E-2,-2.328433E-3,-2.1993152E-3,2.3969762E-2,3.6673386E-2,1.354634E-2,1.2051242E-2,-5.2109365E-3,1.058842E-2,4.0913604E-2,3.7613694E-2,6.6542275E-2,6.530444E-2,1.1754973E-1],"split_indices":[8,3,3,3,9,9,3,1,8,8,5,5,3,8,7,0,0,0,0,0,0,0,0,0,0,0,0,0,0,0,0],"split_type":[0,0,0,0,0,0,0,0,0,0,0,0,0,0,0,0,0,0,0,0,0,0,0,0,0,0,0,0,0,0,0],"sum_hessian":[4.406E3,3.513E3,8.93E2,2.665E3,8.48E2,5.73E2,3.2E2,4.55E2,2.21E3,4.04E2,4.44E2,2.71E2,3.02E2,2.65E2,5.5E1,2.72E2,1.83E2,1.251E3,9.59E2,3.38E2,6.6E1,1.99E2,2.45E2,1.17E2,1.54E2,1.44E2,1.58E2,1.78E2,8.7E1,1.2E1,4.3E1],"tree_param":{"num_deleted":"0","num_feature":"10","num_nodes":"31","size_leaf_vector":"1"}},{"base_weights":[5.168762E-3,-2.2259994E-1,3.9055637E-1,-4.1320074E-1,-5.2953858E-2,1.2249689E-1,8.104644E-1,-5.0964123E-1,-2.929741E-1,-1.4754975E-1,1.574671E-1,-2.9547287E-2,5.739385E-1,3.935986E-1,9.9090916E-1,-3.5986077E-2,-2.3917628E-2,-1.0523639E-2,-2.5085095E-2,-1.6418274E-2,-2.7858932E-3,6.209125E-3,8.1643544E-2,-2.2756573E-2,9.136211E-4,4.403231E-3,3.8524907E-2,1.1936876E-2,4.1896053E-2,4.2891163E-2,8.039021E-2],"categories":[],"categories_nodes":[],"categories_segments":[],"categories_sizes":[],"default_left":[0,0,0,0,0,0,0,0,0,0,0,0,0,0,0,0,0,0,0,0,0,0,0,0,0,0,0,0,0,0,0],"id":3,"left_children":[1,3,5,7,9,11,13,15,17,19,21,23,25,27,29,-1,-1,-1,-1,-1,-1,-1,-1,-1,-1,-1,-1,-1,-1,-1,-1],"loss_changes":[3.882467E2,8.986853E1,1.8483737E2,1.5028152E1,2.9323334E1,6.893057E1,4.7751556E1,4.4212494E0,9.968288E0,1.6852026E1,2.2239685E1,1.5312503E1,2.4094452E1,1.3217566E1,3.5237396E1,0E0,0E0,0E0,0E0,0E0,0E0,0E0,0E0,0E0,0E0,0E0,0E0,0E0,0E0,0E0,0E0],"parents":[2147483647,0,0,1,1,2,2,3,3,4,4,5,5,6,6,7,7,8,8,9,9,10,10,11,11,12,12,13,13,14,14],"right_children":[2,4,6,8,10,12,14,16,18,20,22,24,26,28,30,-1,-1,-1,-1,-1,-1,-1,-1,-1,-1,-1,-1,-1,-1,-1,-1],"split_conditions":[1.5159575E0,1.3684211E0,1.5263158E0,1.1764706E0,1.6764706E0,2.2091837E0,1.7368422E0,9.622642E-1,2.0016327E0,-4.473684E-1,2.8181818E0,1.0349462E0,1.1541667E0,1.9411764E0,2.1176472E0,-3.5986077E-2,-2.3917628E-2,-1.0523639E-2,-2.5085095E-2,-1.6418274E-2,-2.7858932E-3,6.209125E-3,8.1643544E-2,-2.2756573E-2,9.136211E-4,4.403231E-3,3.8524907E-2,1.1936876E-2,4.1896053E-2,4.2891163E-2,8.039021E-2],"split_indices":[6,3,3,6,3,6,6,3,2,8,3,3,3,3,3,0,0,0,0,0,0,0,0,0,0,0,0,0,0,0,0],"split_type":[0,0,0,0,0,0,0,0,0,0,0,0,0,0,0,0,0,0,0,0,0,0,0,0,0,0,0,0,0,0,0],"sum_hessian":[4.421E3,2.779E3,1.642E3,1.308E3,1.471E3,1.003E3,6.39E2,7.24E2,5.84E2,1.015E3,4.56E2,7.51E2,2.52E2,1.94E2,4.45E2,9.1E1,6.33E2,4.2E2,1.64E2,3.41E2,6.74E2,4.47E2,9E0,7.5E1,6.76E2,7.3E1,1.79E2,1.45E2,4.9E1,3.68E2,7.7E1],"tree_param":{"num_deleted":"0","num_feature":"10","num_nodes":"31","size_leaf_vector":"1"}},{"base_weights":[-7.961795E-3,-2.2533791E-1,3.7879443E-1,1.6582377E-2,-3.361745E-1,1.0833513E0,2.3395465E-1,2.3677945E-1,-8.859756E-2,-4.4572747E-1,-2.126636E-1,7.360556E-1,1.3821235E0,3.9881214E-2,5.084331E-1,-4.349762E-2,1.3786911E-2,-1.5663331E-2,6.426173E-4,-1.822296E-2,-2.7574455E-2,-7.22697E-3,-2.4816917E-2,7.223287E-2,3.0289253E-2,8.822651E-2,4.7632866E-2,9.830705E-3,-7.3356405E-3,1.9099355E-2,4.448124E-2],"categories":[],"categories_nodes":[],"categories_segments":[],"categories_sizes":[],"default_left":[0,0,0,0,0,0,0,0,0,0,0,0,0,0,0,0,0,0,0,0,0,0,0,0,0,0,0,0,0,0,0],"id":4,"left_children":[1,3,5,7,9,11,13,15,17,19,21,23,25,27,29,-1,-1,-1,-1,-1,-1,-1,-1,-1,-1,-1,-1,-1,-1,-1,-1],"loss_changes":[3.7033655E2,7.5619965E1,1.6149237E2,2.0564177E1,2.6074142E1,2.6998505E1,7.0081696E1,1.2614431E1,1.370241E1,8.600342E0,1.753344E1,1.0848221E1,2.1968231E1,2.2606312E1,2.592926E1,0E0,0E0,0E0,0E0,0E0,0E0,0E0,0E0,0E0,0E0,0E0,0E0,0E0,0E0,0E0,0E0],"parents":[2147483647,0,0,1,1,2,2,3,3,4,4,5,5,6,6,7,7,8,8,9,9,10,10,11,11,12,12,13,13,14,14],"right_children":[2,4,6,8,10,12,14,16,18,20,22,24,26,28,30,-1,-1,-1,-1,-1,-1,-1,-1,-1,-1,-1,-1,-1,-1,-1,-1],"split_conditions":[1.5159575E0,-3.107765E-1,-6.143617E-1,-8.181818E-1,1.1764706E0,1.8333334E0,2.0016327E0,7.368421E-1,-5E-1,2.96875E-1,2.0615137E0,-1.4E0,1.22E2,4.1666666E-1,2.6007128E0,-4.349762E-2,1.3786911E-2,-1.5663331E-2,6.426173E-4,-1.822296E-2,-2.7574455E-2,-7.22697E-3,-2.4816917E-2,7.223287E-2,3.0289253E-2,8.822651E-2,4.7632866E-2,9.830705E-3,-7.3356405E-3,1.9099355E-2,4.448124E-2],"split_indices":[6,4,4,4,6,6,6,6,8,4,2,4,0,5,6,0,0,0,0,0,0,0,0,0,0,0,0,0,0,0,0],"split_type":[0,0,0,0,0,0,0,0,0,0,0,0,0,0,0,0,0,0,0,0,0,0,0,0,0,0,0,0,0,0,0],"sum_hessian":[4.403E3,2.819E3,1.584E3,8.86E2,1.933E3,2.69E2,1.315E3,2.86E2,6E2,1.023E3,9.1E2,1.26E2,1.43E2,7.71E2,5.44E2,9E0,2.77E2,1.86E2,4.14E2,5.81E2,4.42E2,7.35E2,1.75E2,1.8E1,1.08E2,7.4E1,6.9E1,4.19E2,3.52E2,4.1E2,1.34E2],"tree_param":{"num_deleted":"0","num_feature":"10","num_nodes":"31","size_leaf_vector":"1"}},{"base_weights":[5.973702E-3,-2.0609301E-1,3.3715475E-1,-3.7585318E-1,-5.75275E-2,1.0491209E0,1.8882082E-1,-5.553138E-1,-3.1312022E-1,-1.267002E-1,1.480422E-1,9.0251786E-1,1.599108E0,2.2618635E-2,5.4581136E-1,-2.8624952E-2,9.645796E-3,-2.4035394E-2,-9.397077E-3,-1.5617541E-2,-3.282775E-3,-3.5122484E-3,1.5819103E-2,-1.335858E-2,4.750351E-2,1.2894897E-1,6.1176002E-2,1.10955285E-2,-9.105896E-3,2.2269392E-3,4.0363412E-2],"categories":[],"categories_nodes":[],"categories_segments":[],"categories_sizes":[],"default_left":[0,0,0,0,0,0,0,0,0,0,0,0,0,0,0,0,0,0,0,0,0,0,0,0,0,0,0,0,0,0,0],"id":5,"left_children":[1,3,5,7,9,11,13,15,17,19,21,23,25,27,29,-1,-1,-1,-1,-1,-1,-1,-1,-1,-1,-1,-1,-1,-1,-1,-1],"loss_changes":[3.0909238E2,6.7645E1,1.8123772E2,1.3921249E1,2.0381527E1,2.2423157E1,8.441797E1,4.263733E0,1.941957E1,1.2128452E1,1.3287687E1,1.3380508E1,1.9294266E1,3.970029E1,5.920372E1,0E0,0E0,0E0,0E0,0E0,0E0,0E0,0E0,0E0,0E0,0E0,0E0,0E0,0E0,0E0,0E0],"parents":[2147483647,0,0,1,1,2,2,3,3,4,4,5,5,6,6,7,7,8,8,9,9,10,10,11,11,12,12,13,13,14,14],"right_children":[2,4,6,8,10,12,14,16,18,20,22,24,26,28,30,-1,-1,-1,-1,-1,-1,-1,-1,-1,-1,-1,-1,-1,-1,-1,-1],"split_conditions":[1.4854167E0,1.3684211E0,-6E-1,1.0760195E0,1.7579787E0,2.1625E0,6.1627907E-1,1.4814814E0,1.0882353E0,9.8333335E-1,1.1470588E0,1.525E0,1.03E2,1.2278369E-1,1.2554426E0,-2.8624952E-2,9.645796E-3,-2.4035394E-2,-9.397077E-3,-1.5617541E-2,-3.282775E-3,-3.5122484E-3,1.5819103E-2,-1.335858E-2,4.750351E-2,1.2894897E-1,6.1176002E-2,1.10955285E-2,-9.105896E-3,2.2269392E-3,4.0363412E-2],"split_indices":[6,3,4,3,3,6,9,6,6,6,6,3,0,4,3,0,0,0,0,0,0,0,0,0,0,0,0,0,0,0,0],"split_type":[0,0,0,0,0,0,0,0,0,0,0,0,0,0,0,0,0,0,0,0,0,0,0,0,0,0,0,0,0,0,0],"sum_hessian":[4.399E3,2.682E3,1.717E3,1.251E3,1.431E3,2.95E2,1.422E3,3.22E2,9.29E2,1.071E3,3.6E2,2.35E2,6E1,9.71E2,4.51E2,3.15E2,7E0,3.96E2,5.33E2,2.64E2,8.07E2,1.57E2,2.03E2,9E0,2.26E2,1.5E1,4.5E1,4.92E2,4.79E2,1.55E2,2.96E2],"tree_param":{"num_deleted":"0","num_feature":"10","num_nodes":"31","size_leaf_vector":"1"}},{"base_weights":[4.849299E-3,-2.0929857E-1,3.2381094E-1,-3.6653966E-1,-4.9594518E-2,2.7980868E-2,6.330552E-1,-4.942949E-1,-2.8724223E-1,-1.2619771E-1,1.4958386E-1,-4.7672827E-2,4.1797572E-1,4.6215826E-1,9.9757E-1,-1.8408244E-2,-2.8388504E-2,-2.8393362E-2,-1.2086303E-2,-1.8642433E-2,-3.069084E-3,-1.4806734E-3,1.7224485E-2,-1.0765835E-2,2.772832E-3,2.5846854E-2,-1.1566387E-2,4.044963E-2,1.3023028E-2,4.41578E-2,1.0486157E-1],"categories":[],"categories_nodes":[],"categories_segments":[],"categories_sizes":[],"default_left":[0,0,0,0,0,0,0,0,0,0,0,0,0,0,0,0,0,0,0,0,0,0,0,0,0,0,0,0,0,0,0],"id":6,"left_children":[1,3,5,7,9,11,13,15,17,19,21,23,25,27,29,-1,-1,-1,-1,-1,-1,-1,-1,-1,-1,-1,-1,-1,-1,-1,-1],"loss_changes":[2.9842377E2,6.56247E1,1.6053625E2,1.3200104E1,1.9823372E1,2.6515013E1,5.298761E1,4.452484E0,1.0272705E1,1.4972861E1,1.2618705E1,1.3030575E1,9.500954E0,4.0783333E1,3.249579E1,0E0,0E0,0E0,0E0,0E0,0E0,0E0,0E0,0E0,0E0,0E0,0E0,0E0,0E0,0E0,0E0],"parents":[2147483647,0,0,1,1,2,2,3,3,4,4,5,5,6,6,7,7,8,8,9,9,10,10,11,11,12,12,13,13,14,14],"right_children":[2,4,6,8,10,12,14,16,18,20,22,24,26,28,30,-1,-1,-1,-1,-1,-1,-1,-1,-1,-1,-1,-1,-1,-1,-1,-1],"split_conditions":[1.4852941E0,1.3919355E0,1.4458333E0,1.0526316E0,1.7579787E0,2.2429078E0,8.5E-1,3.75E-1,1.0201379E0,9.4736844E-1,2.8723404E-1,1.1578947E0,1.1600177E0,-6E-1,2.264706E0,-1.8408244E-2,-2.8388504E-2,-2.8393362E-2,-1.2086303E-2,-1.8642433E-2,-3.069084E-3,-1.4806734E-3,1.7224485E-2,-1.0765835E-2,2.772832E-3,2.5846854E-2,-1.1566387E-2,4.044963E-2,1.3023028E-2,4.41578E-2,1.0486157E-1],"split_indices":[6,3,3,6,3,6,8,5,3,6,9,3,4,4,3,0,0,0,0,0,0,0,0,0,0,0,0,0,0,0,0],"split_type":[0,0,0,0,0,0,0,0,0,0,0,0,0,0,0,0,0,0,0,0,0,0,0,0,0,0,0,0,0,0,0],"sum_hessian":[4.367E3,2.613E3,1.754E3,1.316E3,1.297E3,8.97E2,8.57E2,5.02E2,8.14E2,9.37E2,3.6E2,7.52E2,1.45E2,5.85E2,2.72E2,1.87E2,3.15E2,1.12E2,7.02E2,1.94E2,7.43E2,1.88E2,1.72E2,2.86E2,4.66E2,1.26E2,1.9E1,2.14E2,3.71E2,2.48E2,2.4E1],"tree_param":{"num_deleted":"0","num_feature":"10","num_nodes":"31","size_leaf_vector":"1"}},{"base_weights":[-1.0653138E-3,-1.9301549E-1,3.3069962E-1,-3.5425246E-1,-6.19123E-2,4.0731583E-2,6.216863E-1,-4.596488E-1,-2.7948627E-1,-7.193975E-2,1.4955262E0,-5.112026E-2,4.3395025E-1,4.835454E-1,9.833809E-1,-1.3582817E-2,-2.4240252E-2,-3.5584938E-2,-1.2394941E-2,-7.962441E-3,4.375731E-3,1.2946034E-2,8.02079E-2,-1.0368238E-2,2.096236E-3,2.4337878E-3,3.2569584E-2,1.2126404E-2,3.779404E-2,2.9910142E-2,5.4817613E-2],"categories":[],"categories_nodes":[],"categories_segments":[],"categories_sizes":[],"default_left":[0,0,0,0,0,0,0,0,0,0,0,0,0,0,0,0,0,0,0,0,0,0,0,0,0,0,0,0,0,0,0],"id":7,"left_children":[1,3,5,7,9,11,13,15,17,19,21,23,25,27,29,-1,-1,-1,-1,-1,-1,-1,-1,-1,-1,-1,-1,-1,-1,-1,-1],"loss_changes":[2.8338657E2,5.9568016E1,1.3759329E2,9.831955E0,2.4407866E1,2.9566591E1,4.019583E1,2.341652E0,9.95372E0,2.155098E1,9.279957E-1,9.66177E0,1.2953356E1,3.8608475E1,9.091309E0,0E0,0E0,0E0,0E0,0E0,0E0,0E0,0E0,0E0,0E0,0E0,0E0,0E0,0E0,0E0,0E0],"parents":[2147483647,0,0,1,1,2,2,3,3,4,4,5,5,6,6,7,7,8,8,9,9,10,10,11,11,12,12,13,13,14,14],"right_children":[2,4,6,8,10,12,14,16,18,20,22,24,26,28,30,-1,-1,-1,-1,-1,-1,-1,-1,-1,-1,-1,-1,-1,-1,-1,-1],"split_conditions":[1.5159575E0,1.360849E0,1.4361345E0,1.0882353E0,2.8181818E0,2.2429078E0,1.882353E0,2.7E1,7.848793E-1,1.2352941E0,2.7E1,1.1714286E0,1.1441176E0,7.409131E-1,1.7365004E0,-1.3582817E-2,-2.4240252E-2,-3.5584938E-2,-1.2394941E-2,-7.962441E-3,4.375731E-3,1.2946034E-2,8.02079E-2,-1.0368238E-2,2.096236E-3,2.4337878E-3,3.2569584E-2,1.2126404E-2,3.779404E-2,2.9910142E-2,5.4817613E-2],"split_indices":[6,3,3,6,3,6,3,0,3,6,1,3,3,8,6,0,0,0,0,0,0,0,0,0,0,0,0,0,0,0,0],"split_type":[0,0,0,0,0,0,0,0,0,0,0,0,0,0,0,0,0,0,0,0,0,0,0,0,0,0,0,0,0,0,0],"sum_hessian":[4.448E3,2.818E3,1.63E3,1.263E3,1.555E3,8.17E2,8.13E2,5.22E2,7.41E2,1.546E3,9E0,6.63E2,1.54E2,5.9E2,2.23E2,6.3E1,4.59E2,4.9E1,6.92E2,9.99E2,5.47E2,1E0,8E0,2.47E2,4.16E2,5.6E1,9.8E1,3.14E2,2.76E2,5.2E1,1.71E2],"tree_param":{"num_deleted":"0","num_feature":"10","num_nodes":"31","size_leaf_vector":"1"}},{"base_weights":[9.173202E-4,-1.7455412E-1,3.114681E-1,-3.3222395E-1,-3.3022378E-2,8.809883E-1,1.8694685E-1,-5.0489336E-1,-2.966403E-1,-1.7917627E-1,9.6645266E-2,7.6752514E-1,1.5983009E0,8.463811E-2,5.019212E-1,2.2056969E-2,-2.5979925E-2,-1.5216161E-3,-1.619737E-2,-9.966865E-3,2.9676868E-2,1.7398981E-3,2.4682838E-2,-1.8332163E-2,4.0588424E-2,1.1318215E-1,5.5793323E-2,-1.2983548E-3,1.4902432E-2,-1.9516863E-3,3.2677233E-2],"categories":[],"categories_nodes":[],"categories_segments":[],"categories_sizes":[],"default_left":[0,0,0,0,0,0,0,0,0,0,0,0,0,0,0,0,0,0,0,0,0,0,0,0,0,0,0,0,0,0,0],"id":8,"left_children":[1,3,5,7,9,11,13,15,17,19,21,23,25,27,29,-1,-1,-1,-1,-1,-1,-1,-1,-1,-1,-1,-1,-1,-1,-1,-1],"loss_changes":[2.3998613E2,6.278425E1,1.125939E2,8.028168E0,2.814124E1,2.1969025E1,4.204288E1,3.3732147E0,8.030052E0,1.0992254E1,1.9306892E1,1.2742111E1,9.671471E0,2.3305199E1,2.6272385E1,0E0,0E0,0E0,0E0,0E0,0E0,0E0,0E0,0E0,0E0,0E0,0E0,0E0,0E0,0E0,0E0],"parents":[2147483647,0,0,1,1,2,2,3,3,4,4,5,5,6,6,7,7,8,8,9,9,10,10,11,11,12,12,13,13,14,14],"right_children":[2,4,6,8,10,12,14,16,18,20,22,24,26,28,30,-1,-1,-1,-1,-1,-1,-1,-1,-1,-1,-1,-1,-1,-1,-1,-1],"split_conditions":[1.5159575E0,1.3684211E0,-6E-1,9.435642E-1,1.1470588E0,2.487234E0,2.2091837E0,3E0,-6.8421054E-1,1.9E2,2.0735295E0,1.525E0,1.08E2,1.4736842E0,1.1541667E0,2.2056969E-2,-2.5979925E-2,-1.5216161E-3,-1.619737E-2,-9.966865E-3,2.9676868E-2,1.7398981E-3,2.4682838E-2,-1.8332163E-2,4.0588424E-2,1.1318215E-1,5.5793323E-2,-1.2983548E-3,1.4902432E-2,-1.9516863E-3,3.2677233E-2],"split_indices":[6,3,4,6,6,6,6,0,8,0,3,3,0,3,3,0,0,0,0,0,0,0,0,0,0,0,0,0,0,0,0],"split_type":[0,0,0,0,0,0,0,0,0,0,0,0,0,0,0,0,0,0,0,0,0,0,0,0,0,0,0,0,0,0,0],"sum_hessian":[4.402E3,2.813E3,1.589E3,1.33E3,1.483E3,2.84E2,1.305E3,2.25E2,1.105E3,6.97E2,7.86E2,2.47E2,3.7E1,9.86E2,3.19E2,3E0,2.22E2,1.03E2,1.002E3,6.8E2,1.7E1,6.81E2,1.05E2,9E0,2.38E2,1.4E1,2.3E1,6.5E2,3.36E2,7E1,2.49E2],"tree_param":{"num_deleted":"0","num_feature":"10","num_nodes":"31","size_leaf_vector":"1"}},{"base_weights":[5.435315E-3,-1.04539536E-1,4.7308382E-1,-1.7959517E-1,2.3828384E-1,9.217425E-2,6.324983E-1,-2.5608063E-1,-1.7826984E-2,1.4282538E-1,6.887317E-1,-4.7107613E-1,1.4342351E-1,5.166895E-1,9.556712E-1,-1.715737E-2,-7.34912E-3,-1.6901776E-2,2.8609515E-3,-3.4319118E-3,1.3091003E-2,8.8646404E-2,2.6422707E-2,-1.4613892E-3,-3.2293346E-2,-1.2772458E-2,1.05941985E-2,5.3065594E-2,2.2028556E-2,-1.3700431E-3,5.1182915E-2],"categories":[],"categories_nodes":[],"categories_segments":[],"categories_sizes":[],"default_left":[0,0,0,0,0,0,0,0,0,0,0,0,0,0,0,0,0,0,0,0,0,0,0,0,0,0,0,0,0,0,0],"id":9,"left_children":[1,3,5,7,9,11,13,15,17,19,21,23,25,27,29,-1,-1,-1,-1,-1,-1,-1,-1,-1,-1,-1,-1,-1,-1,-1,-1],"loss_changes":[2.269053E2,9.195331E1,5.0948624E1,3.6260437E1,2.7507027E1,7.2552404E0,2.1662567E1,1.8852219E1,2.2655952E1,1.3379548E1,1.8525589E1,1.6029744E0,6.3074284E0,1.7690033E1,1.038765E1,0E0,0E0,0E0,0E0,0E0,0E0,0E0,0E0,0E0,0E0,0E0,0E0,0E0,0E0,0E0,0E0],"parents":[2147483647,0,0,1,1,2,2,3,3,4,4,5,5,6,6,7,7,8,8,9,9,10,10,11,11,12,12,13,13,14,14],"right_children":[2,4,6,8,10,12,14,16,18,20,22,24,26,28,30,-1,-1,-1,-1,-1,-1,-1,-1,-1,-1,-1,-1,-1,-1,-1,-1],"split_conditions":[1.8641775E0,1.6764706E0,1.2554426E0,1.390058E0,1.7217948E0,3E0,2.487234E0,1.3684211E0,1.1382979E0,1.1470588E0,9E0,1.375E0,9.622642E-1,9.2105263E-1,2.9E1,-1.715737E-2,-7.34912E-3,-1.6901776E-2,2.8609515E-3,-3.4319118E-3,1.3091003E-2,8.8646404E-2,2.6422707E-2,-1.4613892E-3,-3.2293346E-2,-1.2772458E-2,1.05941985E-2,5.3065594E-2,2.2028556E-2,-1.3700431E-3,5.1182915E-2],"split_indices":[6,3,3,6,6,1,6,3,3,6,1,2,3,2,0,0,0,0,0,0,0,0,0,0,0,0,0,0,0,0,0],"split_type":[0,0,0,0,0,0,0,0,0,0,0,0,0,0,0,0,0,0,0,0,0,0,0,0,0,0,0,0,0,0,0],"sum_hessian":[4.41E3,3.571E3,8.39E2,2.93E3,6.41E2,2.48E2,5.91E2,1.989E3,9.41E2,5.3E2,1.11E2,2E1,2.28E2,4.37E2,1.54E2,1.105E3,8.84E2,1.78E2,7.63E2,1.91E2,3.39E2,1.3E1,9.8E1,6E0,1.4E1,3.3E1,1.95E2,5.2E1,3.85E2,1E1,1.44E2],"tree_param":{"num_deleted":"0","num_feature":"10","num_nodes":"31","size_leaf_vector":"1"}},{"base_weights":[2.3053735E-4,-1.0270389E-1,4.4178778E-1,-2.1309444E-1,1.0495702E-1,2.659264E-1,7.42307E-1,-2.862564E-1,-7.160047E-2,1.9352762E-2,3.8207096E-1,1.604737E-1,6.782645E-1,6.727636E-1,1.6474514E0,-1.0228257E-2,-1.9037563E-2,9.437509E-4,-1.213391E-2,1.6444006E-4,5.822919E-2,3.644211E-2,9.212946E-3,-1.8554261E-2,1.043153E-2,-2.3889279E-2,3.582873E-2,2.4835534E-2,5.1166553E-2,-2.487978E-2,1.0907193E-1],"categories":[],"categories_nodes":[],"categories_segments":[],"categories_sizes":[],"default_left":[0,0,0,0,0,0,0,0,0,0,0,0,0,0,0,0,0,0,0,0,0,0,0,0,0,0,0,0,0,0,0],"id":10,"left_children":[1,3,5,7,9,11,13,15,17,19,21,23,25,27,29,-1,-1,-1,-1,-1,-1,-1,-1,-1,-1,-1,-1,-1,-1,-1,-1],"loss_changes":[1.9835002E2,8.11497E1,4.3403625E1,2.3902924E1,2.9147106E1,2.2588844E1,1.8027512E1,1.1678764E1,1.22169895E1,1.72893E1,1.9758404E1,1.075188E1,5.03693E0,1.7019714E1,2.5139465E1,0E0,0E0,0E0,0E0,0E0,0E0,0E0,0E0,0E0,0E0,0E0,0E0,0E0,0E0,0E0,0E0],"parents":[2147483647,0,0,1,1,2,2,3,3,4,4,5,5,6,6,7,7,8,8,9,9,10,10,11,11,12,12,13,13,14,14],"right_children":[2,4,6,8,10,12,14,16,18,20,22,24,26,28,30,-1,-1,-1,-1,-1,-1,-1,-1,-1,-1,-1,-1,-1,-1,-1,-1],"split_conditions":[1.8641775E0,1.5111712E0,1.5263158E0,1.3882979E0,1.5259309E0,2.6007128E0,2.625E0,4.2592594E-1,5.1282054E-1,2.8181818E0,2.3529412E-1,9.622642E-1,9E0,1.2846289E0,1.9042553E0,-1.0228257E-2,-1.9037563E-2,9.437509E-4,-1.213391E-2,1.6444006E-4,5.822919E-2,3.644211E-2,9.212946E-3,-1.8554261E-2,1.043153E-2,-2.3889279E-2,3.582873E-2,2.4835534E-2,5.1166553E-2,-2.487978E-2,1.0907193E-1],"split_indices":[6,3,3,6,6,6,3,5,5,3,5,3,0,8,6,0,0,0,0,0,0,0,0,0,0,0,0,0,0,0,0],"split_type":[0,0,0,0,0,0,0,0,0,0,0,0,0,0,0,0,0,0,0,0,0,0,0,0,0,0,0,0,0,0,0],"sum_hessian":[4.362E3,3.538E3,8.24E2,2.31E3,1.228E3,5.21E2,3.03E2,1.522E3,7.88E2,9.39E2,2.89E2,4.16E2,1.05E2,2.83E2,2E1,8.18E2,7.04E2,5.16E2,2.72E2,9.27E2,1.2E1,1.04E2,1.85E2,3.4E1,3.82E2,3E0,1.02E2,1.9E2,9.3E1,4E0,1.6E1],"tree_param":{"num_deleted":"0","num_feature":"10","num_nodes":"31","size_leaf_vector":"1"}},{"base_weights":[-4.7670808E-4,-1.3235661E-1,3.249321E-1,5.5730786E-2,-2.2012745E-1,4.587473E-2,6.1567444E-1,-9.101128E-2,1.6401619E-1,-2.992042E-1,-7.5579815E-2,-5.4905556E-2,3.900082E-1,5.2014136E-1,1.2156626E0,2.0702288E-2,-6.0619153E-3,4.1950434E-3,2.1862421E-2,-1.342085E-2,-2.4392067E-2,2.021643E-3,-1.7788801E-2,-1.9338746E-2,-1.2570918E-3,-2.3478815E-2,2.317634E-2,3.4968905E-2,1.7180748E-2,2.6463866E-2,6.7860305E-2],"categories":[],"categories_nodes":[],"categories_segments":[],"categories_sizes":[],"default_left":[0,0,0,0,0,0,0,0,0,0,0,0,0,0,0,0,0,0,0,0,0,0,0,0,0,0,0,0,0,0,0],"id":11,"left_children":[1,3,5,7,9,11,13,15,17,19,21,23,25,27,29,-1,-1,-1,-1,-1,-1,-1,-1,-1,-1,-1,-1,-1,-1,-1,-1],"loss_changes":[1.8749522E2,5.1337467E1,1.0220033E2,1.574605E1,2.4209755E1,2.235654E1,3.4733337E1,6.477341E0,1.2440666E1,7.82547E0,2.4426622E1,4.919231E0,9.444191E0,1.6655441E1,7.4425507E0,0E0,0E0,0E0,0E0,0E0,0E0,0E0,0E0,0E0,0E0,0E0,0E0,0E0,0E0,0E0,0E0],"parents":[2147483647,0,0,1,1,2,2,3,3,4,4,5,5,6,6,7,7,8,8,9,9,10,10,11,11,12,12,13,13,14,14],"right_children":[2,4,6,8,10,12,14,16,18,20,22,24,26,28,30,-1,-1,-1,-1,-1,-1,-1,-1,-1,-1,-1,-1,-1,-1,-1,-1],"split_conditions":[1.7E0,-3.107765E-1,1.4505264E0,1.1470588E0,1.2958333E0,2.2429078E0,2.1176472E0,9.836066E-2,2.0735295E0,1.1587481E0,5.1282054E-1,5E0,1.7E1,1.203125E0,1.0349462E0,2.0702288E-2,-6.0619153E-3,4.1950434E-3,2.1862421E-2,-1.342085E-2,-2.4392067E-2,2.021643E-3,-1.7788801E-2,-1.9338746E-2,-1.2570918E-3,-2.3478815E-2,2.317634E-2,3.4968905E-2,1.7180748E-2,2.6463866E-2,6.7860305E-2],"split_indices":[6,4,3,6,6,6,3,5,3,4,5,1,0,7,7,0,0,0,0,0,0,0,0,0,0,0,0,0,0,0,0],"split_type":[0,0,0,0,0,0,0,0,0,0,0,0,0,0,0,0,0,0,0,0,0,0,0,0,0,0,0,0,0,0,0],"sum_hessian":[4.367E3,3.108E3,1.259E3,9.89E2,2.119E3,6.43E2,6.16E2,4.2E2,5.69E2,1.369E3,7.5E2,4.98E2,1.45E2,5.33E2,8.3E1,2.3E1,3.97E2,4.41E2,1.28E2,1.179E3,1.9E2,5.31E2,2.19E2,4E1,4.58E2,1.1E1,1.34E2,2.63E2,2.7E2,1.5E1,6.8E1],"tree_param":{"num_deleted":"0","num_feature":"10","num_nodes":"31","size_leaf_vector":"1"}},{"base_weights":[-6.1775777E-3,-1.1463938E-1,3.679449E-1,-1.7137311E-1,1.5931657E-1,8.965159E-1,2.519881E-1,-2.3076652E-1,3.6410328E-3,1.3993643E-1,9.9978745E-1,1.154872E0,5.9673035E-1,1.6514422E-1,7.1341306E-1,-7.1378388E-3,-1.6805014E-2,-1.0892567E-2,2.9940268E-3,1.048438E-2,-7.913486E-3,6.094558E-2,-4.0742557E-2,5.1168453E-2,1.0270436E-1,2.264514E-2,6.7370564E-2,-3.982023E-3,1.4854415E-2,1.4776896E-2,4.5702755E-2],"categories":[],"categories_nodes":[],"categories_segments":[],"categories_sizes":[],"default_left":[0,0,0,0,0,0,0,0,0,0,0,0,0,0,0,0,0,0,0,0,0,0,0,0,0,0,0,0,0,0,0],"id":12,"left_children":[1,3,5,7,9,11,13,15,17,19,21,23,25,27,29,-1,-1,-1,-1,-1,-1,-1,-1,-1,-1,-1,-1,-1,-1,-1,-1],"loss_changes":[1.7801729E2,5.2887478E1,6.0207413E1,2.9293068E1,9.372542E0,1.301976E1,3.234046E1,1.9456947E1,8.919529E0,1.1930916E1,6.1624374E0,9.013351E0,8.459118E0,2.2083122E1,1.0461815E1,0E0,0E0,0E0,0E0,0E0,0E0,0E0,0E0,0E0,0E0,0E0,0E0,0E0,0E0,0E0,0E0],"parents":[2147483647,0,0,1,1,2,2,3,3,4,4,5,5,6,6,7,7,8,8,9,9,10,10,11,11,12,12,13,13,14,14],"right_children":[2,4,6,8,10,12,14,16,18,20,22,24,26,28,30,-1,-1,-1,-1,-1,-1,-1,-1,-1,-1,-1,-1,-1,-1,-1,-1],"split_conditions":[1.7810284E0,1.6764706E0,-5.8687943E-1,1.4117647E0,2.8181818E0,1.22E2,2.6007128E0,3.8947368E-1,1.1382979E0,1.8235294E0,1.14E2,1.4094563E0,2.6852355E0,1.2647059E0,1.2554426E0,-7.1378388E-3,-1.6805014E-2,-1.0892567E-2,2.9940268E-3,1.048438E-2,-7.913486E-3,6.094558E-2,-4.0742557E-2,5.1168453E-2,1.0270436E-1,2.264514E-2,6.7370564E-2,-3.982023E-3,1.4854415E-2,1.4776896E-2,4.5702755E-2],"split_indices":[6,3,4,6,3,0,6,5,3,7,0,8,6,3,3,0,0,0,0,0,0,0,0,0,0,0,0,0,0,0,0],"split_type":[0,0,0,0,0,0,0,0,0,0,0,0,0,0,0,0,0,0,0,0,0,0,0,0,0,0,0,0,0,0,0],"sum_hessian":[4.385E3,3.4E3,9.85E2,2.817E3,5.83E2,1.76E2,8.09E2,2.103E3,7.14E2,5.71E2,1.2E1,9.3E1,8.3E1,6.82E2,1.27E2,1.147E3,9.56E2,1.44E2,5.7E2,4.63E2,1.08E2,1.1E1,1E0,8.3E1,1E1,7.1E1,1.2E1,2.39E2,4.43E2,4.2E1,8.5E1],"tree_param":{"num_deleted":"0","num_feature":"10","num_nodes":"31","size_leaf_vector":"1"}},{"base_weights":[6.099559E-3,-1.4197163E-1,2.3890308E-1,3.5956986E-2,-2.2646353E-1,4.1740343E-2,4.4139558E-1,2.6274147E-2,1.4194517E0,-4.008092E-1,-1.911463E-1,-3.0449595E-2,3.842466E-1,1.961951E-1,5.669452E-1,-1.8872121E-2,2.6345174E-3,1.0129529E-2,8.111529E-2,-2.0623108E-2,2.9105341E-2,-2.0773968E-2,-8.383832E-3,-1.5484223E-2,6.607917E-4,-2.3820024E-2,2.309872E-2,2.419075E-2,-4.8409733E-3,2.5486534E-2,5.5639204E-2],"categories":[],"categories_nodes":[],"categories_segments":[],"categories_sizes":[],"default_left":[0,0,0,0,0,0,0,0,0,0,0,0,0,0,0,0,0,0,0,0,0,0,0,0,0,0,0,0,0,0,0],"id":13,"left_children":[1,3,5,7,9,11,13,15,17,19,21,23,25,27,29,-1,-1,-1,-1,-1,-1,-1,-1,-1,-1,-1,-1,-1,-1,-1,-1],"loss_changes":[1.5153615E2,4.0403225E1,6.821164E1,1.1563777E1,1.1142181E1,2.1448713E1,2.5840378E1,9.202157E0,1.1524076E0,3.7449875E0,7.917366E0,8.746409E0,1.0321413E1,2.4234291E1,1.6827835E1,0E0,0E0,0E0,0E0,0E0,0E0,0E0,0E0,0E0,0E0,0E0,0E0,0E0,0E0,0E0,0E0],"parents":[2147483647,0,0,1,1,2,2,3,3,4,4,5,5,6,6,7,7,8,8,9,9,10,10,11,11,12,12,13,13,14,14],"right_children":[2,4,6,8,10,12,14,16,18,20,22,24,26,28,30,-1,-1,-1,-1,-1,-1,-1,-1,-1,-1,-1,-1,-1,-1,-1,-1],"split_conditions":[1.4854167E0,-3.107765E-1,1.4361345E0,2.7727273E0,9.435642E-1,2.2429078E0,1.7368422E0,-1.117647E0,2.7E1,1.8157895E0,1.0185186E0,1.0349462E0,9.7278666E-1,1.2958333E0,2.3235295E0,-1.8872121E-2,2.6345174E-3,1.0129529E-2,8.111529E-2,-2.0623108E-2,2.9105341E-2,-2.0773968E-2,-8.383832E-3,-1.5484223E-2,6.607917E-4,-2.3820024E-2,2.309872E-2,2.419075E-2,-4.8409733E-3,2.5486534E-2,5.5639204E-2],"split_indices":[6,4,3,3,6,6,6,8,1,3,3,3,2,2,3,0,0,0,0,0,0,0,0,0,0,0,0,0,0,0,0],"split_type":[0,0,0,0,0,0,0,0,0,0,0,0,0,0,0,0,0,0,0,0,0,0,0,0,0,0,0,0,0,0,0],"sum_hessian":[4.394E3,2.686E3,1.708E3,8.65E2,1.821E3,8.66E2,8.42E2,8.6E2,5E0,3.05E2,1.516E3,7.16E2,1.5E2,2.86E2,5.56E2,5.2E1,8.08E2,1E0,4E0,3.02E2,3E0,1.42E2,1.374E3,9.6E1,6.2E2,1.2E1,1.38E2,1.44E2,1.42E2,5.05E2,5.1E1],"tree_param":{"num_deleted":"0","num_feature":"10","num_nodes":"31","size_leaf_vector":"1"}},{"base_weights":[-8.607075E-3,-9.0173185E-2,3.549266E-1,-2.0617805E-1,5.16581E-2,-3.387006E-2,5.3260326E-1,-2.7167302E-1,-9.5531546E-2,-1.2077603E-1,1.6011198E-1,-3.733922E-1,3.6756564E-2,4.6592808E-1,1.4827467E0,-9.08179E-3,-1.6876979E-2,-1.6206423E-2,2.1662333E-4,-2.0334834E-2,-4.6310937E-3,5.108683E-3,2.5012229E-2,-5.369742E-3,-2.536369E-2,-1.2079316E-2,6.3213916E-3,1.841189E-2,3.5367727E-2,-2.050484E-2,8.03076E-2],"categories":[],"categories_nodes":[],"categories_segments":[],"categories_sizes":[],"default_left":[0,0,0,0,0,0,0,0,0,0,0,0,0,0,0,0,0,0,0,0,0,0,0,0,0,0,0,0,0,0,0],"id":14,"left_children":[1,3,5,7,9,11,13,15,17,19,21,23,25,27,29,-1,-1,-1,-1,-1,-1,-1,-1,-1,-1,-1,-1,-1,-1,-1,-1],"loss_changes":[1.3106433E2,5.940641E1,5.59729E1,1.4366173E1,3.0408709E1,6.1284475E0,3.4532288E1,7.333954E0,1.689457E1,5.017639E0,1.9616188E1,1.5124555E0,5.321928E0,1.2027313E1,9.06781E0,0E0,0E0,0E0,0E0,0E0,0E0,0E0,0E0,0E0,0E0,0E0,0E0,0E0,0E0,0E0,0E0],"parents":[2147483647,0,0,1,1,2,2,3,3,4,4,5,5,6,6,7,7,8,8,9,9,10,10,11,11,12,12,13,13,14,14],"right_children":[2,4,6,8,10,12,14,16,18,20,22,24,26,28,30,-1,-1,-1,-1,-1,-1,-1,-1,-1,-1,-1,-1,-1,-1,-1,-1],"split_conditions":[1.9042553E0,1.4361345E0,1.2727273E0,1.3480221E0,1.1714286E0,9.622642E-1,2.264706E0,2.9411765E-2,1.1388888E0,7.105263E-1,2.0789473E0,2.0016327E0,2.9411765E-2,2.487234E0,1.9436275E0,-9.08179E-3,-1.6876979E-2,-1.6206423E-2,2.1662333E-4,-2.0334834E-2,-4.6310937E-3,5.108683E-3,2.5012229E-2,-5.369742E-3,-2.536369E-2,-1.2079316E-2,6.3213916E-3,1.841189E-2,3.5367727E-2,-2.050484E-2,8.03076E-2],"split_indices":[6,3,3,6,6,3,3,4,3,6,3,6,4,6,6,0,0,0,0,0,0,0,0,0,0,0,0,0,0,0,0],"split_type":[0,0,0,0,0,0,0,0,0,0,0,0,0,0,0,0,0,0,0,0,0,0,0,0,0,0,0,0,0,0,0],"sum_hessian":[4.418E3,3.609E3,8.09E2,1.985E3,1.624E3,2.54E2,5.55E2,1.246E3,7.39E2,6.27E2,9.97E2,4.3E1,2.11E2,5.2E2,3.5E1,5.28E2,7.18E2,2.24E2,5.15E2,5.5E1,5.72E2,8.53E2,1.44E2,1.5E1,2.8E1,5.1E1,1.6E2,3.72E2,1.48E2,2E0,3.3E1],"tree_param":{"num_deleted":"0","num_feature":"10","num_nodes":"31","size_leaf_vector":"1"}},{"base_weights":[-2.976033E-3,-1.1554885E-1,3.0053717E-1,4.196604E-2,-1.9087298E-1,8.0589525E-2,5.37263E-1,-1.8407884E-1,1.02359034E-1,-2.924184E-1,-1.0584656E-1,-1.651116E-1,1.9281931E-1,8.7661034E-1,4.1456464E-1,-2.804256E-2,-7.064278E-3,3.8302399E-3,4.135902E-2,-1.9222053E-2,-1.2435534E-2,-2.8495588E-3,-1.1884233E-2,-5.2445184E-4,-1.4031789E-2,-1.9634089E-2,1.2573831E-2,3.639061E-2,6.2272407E-2,1.1527428E-2,3.303416E-2],"categories":[],"categories_nodes":[],"categories_segments":[],"categories_sizes":[],"default_left":[0,0,0,0,0,0,0,0,0,0,0,0,0,0,0,0,0,0,0,0,0,0,0,0,0,0,0,0,0,0,0],"id":15,"left_children":[1,3,5,7,9,11,13,15,17,19,21,23,25,27,29,-1,-1,-1,-1,-1,-1,-1,-1,-1,-1,-1,-1,-1,-1,-1,-1],"loss_changes":[1.5002934E2,3.8010548E1,6.1812645E1,1.4175476E1,1.8679016E1,1.7045603E1,2.3453156E1,3.4517684E0,1.5225087E1,3.874199E0,7.593276E0,3.4624095E0,1.4660572E1,7.380783E0,1.8959969E1,0E0,0E0,0E0,0E0,0E0,0E0,0E0,0E0,0E0,0E0,0E0,0E0,0E0,0E0,0E0,0E0],"parents":[2147483647,0,0,1,1,2,2,3,3,4,4,5,5,6,6,7,7,8,8,9,9,10,10,11,11,12,12,13,13,14,14],"right_children":[2,4,6,8,10,12,14,16,18,20,22,24,26,28,30,-1,-1,-1,-1,-1,-1,-1,-1,-1,-1,-1,-1,-1,-1,-1,-1],"split_conditions":[1.7368422E0,-3.107765E-1,1.4505264E0,2.3157895E-1,1.1578947E0,1.8641775E0,-7.8571427E-1,4.2E1,2.5294118E0,9.435642E-1,5.483871E-1,1.7766691E0,9.347826E-1,2.1625E0,6.2393165E-1,-2.804256E-2,-7.064278E-3,3.8302399E-3,4.135902E-2,-1.9222053E-2,-1.2435534E-2,-2.8495588E-3,-1.1884233E-2,-5.2445184E-4,-1.4031789E-2,-1.9634089E-2,1.2573831E-2,3.639061E-2,6.2272407E-2,1.1527428E-2,3.303416E-2],"split_indices":[6,4,3,9,6,6,4,1,3,6,5,6,3,6,9,0,0,0,0,0,0,0,0,0,0,0,0,0,0,0,0],"split_type":[0,0,0,0,0,0,0,0,0,0,0,0,0,0,0,0,0,0,0,0,0,0,0,0,0,0,0,0,0,0,0],"sum_hessian":[4.389E3,3.202E3,1.187E3,1.036E3,2.166E3,6.16E2,5.71E2,2.18E2,8.18E2,9.86E2,1.18E3,1.93E2,4.23E2,1.5E2,4.21E2,2.1E1,1.97E2,7.91E2,2.7E1,3.15E2,6.71E2,8.62E2,3.18E2,8.3E1,1.1E2,3.8E1,3.85E2,1.09E2,4.1E1,2.42E2,1.79E2],"tree_param":{"num_deleted":"0","num_feature":"10","num_nodes":"31","size_leaf_vector":"1"}},{"base_weights":[3.010108E-3,-7.2290845E-2,3.267642E-1,-1.0525336E-1,3.097707E-1,7.486775E-3,4.394381E-1,-2.4999152E-1,-5.1038597E-2,2.12728E-1,8.0512714E-1,-3.9514127E-1,8.445123E-2,3.9641356E-1,1.0614034E0,-6.8177874E-3,-1.7530302E-2,-1.2309648E-2,-4.4904454E-4,8.3065545E-3,5.3822935E-2,3.3737298E-2,1.0027217E-1,-3.9929736E-2,-1.3287835E-2,-1.0046159E-3,1.9812299E-2,2.4622876E-2,6.082313E-3,-3.1671558E-2,6.365984E-2],"categories":[],"categories_nodes":[],"categories_segments":[],"categories_sizes":[],"default_left":[0,0,0,0,0,0,0,0,0,0,0,0,0,0,0,0,0,0,0,0,0,0,0,0,0,0,0,0,0,0,0],"id":16,"left_children":[1,3,5,7,9,11,13,15,17,19,21,23,25,27,29,-1,-1,-1,-1,-1,-1,-1,-1,-1,-1,-1,-1,-1,-1,-1,-1],"loss_changes":[1.0697425E2,4.486621E1,2.9783371E1,2.5709526E1,1.3432745E1,6.757777E0,1.5956238E1,1.016222E1,1.9581469E1,9.399996E0,5.8457775E0,1.6147909E0,5.973053E0,1.5087799E1,1.4805717E1,0E0,0E0,0E0,0E0,0E0,0E0,0E0,0E0,0E0,0E0,0E0,0E0,0E0,0E0,0E0,0E0],"parents":[2147483647,0,0,1,1,2,2,3,3,4,4,5,5,6,6,7,7,8,8,9,9,10,10,11,11,12,12,13,13,14,14],"right_children":[2,4,6,8,10,12,14,16,18,20,22,24,26,28,30,-1,-1,-1,-1,-1,-1,-1,-1,-1,-1,-1,-1,-1,-1,-1,-1],"split_conditions":[1.8641775E0,1.9705882E0,1.2324911E0,1.0441177E0,1.7365004E0,9.347826E-1,2.3235295E0,1.2945479E0,1.1382979E0,2.8181818E0,2.5503355E-1,3.8E1,2.487234E0,1.203125E0,1.9042553E0,-6.8177874E-3,-1.7530302E-2,-1.2309648E-2,-4.4904454E-4,8.3065545E-3,5.3822935E-2,3.3737298E-2,1.0027217E-1,-3.9929736E-2,-1.3287835E-2,-1.0046159E-3,1.9812299E-2,2.4622876E-2,6.082313E-3,-3.1671558E-2,6.365984E-2],"split_indices":[6,3,3,6,6,3,3,2,3,3,5,1,6,7,6,0,0,0,0,0,0,0,0,0,0,0,0,0,0,0,0],"split_type":[0,0,0,0,0,0,0,0,0,0,0,0,0,0,0,0,0,0,0,0,0,0,0,0,0,0,0,0,0,0,0],"sum_hessian":[4.386E3,3.559E3,8.27E2,3.277E3,2.82E2,2.16E2,6.11E2,8.92E2,2.385E3,2.37E2,4.5E1,3.4E1,1.82E2,5.73E2,3.8E1,4.2E2,4.72E2,4.22E2,1.963E3,2.26E2,1.1E1,4.2E1,3E0,7E0,2.7E1,1.37E2,4.5E1,4.24E2,1.49E2,4E0,3.4E1],"tree_param":{"num_deleted":"0","num_feature":"10","num_nodes":"31","size_leaf_vector":"1"}},{"base_weights":[-8.686688E-3,-1.332049E-1,1.8458632E-1,-1.0057749E-2,-2.0716113E-1,6.326272E-1,9.157393E-2,-4.9223263E-2,1.8168204E-1,-2.5000677E-1,-6.1120234E-2,5.463784E-1,1.2577219E0,5.0787654E-2,5.184335E-1,-4.6383392E-2,-1.7618338E-3,1.1786206E-2,-4.0563107E-2,-1.6035555E-2,-1.02117555E-2,-1.1423758E-2,5.968589E-3,4.701632E-2,2.1953335E-2,9.276406E-2,3.8550112E-2,-4.714647E-3,7.966741E-3,2.9631246E-2,-1.4879485E-2],"categories":[],"categories_nodes":[],"categories_segments":[],"categories_sizes":[],"default_left":[0,0,0,0,0,0,0,0,0,0,0,0,0,0,0,0,0,0,0,0,0,0,0,0,0,0,0,0,0,0,0],"id":17,"left_children":[1,3,5,7,9,11,13,15,17,19,21,23,25,27,29,-1,-1,-1,-1,-1,-1,-1,-1,-1,-1,-1,-1,-1,-1,-1,-1],"loss_changes":[1.05457794E2,2.4269402E1,7.149521E1,7.5260396E0,1.0402977E1,1.5217354E1,2.4748116E1,1.0189632E1,9.313562E0,4.099556E0,1.1475434E1,1.0620956E1,8.749107E0,2.048754E1,7.6835594E0,0E0,0E0,0E0,0E0,0E0,0E0,0E0,0E0,0E0,0E0,0E0,0E0,0E0,0E0,0E0,0E0],"parents":[2147483647,0,0,1,1,2,2,3,3,4,4,5,5,6,6,7,7,8,8,9,9,10,10,11,11,12,12,13,13,14,14],"right_children":[2,4,6,8,10,12,14,16,18,20,22,24,26,28,30,-1,-1,-1,-1,-1,-1,-1,-1,-1,-1,-1,-1,-1,-1,-1,-1],"split_conditions":[1.4854167E0,-2.7327126E-1,-6E-1,1.9736842E0,1.4361345E0,2.487234E0,2.6007128E0,6.8421054E-1,1.1875E-1,1.0526316E0,1.1482713E0,-1.2368422E0,1.08E2,1.2894737E0,1.1587481E0,-4.6383392E-2,-1.7618338E-3,1.1786206E-2,-4.0563107E-2,-1.6035555E-2,-1.02117555E-2,-1.1423758E-2,5.968589E-3,4.701632E-2,2.1953335E-2,9.276406E-2,3.8550112E-2,-4.714647E-3,7.966741E-3,2.9631246E-2,-1.4879485E-2],"split_indices":[6,4,4,3,3,6,6,2,8,6,6,4,0,3,4,0,0,0,0,0,0,0,0,0,0,0,0,0,0,0,0],"split_type":[0,0,0,0,0,0,0,0,0,0,0,0,0,0,0,0,0,0,0,0,0,0,0,0,0,0,0,0,0,0,0],"sum_hessian":[4.38E3,2.664E3,1.716E3,1E3,1.664E3,2.94E2,1.422E3,8.31E2,1.69E2,1.286E3,3.78E2,2.6E2,3.4E1,1.299E3,1.23E2,1.2E1,8.19E2,1.61E2,8E0,5.03E2,7.83E2,1.96E2,1.82E2,5.4E1,2.06E2,1.4E1,2E1,5.56E2,7.43E2,1.13E2,1E1],"tree_param":{"num_deleted":"0","num_feature":"10","num_nodes":"31","size_leaf_vector":"1"}},{"base_weights":[-6.373979E-3,-9.2919074E-2,2.0792021E-1,-1.3103968E-1,2.3907474E-1,7.942656E-2,5.452186E-1,-1.1018758E-1,-2.7981156E-1,-9.649354E-2,3.6800086E-1,1.6468383E-1,-6.724895E-2,4.655536E-1,1.0505929E0,-8.137822E-3,-2.3726565E-3,-1.14883855E-2,-2.4469787E-2,3.7048503E-3,-2.3187973E-2,9.567459E-3,4.646192E-2,-3.743283E-2,9.257683E-3,-3.1417828E-2,-3.455969E-4,4.80865E-2,1.9987693E-2,5.7801712E-2,-3.3160783E-3],"categories":[],"categories_nodes":[],"categories_segments":[],"categories_sizes":[],"default_left":[0,0,0,0,0,0,0,0,0,0,0,0,0,0,0,0,0,0,0,0,0,0,0,0,0,0,0,0,0,0,0],"id":18,"left_children":[1,3,5,7,9,11,13,15,17,19,21,23,25,27,29,-1,-1,-1,-1,-1,-1,-1,-1,-1,-1,-1,-1,-1,-1,-1,-1],"loss_changes":[8.2067314E1,3.992243E1,5.51294E1,8.742203E0,1.4096155E1,1.1553331E1,1.3642372E1,8.177612E0,3.5270271E0,5.7357035E0,2.3120926E1,1.1057035E1,1.1506545E1,9.573273E0,5.611809E0,0E0,0E0,0E0,0E0,0E0,0E0,0E0,0E0,0E0,0E0,0E0,0E0,0E0,0E0,0E0,0E0],"parents":[2147483647,0,0,1,1,2,2,3,3,4,4,5,5,6,6,7,7,8,8,9,9,10,10,11,11,12,12,13,13,14,14],"right_children":[2,4,6,8,10,12,14,16,18,20,22,24,26,28,30,-1,-1,-1,-1,-1,-1,-1,-1,-1,-1,-1,-1,-1,-1,-1,-1],"split_conditions":[1.5588236E0,6.262626E-1,4.8101267E-1,1.71E2,1.1578947E0,2.9473683E-1,2.264706E0,1.2894737E0,1.88E2,1.1600177E0,1.7368422E0,6.363636E-1,-4.8095238E-1,9E0,1.49E2,-8.137822E-3,-2.3726565E-3,-1.14883855E-2,-2.4469787E-2,3.7048503E-3,-2.3187973E-2,9.567459E-3,4.646192E-2,-3.743283E-2,9.257683E-3,-3.1417828E-2,-3.455969E-4,4.80865E-2,1.9987693E-2,5.7801712E-2,-3.3160783E-3],"split_indices":[3,9,9,1,3,5,3,3,1,4,2,2,4,1,1,0,0,0,0,0,0,0,0,0,0,0,0,0,0,0,0],"split_type":[0,0,0,0,0,0,0,0,0,0,0,0,0,0,0,0,0,0,0,0,0,0,0,0,0,0,0,0,0,0,0],"sum_hessian":[4.423E3,3.151E3,1.272E3,2.827E3,3.24E2,9.22E2,3.5E2,2.481E3,3.46E2,9E1,2.34E2,5.83E2,3.39E2,3.04E2,4.6E1,1.349E3,1.132E3,2.81E2,6.5E1,6.2E1,2.8E1,1.79E2,5.5E1,1.2E1,5.71E2,3.2E1,3.07E2,3.4E1,2.7E2,4.2E1,4E0],"tree_param":{"num_deleted":"0","num_feature":"10","num_nodes":"31","size_leaf_vector":"1"}},{"base_weights":[-8.9763235E-3,-7.755012E-2,2.64861E-1,-1.1038152E-2,-1.8577315E-1,6.060447E-1,1.9719228E-1,-9.3621865E-2,9.5152505E-2,-2.9829305E-1,-1.1118139E-1,1.2350035E0,4.516643E-1,7.990344E-2,3.6604097E-1,2.0181788E-2,-5.625287E-3,9.785014E-3,-1.8837441E-3,-1.645411E-2,-7.2844065E-5,-2.879693E-3,-1.29452E-2,6.795585E-2,-5.2901562E-2,1.1620768E-2,3.7259728E-2,-5.6150854E-3,7.3449053E-3,2.2172382E-2,-1.3801648E-2],"categories":[],"categories_nodes":[],"categories_segments":[],"categories_sizes":[],"default_left":[0,0,0,0,0,0,0,0,0,0,0,0,0,0,0,0,0,0,0,0,0,0,0,0,0,0,0,0,0,0,0],"id":19,"left_children":[1,3,5,7,9,11,13,15,17,19,21,23,25,27,29,-1,-1,-1,-1,-1,-1,-1,-1,-1,-1,-1,-1,-1,-1,-1,-1],"loss_changes":[8.2418686E1,2.5263376E1,2.017437E1,1.9082829E1,1.1179958E1,1.352153E1,1.4526741E1,1.1538957E1,1.2721809E1,4.861641E0,6.357543E0,9.4066925E0,7.4208374E0,5.6178694E0,1.5082348E1,0E0,0E0,0E0,0E0,0E0,0E0,0E0,0E0,0E0,0E0,0E0,0E0,0E0,0E0,0E0,0E0],"parents":[2147483647,0,0,1,1,2,2,3,3,4,4,5,5,6,6,7,7,8,8,9,9,10,10,11,11,12,12,13,13,14,14],"right_children":[2,4,6,8,10,12,14,16,18,20,22,24,26,28,30,-1,-1,-1,-1,-1,-1,-1,-1,-1,-1,-1,-1,-1,-1,-1,-1],"split_conditions":[1.8125E0,1.1170213E-1,-6.143617E-1,1.2941177E0,1.1578947E0,5.1282054E-1,1.1600177E0,1.0526316E-1,4.2105263E-1,1.85E2,1.44E2,3.2352942E-1,2.1625E0,5.176471E-1,1.1587481E0,2.0181788E-2,-5.625287E-3,9.785014E-3,-1.8837441E-3,-1.645411E-2,-7.2844065E-5,-2.879693E-3,-1.29452E-2,6.795585E-2,-5.2901562E-2,1.1620768E-2,3.7259728E-2,-5.6150854E-3,7.3449053E-3,2.2172382E-2,-1.3801648E-2],"split_indices":[6,4,4,6,6,9,8,5,9,1,1,5,6,9,4,0,0,0,0,0,0,0,0,0,0,0,0,0,0,0,0],"split_type":[0,0,0,0,0,0,0,0,0,0,0,0,0,0,0,0,0,0,0,0,0,0,0,0,0,0,0,0,0,0,0],"sum_hessian":[4.387E3,3.509E3,8.78E2,2.174E3,1.335E3,1.44E2,7.34E2,1.223E3,9.51E2,5.31E2,8.04E2,2.7E1,1.17E2,4.34E2,3E2,4.4E1,1.179E3,5.41E2,4.1E2,4.81E2,5E1,5.91E2,2.13E2,2.6E1,1E0,6.8E1,4.9E1,1.12E2,3.22E2,2.68E2,3.2E1],"tree_param":{"num_deleted":"0","num_feature":"10","num_nodes":"31","size_leaf_vector":"1"}},{"base_weights":[-3.993605E-3,-7.400486E-2,2.659551E-1,-1.8345137E-1,-9.515033E-3,6.652028E-1,1.7507845E-1,-4.587799E-2,-2.3579754E-1,5.9581675E-2,-1.0746737E-1,9.311562E-1,3.3880132E-1,1.0765856E-1,5.0646245E-1,-4.0669832E-3,3.863996E-2,-1.5564299E-2,-8.903513E-3,-6.7991193E-4,9.13702E-3,-3.072134E-3,-1.6252344E-2,9.8192785E-3,5.1425766E-2,2.6373506E-2,-9.471653E-3,9.5059285E-3,-1.1777411E-3,2.917823E-2,-1.3410649E-2],"categories":[],"categories_nodes":[],"categories_segments":[],"categories_sizes":[],"default_left":[0,0,0,0,0,0,0,0,0,0,0,0,0,0,0,0,0,0,0,0,0,0,0,0,0,0,0,0,0,0,0],"id":20,"left_children":[1,3,5,7,9,11,13,15,17,19,21,23,25,27,29,-1,-1,-1,-1,-1,-1,-1,-1,-1,-1,-1,-1,-1,-1,-1,-1],"loss_changes":[8.332844E1,2.4708967E1,3.2827858E1,9.336651E0,1.4923479E1,1.4268196E1,1.6500803E1,1.0485227E1,4.040844E0,1.1655964E1,9.1128235E0,6.379387E0,7.773844E0,6.6803293E0,7.6226616E0,0E0,0E0,0E0,0E0,0E0,0E0,0E0,0E0,0E0,0E0,0E0,0E0,0E0,0E0,0E0,0E0],"parents":[2147483647,0,0,1,1,2,2,3,3,4,4,5,5,6,6,7,7,8,8,9,9,10,10,11,11,12,12,13,13,14,14],"right_children":[2,4,6,8,10,12,14,16,18,20,22,24,26,28,30,-1,-1,-1,-1,-1,-1,-1,-1,-1,-1,-1,-1,-1,-1,-1,-1],"split_conditions":[1.8E0,1.1315789E0,-5.8687943E-1,-3.3333334E-1,-2.220446E-16,1.27E2,2.6007128E0,-3.6842105E-1,2.3529412E-1,1.5294118E0,1.49E2,2.9E1,1.1388888E0,3.1578946E-1,1.1587481E0,-4.0669832E-3,3.863996E-2,-1.5564299E-2,-8.903513E-3,-6.7991193E-4,9.13702E-3,-3.072134E-3,-1.6252344E-2,9.8192785E-3,5.1425766E-2,2.6373506E-2,-9.471653E-3,9.5059285E-3,-1.1777411E-3,2.917823E-2,-1.3410649E-2],"split_indices":[6,6,4,4,4,0,6,4,9,7,0,0,7,4,4,0,0,0,0,0,0,0,0,0,0,0,0,0,0,0,0],"split_type":[0,0,0,0,0,0,0,0,0,0,0,0,0,0,0,0,0,0,0,0,0,0,0,0,0,0,0,0,0,0,0],"sum_hessian":[4.407E3,3.5E3,9.07E2,1.297E3,2.203E3,1.67E2,7.4E2,3.58E2,9.39E2,1.292E3,9.11E2,9.1E1,7.6E1,6.16E2,1.24E2,3.44E2,1.4E1,4.05E2,5.34E2,8.11E2,4.81E2,7.53E2,1.58E2,1.1E1,8E1,5.6E1,2E1,3.78E2,2.38E2,1.13E2,1.1E1],"tree_param":{"num_deleted":"0","num_feature":"10","num_nodes":"31","size_leaf_vector":"1"}},{"base_weights":[6.047727E-3,-5.3099167E-2,2.7433756E-1,8.202139E-2,-1.1006697E-1,6.636424E-1,2.200903E-1,-6.56548E-2,1.7170945E-1,-2.2147071E-1,-5.7776198E-2,1.8583265E-1,8.2033134E-1,1.3747475E-1,4.292998E-1,-6.561529E-3,9.02241E-3,3.61388E-2,6.8468447E-3,-7.033491E-3,-1.6825521E-2,-4.4732136E-4,-7.3446943E-3,6.680929E-2,-1.5884703E-3,3.0101895E-2,8.823686E-2,9.258353E-3,-5.3658113E-3,-2.0556336E-2,2.4074672E-2],"categories":[],"categories_nodes":[],"categories_segments":[],"categories_sizes":[],"default_left":[0,0,0,0,0,0,0,0,0,0,0,0,0,0,0,0,0,0,0,0,0,0,0,0,0,0,0,0,0,0,0],"id":21,"left_children":[1,3,5,7,9,11,13,15,17,19,21,23,25,27,29,-1,-1,-1,-1,-1,-1,-1,-1,-1,-1,-1,-1,-1,-1,-1,-1],"loss_changes":[6.931235E1,2.7558453E1,1.6516617E1,1.4077239E1,1.4655531E1,7.0348396E0,1.193605E1,6.511316E0,1.2567102E1,7.426094E0,7.461674E0,6.30043E0,1.3780907E1,5.845521E0,8.795471E0,0E0,0E0,0E0,0E0,0E0,0E0,0E0,0E0,0E0,0E0,0E0,0E0,0E0,0E0,0E0,0E0],"parents":[2147483647,0,0,1,1,2,2,3,3,4,4,5,5,6,6,7,7,8,8,9,9,10,10,11,11,12,12,13,13,14,14],"right_children":[2,4,6,8,10,12,14,16,18,20,22,24,26,28,30,-1,-1,-1,-1,-1,-1,-1,-1,-1,-1,-1,-1,-1,-1,-1,-1],"split_conditions":[1.9042553E0,-3.2954955E-1,-7.941176E-1,-3.2954955E-1,1.0882353E0,3.2E1,2.487234E0,2.8421053E-1,1.1E1,2.96875E-1,1.775E0,2E0,2.547619E0,8.1440496E-1,1.7E1,-6.561529E-3,9.02241E-3,3.61388E-2,6.8468447E-3,-7.033491E-3,-1.6825521E-2,-4.4732136E-4,-7.3446943E-3,6.680929E-2,-1.5884703E-3,3.0101895E-2,8.823686E-2,9.258353E-3,-5.3658113E-3,-2.0556336E-2,2.4074672E-2],"split_indices":[6,4,4,8,6,1,6,9,1,4,2,0,6,4,0,0,0,0,0,0,0,0,0,0,0,0,0,0,0,0,0],"split_type":[0,0,0,0,0,0,0,0,0,0,0,0,0,0,0,0,0,0,0,0,0,0,0,0,0,0,0,0,0,0,0],"sum_hessian":[4.366E3,3.578E3,7.88E2,1.061E3,2.517E3,9.5E1,6.93E2,4.01E2,6.6E2,8.03E2,1.714E3,2.4E1,7.1E1,4.98E2,1.95E2,3.17E2,8.4E1,3.8E1,6.22E2,4.73E2,3.3E2,1.108E3,6.06E2,3E0,2.1E1,5.9E1,1.2E1,4.17E2,8.1E1,1.1E1,1.84E2],"tree_param":{"num_deleted":"0","num_feature":"10","num_nodes":"31","size_leaf_vector":"1"}},{"base_weights":[-5.7136873E-3,-9.1628134E-2,1.515872E-1,-9.658057E-2,1.0818948E0,6.215865E-2,4.5329615E-1,-5.40853E-2,-2.033329E-1,7.1575525E-3,1.1542213E0,-1.2939161E-1,1.2701051E-1,-6.581158E-1,4.8751777E-1,-6.305846E-3,7.5685006E-4,-2.2431722E-2,-9.271198E-3,7.263602E-2,3.8805947E-2,-1.9247472E-2,-3.558163E-3,2.3827208E-3,1.7930243E-2,6.3427663E-3,-5.6239646E-2,5.3852983E-2,2.1491162E-2],"categories":[],"categories_nodes":[],"categories_segments":[],"categories_sizes":[],"default_left":[0,0,0,0,0,0,0,0,0,0,0,0,0,0,0,0,0,0,0,0,0,0,0,0,0,0,0,0,0],"id":22,"left_children":[1,3,5,7,9,11,13,15,17,-1,19,21,23,25,27,-1,-1,-1,-1,-1,-1,-1,-1,-1,-1,-1,-1,-1,-1],"loss_changes":[5.92611E1,1.6586763E1,4.1766003E1,1.2804529E1,6.495247E-1,1.4873615E1,1.3784996E1,1.0083994E1,3.4488564E0,0E0,1.1401272E-1,4.4814606E0,1.641322E1,4.1722946E0,1.1237633E1,0E0,0E0,0E0,0E0,0E0,0E0,0E0,0E0,0E0,0E0,0E0,0E0,0E0,0E0],"parents":[2147483647,0,0,1,1,2,2,3,3,4,4,5,5,6,6,7,7,8,8,10,10,11,11,12,12,13,13,14,14],"right_children":[2,4,6,8,10,12,14,16,18,-1,20,22,24,26,28,-1,-1,-1,-1,-1,-1,-1,-1,-1,-1,-1,-1,-1,-1],"split_conditions":[1.5259309E0,2.8181818E0,1.7354167E0,3.1578946E-1,2.7E1,1.1578947E0,-1.08333334E-1,1.1470588E0,7.368421E-1,7.1575525E-3,1.3368795E0,9.347826E-1,2.2091837E0,1.5384616E-1,9E0,-6.305846E-3,7.5685006E-4,-2.2431722E-2,-9.271198E-3,7.263602E-2,3.8805947E-2,-1.9247472E-2,-3.558163E-3,2.3827208E-3,1.7930243E-2,6.3427663E-3,-5.6239646E-2,5.3852983E-2,2.1491162E-2],"split_indices":[6,3,3,4,1,3,8,6,6,0,6,3,6,5,1,0,0,0,0,0,0,0,0,0,0,0,0,0,0],"split_type":[0,0,0,0,0,0,0,0,0,0,0,0,0,0,0,0,0,0,0,0,0,0,0,0,0,0,0,0,0],"sum_hessian":[4.383E3,2.835E3,1.548E3,2.824E3,1.1E1,1.195E3,3.53E2,2.021E3,8.03E2,1E0,1E1,3.02E2,8.93E2,1E1,3.43E2,9.9E2,1.031E3,5.3E1,7.5E2,4E0,6E0,5.5E1,2.47E2,6.66E2,2.27E2,4E0,6E0,2.9E1,3.14E2],"tree_param":{"num_deleted":"0","num_feature":"10","num_nodes":"29","size_leaf_vector":"1"}},{"base_weights":[-6.76538E-3,-6.676758E-2,2.1909438E-1,-1.02393806E-1,2.2309285E-1,1.19802825E-1,4.84845E-1,-4.8379127E-2,-1.6110763E-1,2.8333032E-1,-2.698555E-1,5.4288644E-1,7.52903E-2,1.1360035E0,4.3864426E-1,-1.0417904E-2,-9.5324934E-4,-1.0924504E-2,-4.083635E-3,8.000457E-3,3.378391E-2,-2.0562503E-2,2.4793364E-2,1.2598214E-2,4.9332317E-2,-3.3353248E-3,8.429817E-3,-1.8629013E-2,7.563991E-2,1.2553731E-2,3.0020146E-2],"categories":[],"categories_nodes":[],"categories_segments":[],"categories_sizes":[],"default_left":[0,0,0,0,0,0,0,0,0,0,0,0,0,0,0,0,0,0,0,0,0,0,0,0,0,0,0,0,0,0,0],"id":23,"left_children":[1,3,5,7,9,11,13,15,17,19,21,23,25,27,29,-1,-1,-1,-1,-1,-1,-1,-1,-1,-1,-1,-1,-1,-1,-1,-1],"loss_changes":[5.965734E1,3.593888E1,2.4323307E1,9.817226E0,1.1389858E1,1.2652243E1,7.052788E0,7.569804E0,6.7464867E0,1.634272E1,4.7512245E0,8.013775E0,8.106483E0,9.658461E0,7.0097313E0,0E0,0E0,0E0,0E0,0E0,0E0,0E0,0E0,0E0,0E0,0E0,0E0,0E0,0E0,0E0,0E0],"parents":[2147483647,0,0,1,1,2,2,3,3,4,4,5,5,6,6,7,7,8,8,9,9,10,10,11,11,12,12,13,13,14,14],"right_children":[2,4,6,8,10,12,14,16,18,20,22,24,26,28,30,-1,-1,-1,-1,-1,-1,-1,-1,-1,-1,-1,-1,-1,-1,-1,-1],"split_conditions":[1.6458334E0,6.2393165E-1,4.7179487E-1,6E-2,1.1587481E0,9.677419E-2,4.8387095E-1,2.2105263E-1,-9.8182626E-2,1.7365004E0,1.0882353E0,1.5526316E0,1.5058876E0,1E1,8.5E-1,-1.0417904E-2,-9.5324934E-4,-1.0924504E-2,-4.083635E-3,8.000457E-3,3.378391E-2,-2.0562503E-2,2.4793364E-2,1.2598214E-2,4.9332317E-2,-3.3353248E-3,8.429817E-3,-1.8629013E-2,7.563991E-2,1.2553731E-2,3.0020146E-2],"split_indices":[3,9,8,4,4,5,9,9,8,2,3,7,7,0,8,0,0,0,0,0,0,0,0,0,0,0,0,0,0,0,0],"split_type":[0,0,0,0,0,0,0,0,0,0,0,0,0,0,0,0,0,0,0,0,0,0,0,0,0,0,0,0,0,0,0],"sum_hessian":[4.4E3,3.477E3,9.23E2,3.097E3,3.8E2,6.73E2,2.5E2,1.614E3,1.483E3,3.39E2,4.1E1,6.3E1,6.1E2,1.5E1,2.35E2,2.49E2,1.365E3,8.6E2,6.23E2,2.59E2,8E1,3.5E1,6E0,3.9E1,2.4E1,2.42E2,3.68E2,3E0,1.2E1,1.1E2,1.25E2],"tree_param":{"num_deleted":"0","num_feature":"10","num_nodes":"31","size_leaf_vector":"1"}},{"base_weights":[6.451561E-3,-8.632235E-2,1.13365784E-1,-1.325969E-1,4.084903E-2,2.3892403E-2,3.374694E-1,-1.9142707E-1,-9.672563E-2,-1.5740204E-1,1.5192568E-1,-1.6953304E-2,1.7228746E-1,2.879195E-1,8.589221E-1,1.336693E-2,-9.949468E-3,-1.2325994E-2,-3.0102674E-3,-2.0663353E-2,-5.3373636E-3,5.882624E-3,3.2218102E-2,-1.8112129E-2,1.2374474E-4,-5.0765513E-3,1.4549439E-2,1.1494679E-2,2.7823357E-2,1.9572193E-2,6.0612317E-2],"categories":[],"categories_nodes":[],"categories_segments":[],"categories_sizes":[],"default_left":[0,0,0,0,0,0,0,0,0,0,0,0,0,0,0,0,0,0,0,0,0,0,0,0,0,0,0,0,0,0,0],"id":24,"left_children":[1,3,5,7,9,11,13,15,17,19,21,23,25,27,29,-1,-1,-1,-1,-1,-1,-1,-1,-1,-1,-1,-1,-1,-1,-1,-1],"loss_changes":[4.3553543E1,1.3840576E1,4.0896606E1,3.6196651E0,1.3853143E1,8.84636E0,1.4790375E1,2.315195E0,5.855036E0,2.8850217E0,6.72577E0,7.681956E0,1.0267866E1,8.177654E0,7.7840424E0,0E0,0E0,0E0,0E0,0E0,0E0,0E0,0E0,0E0,0E0,0E0,0E0,0E0,0E0,0E0,0E0],"parents":[2147483647,0,0,1,1,2,2,3,3,4,4,5,5,6,6,7,7,8,8,9,9,10,10,11,11,12,12,13,13,14,14],"right_children":[2,4,6,8,10,12,14,16,18,20,22,24,26,28,30,-1,-1,-1,-1,-1,-1,-1,-1,-1,-1,-1,-1,-1,-1,-1,-1],"split_conditions":[1.4361345E0,4.6875E-1,1.7368422E0,1.0882353E0,1.1481482E0,1.8942819E0,2.3235295E0,7.701684E-1,1.0760195E0,4.8387095E-1,8.1440496E-1,-1.2105263E0,1.3863636E0,2.487234E0,1.9436275E0,1.336693E-2,-9.949468E-3,-1.2325994E-2,-3.0102674E-3,-2.0663353E-2,-5.3373636E-3,5.882624E-3,3.2218102E-2,-1.8112129E-2,1.2374474E-4,-5.0765513E-3,1.4549439E-2,1.1494679E-2,2.7823357E-2,1.9572193E-2,6.0612317E-2],"split_indices":[3,9,6,6,3,3,3,3,3,9,4,8,7,6,6,0,0,0,0,0,0,0,0,0,0,0,0,0,0,0,0],"split_type":[0,0,0,0,0,0,0,0,0,0,0,0,0,0,0,0,0,0,0,0,0,0,0,0,0,0,0,0,0,0,0],"sum_hessian":[4.389E3,2.35E3,2.039E3,1.723E3,6.27E2,1.458E3,5.81E2,6.51E2,1.072E3,2.25E2,4.02E2,1.144E3,3.14E2,5.32E2,4.9E1,1E1,6.41E2,2.09E2,8.63E2,3.6E1,1.89E2,3.77E2,2.5E1,6E1,1.084E3,9.5E1,2.19E2,4.39E2,9.3E1,2.2E1,2.7E1],"tree_param":{"num_deleted":"0","num_feature":"10","num_nodes":"31","size_leaf_vector":"1"}},{"base_weights":[2.836187E-3,-7.730939E-2,1.5996039E-1,-1.4057891E-1,7.658383E-2,7.195002E-2,4.2332852E-1,-2.0635527E-1,-8.936802E-2,-1.1135651E-1,1.4769576E-1,-3.878551E-2,1.5373124E-1,3.4021083E-1,7.858022E-1,-1.6980788E-2,-9.029272E-3,-3.3335846E-3,-1.5936127E-2,-3.351649E-3,-2.4049642E-2,6.0523087E-3,3.167997E-2,5.3999037E-3,-6.5666097E-3,2.0143278E-3,1.7378097E-2,1.32415835E-2,4.2473886E-2,8.630964E-3,4.914731E-2],"categories":[],"categories_nodes":[],"categories_segments":[],"categories_sizes":[],"default_left":[0,0,0,0,0,0,0,0,0,0,0,0,0,0,0,0,0,0,0,0,0,0,0,0,0,0,0,0,0,0,0],"id":25,"left_children":[1,3,5,7,9,11,13,15,17,19,21,23,25,27,29,-1,-1,-1,-1,-1,-1,-1,-1,-1,-1,-1,-1,-1,-1,-1,-1],"loss_changes":[5.5697777E1,2.8529705E1,3.459916E1,6.974495E0,1.1429987E1,1.0157837E1,1.1000526E1,3.0568314E0,6.0639877E0,3.8179004E0,7.951769E0,6.4939103E0,1.4168946E1,1.1521797E1,8.171417E0,0E0,0E0,0E0,0E0,0E0,0E0,0E0,0E0,0E0,0E0,0E0,0E0,0E0,0E0,0E0,0E0],"parents":[2147483647,0,0,1,1,2,2,3,3,4,4,5,5,6,6,7,7,8,8,9,9,10,10,11,11,12,12,13,13,14,14],"right_children":[2,4,6,8,10,12,14,16,18,20,22,24,26,28,30,-1,-1,-1,-1,-1,-1,-1,-1,-1,-1,-1,-1,-1,-1,-1,-1],"split_conditions":[1.525E0,2.96875E-1,4.7179487E-1,1.2374818E0,1.1481482E0,1.5058876E0,2.1176472E0,9.347826E-1,1.8E2,2.547619E0,1.932971E0,8.6E1,-3.6666667E-1,1.7477837E0,1.0757979E0,-1.6980788E-2,-9.029272E-3,-3.3335846E-3,-1.5936127E-2,-3.351649E-3,-2.4049642E-2,6.0523087E-3,3.167997E-2,5.3999037E-3,-6.5666097E-3,2.0143278E-3,1.7378097E-2,1.32415835E-2,4.2473886E-2,8.630964E-3,4.914731E-2],"split_indices":[3,8,8,3,3,7,3,3,1,2,8,0,8,2,7,0,0,0,0,0,0,0,0,0,0,0,0,0,0,0,0],"split_type":[0,0,0,0,0,0,0,0,0,0,0,0,0,0,0,0,0,0,0,0,0,0,0,0,0,0,0,0,0,0,0],"sum_hessian":[4.421E3,2.928E3,1.493E3,2.075E3,8.53E2,1.12E3,3.73E2,9.07E2,1.168E3,2.34E2,6.19E2,4.76E2,6.44E2,3.05E2,6.8E1,1.45E2,7.62E2,1.064E3,1.04E2,2.1E2,2.4E1,5.88E2,3.1E1,1.84E2,2.92E2,4.07E2,2.37E2,2.67E2,3.8E1,1.7E1,5.1E1],"tree_param":{"num_deleted":"0","num_feature":"10","num_nodes":"31","size_leaf_vector":"1"}},{"base_weights":[-6.597611E-4,-9.5503815E-2,9.907805E-2,1.554966E-1,-1.20704785E-1,4.7156878E-2,3.0093852E-1,6.6561645E-1,9.053347E-2,-1.8478608E-1,-7.1160994E-2,3.1698484E-2,4.410922E-1,1.0635673E0,2.3993836E-1,1.462376E-2,6.6434845E-2,-1.1398575E-2,9.649764E-3,-3.8592443E-2,-8.518504E-3,-7.8110406E-3,2.298245E-3,2.1838634E-3,-1.8250523E-2,2.864151E-2,-2.1381065E-2,4.05484E-2,1.617519E-1,9.215592E-3,3.404273E-2],"categories":[],"categories_nodes":[],"categories_segments":[],"categories_sizes":[],"default_left":[0,0,0,0,0,0,0,0,0,0,0,0,0,0,0,0,0,0,0,0,0,0,0,0,0,0,0,0,0,0,0],"id":26,"left_children":[1,3,5,7,9,11,13,15,17,19,21,23,25,27,29,-1,-1,-1,-1,-1,-1,-1,-1,-1,-1,-1,-1,-1,-1,-1,-1],"loss_changes":[4.1376022E1,1.4200438E1,2.2330942E1,6.7332306E0,6.457157E0,1.0320082E1,2.0027733E1,5.3021107E0,6.0161276E0,7.3837414E0,1.1474256E1,7.7808595E0,7.5692825E0,1.4928867E1,9.8078E0,0E0,0E0,0E0,0E0,0E0,0E0,0E0,0E0,0E0,0E0,0E0,0E0,0E0,0E0,0E0,0E0],"parents":[2147483647,0,0,1,1,2,2,3,3,4,4,5,5,6,6,7,7,8,8,9,9,10,10,11,11,12,12,13,13,14,14],"right_children":[2,4,6,8,10,12,14,16,18,20,22,24,26,28,30,-1,-1,-1,-1,-1,-1,-1,-1,-1,-1,-1,-1,-1,-1,-1,-1],"split_conditions":[-1E-1,-8.181818E-1,1.7354167E0,3.3E1,-4.473684E-1,1.932971E0,9E0,2.7E1,7.105263E-1,-6.9503546E-1,1.4208999E0,1.4642857E0,8E-1,1.617647E0,1.4094563E0,1.462376E-2,6.6434845E-2,-1.1398575E-2,9.649764E-3,-3.8592443E-2,-8.518504E-3,-7.8110406E-3,2.298245E-3,2.1838634E-3,-1.8250523E-2,2.864151E-2,-2.1381065E-2,4.05484E-2,1.617519E-1,9.215592E-3,3.404273E-2],"split_indices":[8,4,3,1,8,8,1,1,2,4,3,4,4,2,8,0,0,0,0,0,0,0,0,0,0,0,0,0,0,0,0],"split_type":[0,0,0,0,0,0,0,0,0,0,0,0,0,0,0,0,0,0,0,0,0,0,0,0,0,0,0,0,0,0,0],"sum_hessian":[4.372E3,2.241E3,2.131E3,2.04E2,2.037E3,1.696E3,4.35E2,2.2E1,1.82E2,8.87E2,1.15E3,1.633E3,6.3E1,3.1E1,4.04E2,1.5E1,7E0,4.4E1,1.38E2,2E1,8.67E2,6.66E2,4.84E2,1.586E3,4.7E1,5.5E1,8E0,2.9E1,2E0,3.6E2,4.4E1],"tree_param":{"num_deleted":"0","num_feature":"10","num_nodes":"31","size_leaf_vector":"1"}},{"base_weights":[-1.0511625E-2,-9.297749E-2,1.1428613E-1,-1.6731139E-1,-2.4327751E-2,3.9467955E-1,5.4370243E-2,-1.459214E-1,-2.434459E-1,-4.4541482E-2,1.7976731E-1,8.7072766E-1,3.519855E-1,-6.932377E-3,1.8791841E-1,-7.52382E-3,2.6347026E-2,-3.7782185E-3,-1.715866E-2,2.1566901E-2,-2.7412993E-3,-5.777962E-3,1.9788275E-2,-2.81938E-2,5.459931E-2,8.926437E-3,2.2830633E-2,-1.3118829E-2,8.3508354E-4,-5.7269977E-3,1.394043E-2],"categories":[],"categories_nodes":[],"categories_segments":[],"categories_sizes":[],"default_left":[0,0,0,0,0,0,0,0,0,0,0,0,0,0,0,0,0,0,0,0,0,0,0,0,0,0,0,0,0,0,0],"id":27,"left_children":[1,3,5,7,9,11,13,15,17,19,21,23,25,27,29,-1,-1,-1,-1,-1,-1,-1,-1,-1,-1,-1,-1,-1,-1,-1,-1],"loss_changes":[4.5859505E1,1.3687283E1,2.9764977E1,2.062008E0,5.7672367E0,6.034733E0,1.1970483E1,3.1686993E0,4.678673E0,6.244155E0,8.083273E0,8.551201E0,5.145191E0,6.059674E0,1.2677563E1,0E0,0E0,0E0,0E0,0E0,0E0,0E0,0E0,0E0,0E0,0E0,0E0,0E0,0E0,0E0,0E0],"parents":[2147483647,0,0,1,1,2,2,3,3,4,4,5,5,6,6,7,7,8,8,9,9,10,10,11,11,12,12,13,13,14,14],"right_children":[2,4,6,8,10,12,14,16,18,20,22,24,26,28,30,-1,-1,-1,-1,-1,-1,-1,-1,-1,-1,-1,-1,-1,-1,-1,-1],"split_conditions":[1.4852941E0,1.382353E0,-6E-1,3.478261E-1,2.0882354E0,7.8947365E-2,6.1627907E-1,1.4210813E0,3.7142858E-1,9.836066E-2,1.5058876E0,1.0349462E0,1.764706E-1,-4.55914E-1,1.1541667E0,-7.52382E-3,2.6347026E-2,-3.7782185E-3,-1.715866E-2,2.1566901E-2,-2.7412993E-3,-5.777962E-3,1.9788275E-2,-2.81938E-2,5.459931E-2,8.926437E-3,2.2830633E-2,-1.3118829E-2,8.3508354E-4,-5.7269977E-3,1.394043E-2],"split_indices":[6,3,4,9,3,5,9,6,5,5,7,7,5,4,3,0,0,0,0,0,0,0,0,0,0,0,0,0,0,0,0],"split_type":[0,0,0,0,0,0,0,0,0,0,0,0,0,0,0,0,0,0,0,0,0,0,0,0,0,0,0,0,0,0,0],"sum_hessian":[4.454E3,2.682E3,1.772E3,1.287E3,1.395E3,3.11E2,1.461E3,1.007E3,2.8E2,1.27E3,1.25E2,2.4E1,2.87E2,1.002E3,4.59E2,1.001E3,6E0,1.05E2,1.75E2,2.6E1,1.244E3,5.3E1,7.2E1,3E0,2.1E1,1.09E2,1.78E2,8.4E1,9.18E2,1.06E2,3.53E2],"tree_param":{"num_deleted":"0","num_feature":"10","num_nodes":"31","size_leaf_vector":"1"}},{"base_weights":[-2.410281E-3,-8.2345E-2,1.1459049E-1,-2.649538E-1,-5.6913815E-2,5.233294E-2,2.9239476E-1,-3.481799E-1,-2.0233917E-1,-7.0461124E-2,1.7554529E-1,2.2048369E-2,3.6243463E-1,1.0701158E0,2.3616952E-1,-2.0098401E-2,-6.317772E-3,-5.9166285E-3,-2.0746332E-2,-3.983071E-2,-3.3032123E-3,-8.027962E-3,1.8420083E-2,-1.801594E-2,1.9937658E-3,2.8570322E-2,7.188899E-3,1.1480766E-2,6.528472E-2,6.402628E-3,3.1561073E-2],"categories":[],"categories_nodes":[],"categories_segments":[],"categories_sizes":[],"default_left":[0,0,0,0,0,0,0,0,0,0,0,0,0,0,0,0,0,0,0,0,0,0,0,0,0,0,0,0,0,0,0],"id":28,"left_children":[1,3,5,7,9,11,13,15,17,19,21,23,25,27,29,-1,-1,-1,-1,-1,-1,-1,-1,-1,-1,-1,-1,-1,-1,-1,-1],"loss_changes":[4.124427E1,1.215209E1,1.9799383E1,1.5971222E0,7.258666E0,1.245426E1,2.0036854E1,1.5718956E0,3.2547693E0,6.8917274E0,8.291279E0,8.262259E0,5.3096285E0,5.838314E0,1.8456097E1,0E0,0E0,0E0,0E0,0E0,0E0,0E0,0E0,0E0,0E0,0E0,0E0,0E0,0E0,0E0,0E0],"parents":[2147483647,0,0,1,1,2,2,3,3,4,4,5,5,6,6,7,7,8,8,9,9,10,10,11,11,12,12,13,13,14,14],"right_children":[2,4,6,8,10,12,14,16,18,20,22,24,26,28,30,-1,-1,-1,-1,-1,-1,-1,-1,-1,-1,-1,-1,-1,-1,-1,-1],"split_conditions":[1.4814814E0,1.0760195E0,1.6458334E0,-3.875E-1,2.0882354E0,2.6007128E0,9E0,1.82E2,1.0349462E0,6.8421054E-1,2.5503355E-1,9.2105263E-1,1.43E2,1.7368422E0,2.1625E0,-2.0098401E-2,-6.317772E-3,-5.9166285E-3,-2.0746332E-2,-3.983071E-2,-3.3032123E-3,-8.027962E-3,1.8420083E-2,-1.801594E-2,1.9937658E-3,2.8570322E-2,7.188899E-3,1.1480766E-2,6.528472E-2,6.402628E-3,3.1561073E-2],"split_indices":[6,3,3,8,3,6,1,1,3,2,9,3,0,3,6,0,0,0,0,0,0,0,0,0,0,0,0,0,0,0,0],"split_type":[0,0,0,0,0,0,0,0,0,0,0,0,0,0,0,0,0,0,0,0,0,0,0,0,0,0,0,0,0,0,0],"sum_hessian":[4.408E3,2.619E3,1.789E3,3.19E2,2.3E3,1.326E3,4.63E2,1.35E2,1.84E2,2.174E3,1.26E2,1.209E3,1.17E2,3E1,4.33E2,1.08E2,2.7E1,1.33E2,5.1E1,1.2E1,2.162E3,4.6E1,8E1,5.3E1,1.156E3,5.9E1,5.8E1,7E0,2.3E1,3.41E2,9.2E1],"tree_param":{"num_deleted":"0","num_feature":"10","num_nodes":"31","size_leaf_vector":"1"}},{"base_weights":[-8.0530014E-4,-8.1592076E-2,1.0268093E-1,-1.3532904E-1,2.178605E-2,-5.6124836E-2,1.7083253E-1,-1.9238696E-1,-8.709981E-2,1.4546192E-2,1.2366211E0,-9.8915465E-2,2.9042017E-1,1.482699E-1,6.145972E-1,2.1182777E-2,-9.982934E-3,4.2232692E-2,-4.6683974E-3,3.1448063E-3,-8.118602E-3,6.6714287E-3,7.395311E-2,4.78846E-2,-5.4510483E-3,2.5916204E-2,-8.411465E-3,1.7056791E-2,5.229805E-3,5.9921164E-2,1.9975124E-2],"categories":[],"categories_nodes":[],"categories_segments":[],"categories_sizes":[],"default_left":[0,0,0,0,0,0,0,0,0,0,0,0,0,0,0,0,0,0,0,0,0,0,0,0,0,0,0,0,0,0,0],"id":29,"left_children":[1,3,5,7,9,11,13,15,17,19,21,23,25,27,29,-1,-1,-1,-1,-1,-1,-1,-1,-1,-1,-1,-1,-1,-1,-1,-1],"loss_changes":[3.6785423E1,1.3729914E1,2.08869E1,4.4577656E0,7.42278E0,8.629477E0,1.3425739E1,3.4174805E0,5.2359E0,7.212668E0,1.1399465E0,5.6247E0,6.7769895E0,1.0796543E1,7.683792E0,0E0,0E0,0E0,0E0,0E0,0E0,0E0,0E0,0E0,0E0,0E0,0E0,0E0,0E0,0E0,0E0],"parents":[2147483647,0,0,1,1,2,2,3,3,4,4,5,5,6,6,7,7,8,8,9,9,10,10,11,11,12,12,13,13,14,14],"right_children":[2,4,6,8,10,12,14,16,18,20,22,24,26,28,30,-1,-1,-1,-1,-1,-1,-1,-1,-1,-1,-1,-1,-1,-1,-1,-1],"split_conditions":[1.40625E0,1.5058876E0,1.2647059E0,1.0882353E0,2.7727273E0,2.487234E0,2.6852355E0,7.701684E-1,1.0946558E0,1.8703704E0,9.350508E-1,1.8032786E-1,1.1587481E0,-7.8571427E-1,1.0625E0,2.1182777E-2,-9.982934E-3,4.2232692E-2,-4.6683974E-3,3.1448063E-3,-8.118602E-3,6.6714287E-3,7.395311E-2,4.78846E-2,-5.4510483E-3,2.5916204E-2,-8.411465E-3,1.7056791E-2,5.229805E-3,5.9921164E-2,1.9975124E-2],"split_indices":[6,3,3,6,3,6,6,3,6,7,6,9,4,4,2,0,0,0,0,0,0,0,0,0,0,0,0,0,0,0,0],"split_type":[0,0,0,0,0,0,0,0,0,0,0,0,0,0,0,0,0,0,0,0,0,0,0,0,0,0,0,0,0,0,0],"sum_hessian":[4.398E3,2.47E3,1.928E3,1.625E3,8.45E2,5.79E2,1.349E3,7.43E2,8.82E2,8.41E2,4E0,5.16E2,6.3E1,1.285E3,6.4E1,8E0,7.35E2,5E0,8.77E2,6.61E2,1.8E2,1E0,3E0,4E0,5.12E2,4.2E1,2.1E1,2.36E2,1.049E3,1.6E1,4.8E1],"tree_param":{"num_deleted":"0","num_feature":"10","num_nodes":"31","size_leaf_vector":"1"}},{"base_weights":[-1.018687E-2,-6.319717E-2,1.1181916E-1,-8.3890766E-2,1.1938148E-1,7.889538E-2,4.813448E-1,4.0873807E-2,-9.902563E-2,7.6662474E-3,2.8126583E-1,3.230948E-2,2.6662263E-1,-7.059205E-1,5.446043E-1,-2.7168294E-2,3.5580515E-3,-4.6870015E-3,-2.139942E-2,3.5434186E-2,-3.7669882E-3,2.4428897E-2,-6.516374E-3,-2.9376099E-2,2.1530802E-3,-2.08236E-2,1.6445814E-2,-1.4856528E-2,-4.1801643E-2,6.407153E-2,1.938506E-2],"categories":[],"categories_nodes":[],"categories_segments":[],"categories_sizes":[],"default_left":[0,0,0,0,0,0,0,0,0,0,0,0,0,0,0,0,0,0,0,0,0,0,0,0,0,0,0,0,0,0,0],"id":30,"left_children":[1,3,5,7,9,11,13,15,17,19,21,23,25,27,29,-1,-1,-1,-1,-1,-1,-1,-1,-1,-1,-1,-1,-1,-1,-1,-1],"loss_changes":[2.876191E1,1.1722461E1,1.6349869E1,5.262949E0,5.712688E0,1.0818243E1,8.646084E0,5.382557E0,4.2789745E0,1.0992861E1,1.1071021E1,6.643152E0,1.0604889E1,7.072091E-2,1.1642273E1,0E0,0E0,0E0,0E0,0E0,0E0,0E0,0E0,0E0,0E0,0E0,0E0,0E0,0E0,0E0,0E0],"parents":[2147483647,0,0,1,1,2,2,3,3,4,4,5,5,6,6,7,7,8,8,9,9,10,10,11,11,12,12,13,13,14,14],"right_children":[2,4,6,8,10,12,14,16,18,20,22,24,26,28,30,-1,-1,-1,-1,-1,-1,-1,-1,-1,-1,-1,-1,-1,-1,-1,-1],"split_conditions":[1.5585107E0,6.262626E-1,6.5217394E-1,-3.8235295E-1,1.7365004E0,2.0882354E0,6.1E1,1.0201379E0,2.375E0,7.701684E-1,1.1587481E0,6.8421054E-1,1.1382979E0,1.0757979E0,9.1E1,-2.7168294E-2,3.5580515E-3,-4.6870015E-3,-2.139942E-2,3.5434186E-2,-3.7669882E-3,2.4428897E-2,-6.516374E-3,-2.9376099E-2,2.1530802E-3,-2.08236E-2,1.6445814E-2,-1.4856528E-2,-4.1801643E-2,6.407153E-2,1.938506E-2],"split_indices":[3,9,9,4,2,3,0,7,7,7,4,2,7,7,0,0,0,0,0,0,0,0,0,0,0,0,0,0,0,0,0],"split_type":[0,0,0,0,0,0,0,0,0,0,0,0,0,0,0,0,0,0,0,0,0,0,0,0,0,0,0,0,0,0,0],"sum_hessian":[4.445E3,3.099E3,1.346E3,2.784E3,3.15E2,1.237E3,1.09E2,3.01E2,2.483E3,1.87E2,1.28E2,9.92E2,2.45E2,5E0,1.04E2,1.4E1,2.87E2,2.445E3,3.8E1,1.9E1,1.68E2,8.5E1,4.3E1,1.6E1,9.76E2,2E1,2.25E2,2E0,3E0,1.7E1,8.7E1],"tree_param":{"num_deleted":"0","num_feature":"10","num_nodes":"31","size_leaf_vector":"1"}},{"base_weights":[1.1141E-2,-3.4443565E-2,2.1631418E-1,9.343578E-3,-1.2271545E-1,6.3986355E-1,1.562701E-1,-4.3697167E-2,1.0243963E-1,-6.602017E-1,-1.1493395E-1,8.1915617E-1,1.7265898E-1,8.785289E-2,2.5894812E-1,2.1746187E-2,-2.7844585E-3,9.868877E-3,1.6630614E-3,-4.682419E-2,-1.55281965E-2,-9.157705E-3,-3.4916091E-3,9.094357E-3,5.303809E-2,5.5081334E-2,-5.8788606E-3,3.0656671E-2,3.4281095E-3,1.5044907E-2,-1.5386964E-2],"categories":[],"categories_nodes":[],"categories_segments":[],"categories_sizes":[],"default_left":[0,0,0,0,0,0,0,0,0,0,0,0,0,0,0,0,0,0,0,0,0,0,0,0,0,0,0,0,0,0,0],"id":31,"left_children":[1,3,5,7,9,11,13,15,17,19,21,23,25,27,29,-1,-1,-1,-1,-1,-1,-1,-1,-1,-1,-1,-1,-1,-1,-1,-1],"loss_changes":[4.1570984E1,1.40587845E1,2.0448769E1,1.201341E1,4.968151E0,8.235199E0,4.9579353E0,8.920634E0,5.792671E0,1.3513389E0,3.6486626E0,1.0892738E1,7.9485073E0,4.2847667E0,6.8202286E0,0E0,0E0,0E0,0E0,0E0,0E0,0E0,0E0,0E0,0E0,0E0,0E0,0E0,0E0,0E0,0E0],"parents":[2147483647,0,0,1,1,2,2,3,3,4,4,5,5,6,6,7,7,8,8,9,9,10,10,11,11,12,12,13,13,14,14],"right_children":[2,4,6,8,10,12,14,16,18,20,22,24,26,28,30,-1,-1,-1,-1,-1,-1,-1,-1,-1,-1,-1,-1,-1,-1,-1,-1],"split_conditions":[1.9042553E0,4.2592594E-1,-7.8571427E-1,1.3882979E0,1.3368795E0,1.49E2,1.2846289E0,9.836066E-2,7.7E1,-1.4876632E-1,1.1578947E0,3.2E1,1.9117647E0,2.1052632E-1,1.1600177E0,2.1746187E-2,-2.7844585E-3,9.868877E-3,1.6630614E-3,-4.682419E-2,-1.55281965E-2,-9.157705E-3,-3.4916091E-3,9.094357E-3,5.303809E-2,5.5081334E-2,-5.8788606E-3,3.0656671E-2,3.4281095E-3,1.5044907E-2,-1.5386964E-2],"split_indices":[6,5,4,6,2,1,8,5,0,8,6,1,6,5,4,0,0,0,0,0,0,0,0,0,0,0,0,0,0,0,0],"split_type":[0,0,0,0,0,0,0,0,0,0,0,0,0,0,0,0,0,0,0,0,0,0,0,0,0,0,0,0,0,0,0],"sum_hessian":[4.443E3,3.636E3,8.07E2,2.431E3,1.205E3,9.9E1,7.08E2,1.549E3,8.82E2,1.6E1,1.189E3,7.1E1,2.8E1,4.26E2,2.82E2,3.7E1,1.512E3,3.71E2,5.11E2,8E0,8E0,4.72E2,7.17E2,2E1,5.1E1,6E0,2.2E1,1.4E1,4.12E2,2.63E2,1.9E1],"tree_param":{"num_deleted":"0","num_feature":"10","num_nodes":"31","size_leaf_vector":"1"}},{"base_weights":[-4.12875E-4,-1.4322291E-1,4.7060885E-2,-1.9141164E-1,-3.28963E-2,-6.841437E-2,1.17131926E-1,-6.4980865E-2,-2.4242228E-1,-5.5782706E-2,5.8777803E-1,-2.860013E-1,-4.5013275E-2,7.2374076E-2,3.2498333E-1,2.4771679E-3,-1.05946865E-2,-7.548588E-3,-1.5132397E-2,-5.136855E-3,1.4498993E-2,4.3820944E-2,-1.0430421E-2,-3.635046E-2,-1.2417289E-2,-3.165086E-3,1.1407212E-2,3.1168424E-3,4.159567E-2,2.577058E-2,9.378254E-3],"categories":[],"categories_nodes":[],"categories_segments":[],"categories_sizes":[],"default_left":[0,0,0,0,0,0,0,0,0,0,0,0,0,0,0,0,0,0,0,0,0,0,0,0,0,0,0,0,0,0,0],"id":32,"left_children":[1,3,5,7,9,11,13,15,17,19,21,23,25,27,29,-1,-1,-1,-1,-1,-1,-1,-1,-1,-1,-1,-1,-1,-1,-1,-1],"loss_changes":[2.983755E1,5.8312206E0,2.6734142E1,4.911524E0,4.791464E0,6.341658E0,1.910341E1,3.728841E0,2.9504776E0,5.289955E0,2.9412642E0,1.8288221E0,5.6495075E0,1.2855009E1,9.4286E0,0E0,0E0,0E0,0E0,0E0,0E0,0E0,0E0,0E0,0E0,0E0,0E0,0E0,0E0,0E0,0E0],"parents":[2147483647,0,0,1,1,2,2,3,3,4,4,5,5,6,6,7,7,8,8,9,9,10,10,11,11,12,12,13,13,14,14],"right_children":[2,4,6,8,10,12,14,16,18,20,22,24,26,28,30,-1,-1,-1,-1,-1,-1,-1,-1,-1,-1,-1,-1,-1,-1,-1,-1],"split_conditions":[1.0882353E0,1.5058876E0,1.2894737E0,4.6E1,1.1170213E-1,9.2105263E-1,8.5E-1,1.2835631E0,1.4285715E0,2.9473683E-1,2.1875E0,-6.7688173E-1,2.487234E0,2.75E0,1.04E2,2.4771679E-3,-1.05946865E-2,-7.548588E-3,-1.5132397E-2,-5.136855E-3,1.4498993E-2,4.3820944E-2,-1.0430421E-2,-3.635046E-2,-1.2417289E-2,-3.165086E-3,1.1407212E-2,3.1168424E-3,4.159567E-2,2.577058E-2,9.378254E-3],"split_indices":[6,3,3,1,4,3,8,3,7,9,7,8,6,3,0,0,0,0,0,0,0,0,0,0,0,0,0,0,0,0,0],"split_type":[0,0,0,0,0,0,0,0,0,0,0,0,0,0,0,0,0,0,0,0,0,0,0,0,0,0,0,0,0,0,0],"sum_hessian":[4.399E3,1.097E3,3.302E3,7.63E2,3.34E2,1.247E3,2.055E3,2.2E2,5.43E2,3.23E2,1.1E1,1.2E2,1.127E3,1.692E3,3.63E2,1.24E2,9.6E1,2.17E2,3.26E2,2.85E2,3.8E1,8E0,3E0,8E0,1.12E2,1.057E3,7E1,1.671E3,2.1E1,1.51E2,2.12E2],"tree_param":{"num_deleted":"0","num_feature":"10","num_nodes":"31","size_leaf_vector":"1"}},{"base_weights":[3.7489328E-4,-3.4961578E-2,1.8577805E-1,3.827258E-1,-4.371138E-2,5.706211E-1,1.3837156E-1,5.45752E-1,-6.302244E-1,-9.791531E-2,1.536017E-2,1.6574538E0,4.2059043E-1,-1.0306654E-1,1.863956E-1,-5.6470744E-3,4.0721767E-2,-1.0128503E-2,-4.2282984E-2,-4.0535363E-3,-1.4039442E-2,1.0359893E-2,-5.73974E-4,9.7363904E-2,2.1435618E-2,-6.1185244E-3,4.0864818E-2,2.9003834E-2,-1.3036931E-2,1.2058713E-3,1.4390381E-2],"categories":[],"categories_nodes":[],"categories_segments":[],"categories_sizes":[],"default_left":[0,0,0,0,0,0,0,0,0,0,0,0,0,0,0,0,0,0,0,0,0,0,0,0,0,0,0,0,0,0,0],"id":33,"left_children":[1,3,5,7,9,11,13,15,17,19,21,23,25,27,29,-1,-1,-1,-1,-1,-1,-1,-1,-1,-1,-1,-1,-1,-1,-1,-1],"loss_changes":[2.885272E1,1.3535397E1,1.2783106E1,1.2894386E1,1.16052265E1,1.1858374E1,7.3123636E0,1.1772661E1,8.4214497E-1,5.799244E0,8.935644E0,2.3702507E0,1.4962324E1,1.1461073E1,8.632957E0,0E0,0E0,0E0,0E0,0E0,0E0,0E0,0E0,0E0,0E0,0E0,0E0,0E0,0E0,0E0,0E0],"parents":[2147483647,0,0,1,1,2,2,3,3,4,4,5,5,6,6,7,7,8,8,9,9,10,10,11,11,12,12,13,13,14,14],"right_children":[2,4,6,8,10,12,14,16,18,20,22,24,26,28,30,-1,-1,-1,-1,-1,-1,-1,-1,-1,-1,-1,-1,-1,-1,-1,-1],"split_conditions":[1.9714285E0,9.836066E-2,-8.125E-1,5E-1,1.2727273E0,2.0016327E0,2.7E1,2.8421053E-1,6.25E-1,1.1587481E0,-6.8421054E-1,9.117647E-1,2.1625E0,2.0199335E0,3.3684212E-1,-5.6470744E-3,4.0721767E-2,-1.0128503E-2,-4.2282984E-2,-4.0535363E-3,-1.4039442E-2,1.0359893E-2,-5.73974E-4,9.7363904E-2,2.1435618E-2,-6.1185244E-3,4.0864818E-2,2.9003834E-2,-1.3036931E-2,1.2058713E-3,1.4390381E-2],"split_indices":[6,5,4,9,6,6,0,9,2,4,4,2,6,6,5,0,0,0,0,0,0,0,0,0,0,0,0,0,0,0,0],"split_type":[0,0,0,0,0,0,0,0,0,0,0,0,0,0,0,0,0,0,0,0,0,0,0,0,0,0,0,0,0,0,0],"sum_hessian":[4.402E3,3.698E3,7.04E2,7.5E1,3.623E3,7.6E1,6.28E2,6.5E1,1E1,1.889E3,1.734E3,8E0,6.8E1,1.04E2,5.24E2,1.9E1,4.6E1,4E0,6E0,1.731E3,1.58E2,2.12E2,1.522E3,6E0,2E0,2.9E1,3.9E1,1.9E1,8.5E1,2.02E2,3.22E2],"tree_param":{"num_deleted":"0","num_feature":"10","num_nodes":"31","size_leaf_vector":"1"}},{"base_weights":[1.2188602E-2,-5.8176704E-2,1.0482297E-1,2.410122E-2,-1.0191435E-1,1.7050019E-2,1.9903252E-1,-6.570181E-2,8.054211E-2,-1.2792051E-1,1.9681964E-2,-2.4476565E-1,3.6552668E-2,1.3931237E-1,3.599048E-1,-2.3219872E-3,-4.794407E-2,-1.4694243E-3,1.3980982E-2,-1.3500817E-2,-5.0237803E-3,5.0987205E-3,-1.3432457E-2,-3.239913E-2,-1.0123944E-2,5.149964E-3,-2.7539826E-3,9.338811E-3,-8.132451E-3,1.291154E-2,5.2836657E-2],"categories":[],"categories_nodes":[],"categories_segments":[],"categories_sizes":[],"default_left":[0,0,0,0,0,0,0,0,0,0,0,0,0,0,0,0,0,0,0,0,0,0,0,0,0,0,0,0,0,0,0],"id":34,"left_children":[1,3,5,7,9,11,13,15,17,19,21,23,25,27,29,-1,-1,-1,-1,-1,-1,-1,-1,-1,-1,-1,-1,-1,-1,-1,-1],"loss_changes":[2.8523422E1,8.952283E0,1.5616842E1,4.38453E0,5.138014E0,5.0078177E0,8.702126E0,5.701768E0,1.1628999E1,5.190813E0,6.8371797E0,1.0282483E0,5.5585284E0,9.575659E0,1.7156052E1,0E0,0E0,0E0,0E0,0E0,0E0,0E0,0E0,0E0,0E0,0E0,0E0,0E0,0E0,0E0,0E0],"parents":[2147483647,0,0,1,1,2,2,3,3,4,4,5,5,6,6,7,7,8,8,9,9,10,10,11,11,12,12,13,13,14,14],"right_children":[2,4,6,8,10,12,14,16,18,20,22,24,26,28,30,-1,-1,-1,-1,-1,-1,-1,-1,-1,-1,-1,-1,-1,-1,-1,-1],"split_conditions":[1.4210526E0,2.9473683E-1,1.4505264E0,1.0625E0,-1E-1,9.347826E-1,8.5E-1,1.5159575E0,1.7579787E0,3.2380953E-1,5.75E-1,8E0,1.3042996E0,4.057971E-1,1.7477837E0,-2.3219872E-3,-4.794407E-2,-1.4694243E-3,1.3980982E-2,-1.3500817E-2,-5.0237803E-3,5.0987205E-3,-1.3432457E-2,-3.239913E-2,-1.0123944E-2,5.149964E-3,-2.7539826E-3,9.338811E-3,-8.132451E-3,1.291154E-2,5.2836657E-2],"split_indices":[6,5,3,6,8,3,8,2,3,5,5,1,7,5,2,0,0,0,0,0,0,0,0,0,0,0,0,0,0,0,0],"split_type":[0,0,0,0,0,0,0,0,0,0,0,0,0,0,0,0,0,0,0,0,0,0,0,0,0,0,0,0,0,0,0],"sum_hessian":[4.374E3,2.486E3,1.888E3,8.63E2,1.623E3,9.78E2,9.1E2,3.33E2,5.3E2,1.337E3,2.86E2,6.7E1,9.11E2,6.65E2,2.45E2,3.27E2,6E0,3.42E2,1.88E2,2.15E2,1.122E3,2.23E2,6.3E1,5E0,6.2E1,5.28E2,3.83E2,5.75E2,9E1,2.15E2,3E1],"tree_param":{"num_deleted":"0","num_feature":"10","num_nodes":"31","size_leaf_vector":"1"}},{"base_weights":[-1.0120619E-2,-4.7495723E-2,1.398531E-1,-7.273429E-2,6.624823E-2,5.2320503E-2,3.0426773E-1,-3.8612768E-2,-1.2121309E-1,-7.845155E-2,1.6504225E-1,8.607954E-2,-2.601281E-1,5.6414366E-1,1.9149019E-1,-2.4215642E-3,1.2153285E-2,-5.7063964E-3,-2.7910788E-2,-1.929017E-2,-1.6437E-3,1.0752872E-2,-8.768047E-3,-4.173847E-3,8.877349E-3,2.4067407E-2,-2.2395087E-2,1.8903434E-2,7.180001E-2,7.2066397E-3,3.535226E-2],"categories":[],"categories_nodes":[],"categories_segments":[],"categories_sizes":[],"default_left":[0,0,0,0,0,0,0,0,0,0,0,0,0,0,0,0,0,0,0,0,0,0,0,0,0,0,0,0,0,0,0],"id":35,"left_children":[1,3,5,7,9,11,13,15,17,19,21,23,25,27,29,-1,-1,-1,-1,-1,-1,-1,-1,-1,-1,-1,-1,-1,-1,-1,-1],"loss_changes":[2.5006208E1,1.0256208E1,1.2792639E1,4.8304615E0,9.29071E0,6.1613054E0,8.948196E0,4.760418E0,3.6734486E0,3.6855202E0,6.6094894E0,8.1725025E0,8.151689E0,1.4544544E1,5.1962214E0,0E0,0E0,0E0,0E0,0E0,0E0,0E0,0E0,0E0,0E0,0E0,0E0,0E0,0E0,0E0,0E0],"parents":[2147483647,0,0,1,1,2,2,3,3,4,4,5,5,6,6,7,7,8,8,9,9,10,10,11,11,12,12,13,13,14,14],"right_children":[2,4,6,8,10,12,14,16,18,20,22,24,26,28,30,-1,-1,-1,-1,-1,-1,-1,-1,-1,-1,-1,-1,-1,-1,-1,-1],"split_conditions":[1.652381E0,1.8641775E0,1.7217948E0,2.03125E-1,1.2554426E0,4.4210526E-1,9.9E1,1.617647E0,1.8392857E0,1.8E1,1.69E2,2.5503355E-1,1.7E1,2.1625E0,1.9E2,-2.4215642E-3,1.2153285E-2,-5.7063964E-3,-2.7910788E-2,-1.929017E-2,-1.6437E-3,1.0752872E-2,-8.768047E-3,-4.173847E-3,8.877349E-3,2.4067407E-2,-2.2395087E-2,1.8903434E-2,7.180001E-2,7.2066397E-3,3.535226E-2],"split_indices":[3,6,6,4,3,9,0,2,6,0,0,9,1,6,0,0,0,0,0,0,0,0,0,0,0,0,0,0,0,0,0],"split_type":[0,0,0,0,0,0,0,0,0,0,0,0,0,0,0,0,0,0,0,0,0,0,0,0,0,0,0,0,0,0,0],"sum_hessian":[4.459E3,3.57E3,8.89E2,2.922E3,6.48E2,5.81E2,3.08E2,1.716E3,1.206E3,2.63E2,3.85E2,5.25E2,5.6E1,9.2E1,2.16E2,1.659E3,5.7E1,1.188E3,1.8E1,3.3E1,2.3E2,3.36E2,4.9E1,1.84E2,3.41E2,1.1E1,4.5E1,7.7E1,1.5E1,1.99E2,1.7E1],"tree_param":{"num_deleted":"0","num_feature":"10","num_nodes":"31","size_leaf_vector":"1"}},{"base_weights":[-6.1744316E-3,-2.3294695E-2,2.6843464E-1,-7.178183E-2,4.1860208E-2,1.7948501E-1,5.206562E-1,-1.6174015E-1,-4.5825303E-2,-5.0934605E-2,9.305152E-2,2.832431E-1,-2.0029393E-1,-6.241765E-1,6.434951E-1,4.155438E-3,-9.447435E-3,2.3867688E-3,-4.1171755E-3,-2.3143938E-2,-8.8755874E-4,1.1769406E-2,2.3189352E-3,6.1962246E-3,2.3162777E-2,3.1376947E-2,-1.918951E-2,-4.639419E-2,2.9951686E-2,3.7907466E-2,-2.6693016E-2],"categories":[],"categories_nodes":[],"categories_segments":[],"categories_sizes":[],"default_left":[0,0,0,0,0,0,0,0,0,0,0,0,0,0,0,0,0,0,0,0,0,0,0,0,0,0,0,0,0,0,0],"id":36,"left_children":[1,3,5,7,9,11,13,15,17,19,21,23,25,27,29,-1,-1,-1,-1,-1,-1,-1,-1,-1,-1,-1,-1,-1,-1,-1,-1],"loss_changes":[2.0748741E1,1.3126216E1,5.7172203E0,5.554572E0,8.427E0,7.6619225E0,9.823864E0,3.5665398E0,6.324766E0,8.617376E0,7.5823174E0,4.3018494E0,6.6208205E0,3.1563187E0,8.639065E0,0E0,0E0,0E0,0E0,0E0,0E0,0E0,0E0,0E0,0E0,0E0,0E0,0E0,0E0,0E0,0E0],"parents":[2147483647,0,0,1,1,2,2,3,3,4,4,5,5,6,6,7,7,8,8,9,9,10,10,11,11,12,12,13,13,14,14],"right_children":[2,4,6,8,10,12,14,16,18,20,22,24,26,28,30,-1,-1,-1,-1,-1,-1,-1,-1,-1,-1,-1,-1,-1,-1,-1,-1],"split_conditions":[2.0882354E0,1.4117647E0,2.5294118E0,9.4736844E-1,1.2835631E0,2.368421E0,1.0349462E0,2.2580644E-1,2.857143E-1,-1.9532472E-1,5.1E1,8.4E1,9.736842E-1,5.2E1,2.6818182E0,4.155438E-3,-9.447435E-3,2.3867688E-3,-4.1171755E-3,-2.3143938E-2,-8.8755874E-4,1.1769406E-2,2.3189352E-3,6.1962246E-3,2.3162777E-2,3.1376947E-2,-1.918951E-2,-4.639419E-2,2.9951686E-2,3.7907466E-2,-2.6693016E-2],"split_indices":[3,6,3,6,3,3,7,5,5,4,0,1,6,1,7,0,0,0,0,0,0,0,0,0,0,0,0,0,0,0,0],"split_type":[0,0,0,0,0,0,0,0,0,0,0,0,0,0,0,0,0,0,0,0,0,0,0,0,0,0,0,0,0,0,0],"sum_hessian":[4.411E3,4.153E3,2.58E2,2.381E3,1.772E3,1.92E2,6.6E1,5.32E2,1.849E3,6.3E2,1.142E3,1.51E2,4.1E1,6E0,6E1,5.3E1,4.79E2,5.19E2,1.33E3,4.6E1,5.84E2,2.81E2,8.61E2,8.1E1,7E1,7E0,3.4E1,5E0,1E0,5.5E1,5E0],"tree_param":{"num_deleted":"0","num_feature":"10","num_nodes":"31","size_leaf_vector":"1"}},{"base_weights":[6.1189155E-3,-3.4906838E-2,1.0093212E-1,-5.52048E-2,1.7335024E-1,-3.45186E-2,1.643409E-1,-3.4176847E-3,-8.515557E-2,2.5185572E-2,4.0876275E-1,-2.0472724E-2,-6.0232963E-2,3.979414E-1,1.2519516E-1,-9.079847E-4,2.1296773E-2,-4.1105277E-3,-2.971877E-2,-4.632736E-3,1.9045627E-2,-1.832219E-2,2.4711039E-2,-6.847205E-5,-3.6445316E-2,1.5139769E-2,3.730836E-2,1.5725894E-3,1.23973545E-2],"categories":[],"categories_nodes":[],"categories_segments":[],"categories_sizes":[],"default_left":[0,0,0,0,0,0,0,0,0,0,0,0,0,0,0,0,0,0,0,0,0,0,0,0,0,0,0,0,0],"id":37,"left_children":[1,3,5,7,9,11,13,15,17,19,21,23,-1,25,27,-1,-1,-1,-1,-1,-1,-1,-1,-1,-1,-1,-1,-1,-1],"loss_changes":[1.7052443E1,1.2944784E1,1.1377197E1,4.3256264E0,9.477016E0,6.927617E0,8.198488E0,6.4828424E0,2.6010447E0,7.07768E0,7.137102E0,5.6695004E0,0E0,4.04813E0,8.898759E0,0E0,0E0,0E0,0E0,0E0,0E0,0E0,0E0,0E0,0E0,0E0,0E0,0E0,0E0],"parents":[2147483647,0,0,1,1,2,2,3,3,4,4,5,5,6,6,7,7,8,8,9,9,10,10,11,11,13,13,14,14],"right_children":[2,4,6,8,10,12,14,16,18,20,22,24,-1,26,28,-1,-1,-1,-1,-1,-1,-1,-1,-1,-1,-1,-1,-1,-1],"split_conditions":[1.5585107E0,6.315789E-1,2.9411766E-1,5.6E1,1.7365004E0,2.75E0,-1.5789473E-1,2.547619E0,1.86E2,1.68E2,5E0,2.8947368E-1,-6.0232963E-2,2.264706E0,4.7179487E-1,-9.079847E-4,2.1296773E-2,-4.1105277E-3,-2.971877E-2,-4.632736E-3,1.9045627E-2,-1.832219E-2,2.4711039E-2,-6.847205E-5,-3.6445316E-2,1.5139769E-2,3.730836E-2,1.5725894E-3,1.23973545E-2],"split_indices":[3,9,9,1,2,3,8,2,0,0,0,9,0,3,8,0,0,0,0,0,0,0,0,0,0,0,0,0,0],"split_type":[0,0,0,0,0,0,0,0,0,0,0,0,0,0,0,0,0,0,0,0,0,0,0,0,0,0,0,0,0],"sum_hessian":[4.382E3,3.059E3,1.323E3,2.788E3,2.71E2,4.22E2,9.01E2,1.022E3,1.766E3,1.67E2,1.04E2,4.18E2,4E0,1.28E2,7.73E2,9.89E2,3.3E1,1.757E3,9E0,1.26E2,4.1E1,1E1,9.4E1,4.08E2,1E1,1.02E2,2.6E1,4.39E2,3.34E2],"tree_param":{"num_deleted":"0","num_feature":"10","num_nodes":"29","size_leaf_vector":"1"}},{"base_weights":[-6.2507107E-3,-1.9117823E-2,2.2774449E-1,-3.646592E-2,1.8057297E-1,-2.913574E-1,2.8993866E-1,-1.1230622E-1,-1.4679515E-2,-1.5616202E-1,2.5216132E-1,-5.086038E-1,3.3993396E-1,1.2745396E0,2.4348512E-1,2.5266254E-2,-6.1221123E-3,-3.057294E-2,-5.117265E-4,-3.8979366E-2,6.8275603E-3,3.6719527E-2,1.0050042E-2,-3.330293E-2,-2.822101E-3,-7.815689E-3,8.293551E-2,7.905532E-2,-2.9449863E-2,1.4388079E-2,-1.3768873E-2],"categories":[],"categories_nodes":[],"categories_segments":[],"categories_sizes":[],"default_left":[0,0,0,0,0,0,0,0,0,0,0,0,0,0,0,0,0,0,0,0,0,0,0,0,0,0,0,0,0,0,0],"id":38,"left_children":[1,3,5,7,9,11,13,15,17,19,21,23,25,27,29,-1,-1,-1,-1,-1,-1,-1,-1,-1,-1,-1,-1,-1,-1,-1,-1],"loss_changes":[1.3227973E1,1.4431746E1,7.477765E0,6.329917E0,8.066775E0,3.6015363E0,9.066E0,5.4144526E0,7.893409E0,1.0873058E1,6.636938E0,1.3151121E0,4.840358E0,6.072954E0,4.6050024E0,0E0,0E0,0E0,0E0,0E0,0E0,0E0,0E0,0E0,0E0,0E0,0E0,0E0,0E0,0E0,0E0],"parents":[2147483647,0,0,1,1,2,2,3,3,4,4,5,5,6,6,7,7,8,8,9,9,10,10,11,11,12,12,13,13,14,14],"right_children":[2,4,6,8,10,12,14,16,18,20,22,24,26,28,30,-1,-1,-1,-1,-1,-1,-1,-1,-1,-1,-1,-1,-1,-1,-1,-1],"split_conditions":[2.487234E0,1.9736842E0,2.7E1,1.0441177E0,2.5503355E-1,5.588235E-1,3.1E1,2E0,-1.117647E0,-1.2354839E0,-1.75E0,7.8E1,3E0,1.5144061E0,1.1587481E0,2.5266254E-2,-6.1221123E-3,-3.057294E-2,-5.117265E-4,-3.8979366E-2,6.8275603E-3,3.6719527E-2,1.0050042E-2,-3.330293E-2,-2.822101E-3,-7.815689E-3,8.293551E-2,7.905532E-2,-2.9449863E-2,1.4388079E-2,-1.3768873E-2],"split_indices":[6,3,0,6,9,4,0,1,4,4,4,1,0,3,4,0,0,0,0,0,0,0,0,0,0,0,0,0,0,0,0],"split_type":[0,0,0,0,0,0,0,0,0,0,0,0,0,0,0,0,0,0,0,0,0,0,0,0,0,0,0,0,0,0,0],"sum_hessian":[4.391E3,4.163E3,2.28E2,3.831E3,3.32E2,2.4E1,2.04E2,8.54E2,2.977E3,5.8E1,2.74E2,1.8E1,6E0,8E0,1.96E2,1.3E1,8.41E2,2.1E1,2.956E3,1.8E1,4E1,2.5E1,2.49E2,1.3E1,5E0,5E0,1E0,7E0,1E0,1.81E2,1.5E1],"tree_param":{"num_deleted":"0","num_feature":"10","num_nodes":"31","size_leaf_vector":"1"}},{"base_weights":[-1.6749868E-3,-3.5632253E-2,1.3006568E-1,-8.739807E-2,9.48735E-3,7.815861E-2,4.5815906E-1,-1.0617691E-1,6.407619E-2,-4.0173937E-2,8.008073E-2,9.820764E-2,-6.3300747E-1,7.136734E-1,1.7271832E-1,-7.0278496E-3,-5.4003566E-4,-6.7660185E-3,1.158248E-2,-1.4743021E-3,-2.8683681E-2,1.03795E-2,7.637742E-4,-1.9236064E-2,6.0630213E-3,-2.1533221E-2,-5.3354383E-2,2.2614975E-2,6.971574E-2,3.6651313E-2,-5.952388E-3],"categories":[],"categories_nodes":[],"categories_segments":[],"categories_sizes":[],"default_left":[0,0,0,0,0,0,0,0,0,0,0,0,0,0,0,0,0,0,0,0,0,0,0,0,0,0,0,0,0,0,0],"id":39,"left_children":[1,3,5,7,9,11,13,15,17,19,21,23,25,27,29,-1,-1,-1,-1,-1,-1,-1,-1,-1,-1,-1,-1,-1,-1,-1,-1],"loss_changes":[1.9209595E1,7.974747E0,1.4950912E1,4.529579E0,6.401226E0,1.0912646E1,8.6288395E0,4.6383247E0,5.912133E0,6.095617E0,6.2273335E0,8.2961E0,1.3849382E0,1.0577171E1,9.569038E0,0E0,0E0,0E0,0E0,0E0,0E0,0E0,0E0,0E0,0E0,0E0,0E0,0E0,0E0,0E0,0E0],"parents":[2147483647,0,0,1,1,2,2,3,3,4,4,5,5,6,6,7,7,8,8,9,9,10,10,11,11,12,12,13,13,14,14],"right_children":[2,4,6,8,10,12,14,16,18,20,22,24,26,28,30,-1,-1,-1,-1,-1,-1,-1,-1,-1,-1,-1,-1,-1,-1,-1,-1],"split_conditions":[1.6458334E0,1.2859043E0,8.5E-1,1.882353E0,1.4117647E0,4.2028984E-1,1.0789474E0,4.3333334E-1,-1.0789474E0,1.4040337E0,6.4E1,1.08289E0,1.7553763E0,3.2352942E-1,1E2,-7.0278496E-3,-5.4003566E-4,-6.7660185E-3,1.158248E-2,-1.4743021E-3,-2.8683681E-2,1.03795E-2,7.637742E-4,-1.9236064E-2,6.0630213E-3,-2.1533221E-2,-5.3354383E-2,2.2614975E-2,6.971574E-2,3.6651313E-2,-5.952388E-3],"split_indices":[3,3,8,7,6,5,7,8,8,6,0,7,7,5,0,0,0,0,0,0,0,0,0,0,0,0,0,0,0,0,0],"split_type":[0,0,0,0,0,0,0,0,0,0,0,0,0,0,0,0,0,0,0,0,0,0,0,0,0,0,0,0,0,0,0],"sum_hessian":[4.292E3,3.413E3,8.79E2,1.589E3,1.824E3,7.6E2,1.19E2,1.414E3,1.75E2,1.071E3,7.53E2,7.4E2,2E1,6.2E1,5.7E1,1.039E3,3.75E2,8E1,9.5E1,1.051E3,2E1,2.53E2,5E2,3.3E1,7.07E2,1.5E1,5E0,4.6E1,1.6E1,1.9E1,3.8E1],"tree_param":{"num_deleted":"0","num_feature":"10","num_nodes":"31","size_leaf_vector":"1"}},{"base_weights":[5.8316207E-3,-1.9074602E-2,1.3852441E-1,-1.3216051E-1,3.7847029E-3,1.2109564E-1,1.3150564E0,-2.6512751E-2,-1.9702084E-1,1.2927873E-3,8.506155E-1,6.398898E-2,2.4426612E-1,1.8156849E0,1.101926E-1,-5.358785E-3,1.752728E-2,-4.0116995E-3,-1.3496004E-2,-2.1897077E-3,2.1832276E-3,2.0858986E-2,6.440576E-2,-4.849823E-3,7.0115267E-3,-2.1870567E-2,1.4503755E-2,3.362204E-2,1.0692471E-1,1.5489261E-2,-1.2214631E-2],"categories":[],"categories_nodes":[],"categories_segments":[],"categories_sizes":[],"default_left":[0,0,0,0,0,0,0,0,0,0,0,0,0,0,0,0,0,0,0,0,0,0,0,0,0,0,0,0,0,0,0],"id":40,"left_children":[1,3,5,7,9,11,13,15,17,19,21,23,25,27,29,-1,-1,-1,-1,-1,-1,-1,-1,-1,-1,-1,-1,-1,-1,-1,-1],"loss_changes":[1.447139E1,9.531637E0,1.4030557E1,4.243232E0,6.4730887E0,4.788492E0,5.831814E0,7.245839E0,3.2475939E0,5.8477774E0,1.1692772E0,5.757731E0,6.8719006E0,1.145338E0,3.5868877E-1,0E0,0E0,0E0,0E0,0E0,0E0,0E0,0E0,0E0,0E0,0E0,0E0,0E0,0E0,0E0,0E0],"parents":[2147483647,0,0,1,1,2,2,3,3,4,4,5,5,6,6,7,7,8,8,9,9,10,10,11,11,12,12,13,13,14,14],"right_children":[2,4,6,8,10,12,14,16,18,20,22,24,26,28,30,-1,-1,-1,-1,-1,-1,-1,-1,-1,-1,-1,-1,-1,-1,-1,-1],"split_conditions":[1.9714285E0,1.1382979E0,2.625E0,2.8421053E-1,2.8333333E0,2.487234E0,1.2903225E-1,1.1625E0,1.9042553E0,1.2352941E0,1.08E2,1.2E0,9.411765E-1,1.4E1,3.8E1,-5.358785E-3,1.752728E-2,-4.0116995E-3,-1.3496004E-2,-2.1897077E-3,2.1832276E-3,2.0858986E-2,6.440576E-2,-4.849823E-3,7.0115267E-3,-2.1870567E-2,1.4503755E-2,3.362204E-2,1.0692471E-1,1.5489261E-2,-1.2214631E-2],"split_indices":[6,3,3,9,3,6,5,6,2,6,1,2,2,1,1,0,0,0,0,0,0,0,0,0,0,0,0,0,0,0,0],"split_type":[0,0,0,0,0,0,0,0,0,0,0,0,0,0,0,0,0,0,0,0,0,0,0,0,0,0,0,0,0,0,0],"sum_hessian":[4.377E3,3.686E3,6.91E2,6.19E2,3.067E3,6.82E2,9E0,2.36E2,3.83E2,3.059E3,8E0,4.67E2,2.15E2,6E0,3E0,1.95E2,4.1E1,1.48E2,2.35E2,1.482E3,1.577E3,5E0,3E0,1.5E2,3.17E2,1.3E1,2.02E2,2E0,4E0,2E0,1E0],"tree_param":{"num_deleted":"0","num_feature":"10","num_nodes":"31","size_leaf_vector":"1"}},{"base_weights":[-1.6984722E-3,-5.5157326E-2,6.934716E-2,-3.6955175E-1,-4.8159804E-2,2.8573709E-2,1.9316189E-1,4.8505569E-1,-5.0428736E-1,-3.126147E-2,-1.6207308E-1,1.2338326E-1,-4.964735E-2,6.993725E-1,1.5966354E-1,-6.9021205E-3,3.5788108E-2,2.9611772E-2,-2.7010918E-2,-1.2144289E-3,-1.7559161E-2,-5.9751957E-3,-2.6433721E-2,-1.7004058E-3,1.1815601E-2,-1.1252642E-2,7.0626215E-6,1.0069024E-2,8.1270956E-2,3.8226817E-3,2.0281943E-2],"categories":[],"categories_nodes":[],"categories_segments":[],"categories_sizes":[],"default_left":[0,0,0,0,0,0,0,0,0,0,0,0,0,0,0,0,0,0,0,0,0,0,0,0,0,0,0,0,0,0,0],"id":41,"left_children":[1,3,5,7,9,11,13,15,17,19,21,23,25,27,29,-1,-1,-1,-1,-1,-1,-1,-1,-1,-1,-1,-1,-1,-1,-1,-1],"loss_changes":[1.6859428E1,5.5547557E0,9.616644E0,6.5776377E0,4.766872E0,1.0648234E1,7.8921413E0,1.2488275E0,2.2110987E0,4.8099527E0,4.9307127E0,1.154337E1,6.8730555E0,1.3046426E1,9.056595E0,0E0,0E0,0E0,0E0,0E0,0E0,0E0,0E0,0E0,0E0,0E0,0E0,0E0,0E0,0E0,0E0],"parents":[2147483647,0,0,1,1,2,2,3,3,4,4,5,5,6,6,7,7,8,8,9,9,10,10,11,11,12,12,13,13,14,14],"right_children":[2,4,6,8,10,12,14,16,18,20,22,24,26,28,30,-1,-1,-1,-1,-1,-1,-1,-1,-1,-1,-1,-1,-1,-1,-1,-1],"split_conditions":[1.4117647E0,7.0430106E-1,1.652381E0,2.3684211E-1,8.5E-1,6.4E1,9E0,1.1764706E-1,1E0,1.4040337E0,-2.1008404E-3,2.7E1,8.3E1,1.0784947E0,2.0862145E0,-6.9021205E-3,3.5788108E-2,2.9611772E-2,-2.7010918E-2,-1.2144289E-3,-1.7559161E-2,-5.9751957E-3,-2.6433721E-2,-1.7004058E-3,1.1815601E-2,-1.1252642E-2,7.0626215E-6,1.0069024E-2,8.1270956E-2,3.8226817E-3,2.0281943E-2],"split_indices":[6,2,3,9,4,0,1,9,1,6,8,0,0,2,6,0,0,0,0,0,0,0,0,0,0,0,0,0,0,0,0],"split_type":[0,0,0,0,0,0,0,0,0,0,0,0,0,0,0,0,0,0,0,0,0,0,0,0,0,0,0,0,0,0,0],"sum_hessian":[4.437E3,2.532E3,1.905E3,5.4E1,2.478E3,1.434E3,4.71E2,7E0,4.7E1,2.159E3,3.19E2,6.48E2,7.86E2,2.8E1,4.43E2,2E0,5E0,1E0,4.6E1,2.114E3,4.5E1,2.87E2,3.2E1,2.71E2,3.77E2,1.73E2,6.13E2,1.9E1,9E0,3.32E2,1.11E2],"tree_param":{"num_deleted":"0","num_feature":"10","num_nodes":"31","size_leaf_vector":"1"}},{"base_weights":[1.6115565E-2,-1.7203942E-2,9.249202E-2,-1.265101E-2,-3.4189525E-1,1.2058667E-2,1.9849673E-1,2.9485172E-2,-3.8579393E-2,-5.0048476E-1,5.038011E-2,5.044495E-2,-1.9558969E-1,6.9094205E-1,1.737815E-1,5.1049603E-4,1.2224008E-2,-3.414599E-2,-1.7360535E-3,5.9682685E-3,-2.6298746E-2,1.8513536E-2,-2.6774948E-2,1.5489319E-3,2.449065E-2,-1.2051689E-2,4.3982666E-2,2.0409511E-2,9.2670605E-2,2.3009822E-2,6.3244225E-3],"categories":[],"categories_nodes":[],"categories_segments":[],"categories_sizes":[],"default_left":[0,0,0,0,0,0,0,0,0,0,0,0,0,0,0,0,0,0,0,0,0,0,0,0,0,0,0,0,0,0,0],"id":42,"left_children":[1,3,5,7,9,11,13,15,17,19,21,23,25,27,29,-1,-1,-1,-1,-1,-1,-1,-1,-1,-1,-1,-1,-1,-1,-1,-1],"loss_changes":[1.1109757E1,4.489698E0,1.1303499E1,3.277614E0,2.6380658E0,6.027858E0,6.8416824E0,4.73419E0,4.5929265E0,5.367861E-1,2.6347032E0,5.4415603E0,5.9779105E0,8.118098E0,7.337597E0,0E0,0E0,0E0,0E0,0E0,0E0,0E0,0E0,0E0,0E0,0E0,0E0,0E0,0E0,0E0,0E0],"parents":[2147483647,0,0,1,1,2,2,3,3,4,4,5,5,6,6,7,7,8,8,9,9,10,10,11,11,12,12,13,13,14,14],"right_children":[2,4,6,8,10,12,14,16,18,20,22,24,26,28,30,-1,-1,-1,-1,-1,-1,-1,-1,-1,-1,-1,-1,-1,-1,-1,-1],"split_conditions":[1.5585107E0,2.375E0,1.5159575E0,5.6E1,2.0862145E0,3.8709676E-1,6E0,2.2091837E0,7.0430106E-1,9.7E1,2.6007128E0,3.75E-1,2.6818182E0,1.5E0,-5.1612902E-2,5.1049603E-4,1.2224008E-2,-3.414599E-2,-1.7360535E-3,5.9682685E-3,-2.6298746E-2,1.8513536E-2,-2.6774948E-2,1.5489319E-3,2.449065E-2,-1.2051689E-2,4.3982666E-2,2.0409511E-2,9.2670605E-2,2.3009822E-2,6.3244225E-3],"split_indices":[3,7,6,1,2,9,1,2,2,1,2,9,3,2,8,0,0,0,0,0,0,0,0,0,0,0,0,0,0,0,0],"split_type":[0,0,0,0,0,0,0,0,0,0,0,0,0,0,0,0,0,0,0,0,0,0,0,0,0,0,0,0,0,0,0],"sum_hessian":[4.364E3,3.039E3,1.325E3,2.998E3,4.1E1,7.54E2,5.71E2,1.142E3,1.856E3,2.9E1,1.2E1,6.37E2,1.17E2,2.6E1,5.45E2,1.049E3,9.3E1,1E1,1.846E3,1E0,2.8E1,8E0,4E0,6.11E2,2.6E1,1.13E2,4E0,2.2E1,4E0,7.6E1,4.69E2],"tree_param":{"num_deleted":"0","num_feature":"10","num_nodes":"31","size_leaf_vector":"1"}},{"base_weights":[1.23908855E-2,2.907999E-4,2.0375727E-1,-5.974601E-2,2.481104E-2,-2.759074E-1,3.000775E-1,-3.8238168E-2,-2.1372186E-1,1.4626781E-2,2.5060767E-1,-4.8373707E-2,-9.535163E-2,7.763248E-2,2.8120404E-1,1.285883E-3,-4.888281E-3,6.9532082E-3,-1.6737537E-2,-4.171747E-2,8.3757937E-4,-2.8465448E-2,1.5181109E-2,-3.6424384E-2,4.129729E-3,1.5897429E-2,-1.1495987E-2],"categories":[],"categories_nodes":[],"categories_segments":[],"categories_sizes":[],"default_left":[0,0,0,0,0,0,0,0,0,0,0,0,0,0,0,0,0,0,0,0,0,0,0,0,0,0,0],"id":43,"left_children":[1,3,5,7,9,11,13,15,17,19,21,-1,23,-1,25,-1,-1,-1,-1,-1,-1,-1,-1,-1,-1,-1,-1],"loss_changes":[1.0123524E1,6.0562997E0,1.209516E1,3.9426713E0,6.713382E0,5.40187E0,4.693348E0,3.992384E0,6.280357E0,5.0577054E0,5.6497555E0,0E0,4.1160784E0,0E0,4.111019E0,0E0,0E0,0E0,0E0,0E0,0E0,0E0,0E0,0E0,0E0,0E0,0E0],"parents":[2147483647,0,0,1,1,2,2,3,3,4,4,5,5,6,6,7,7,8,8,9,9,10,10,12,12,14,14],"right_children":[2,4,6,8,10,12,14,16,18,20,22,-1,24,-1,26,-1,-1,-1,-1,-1,-1,-1,-1,-1,-1,-1,-1],"split_conditions":[2.0882354E0,1.2189767E0,2.5503355E-1,1.203125E0,1.4094563E0,-1.6470588E0,2.580645E-1,8.306277E-1,2.9032257E-1,6.363636E-1,9.347826E-1,-4.8373707E-2,1.5384616E-1,7.763248E-2,-8.9166665E-1,1.285883E-3,-4.888281E-3,6.9532082E-3,-1.6737537E-2,-4.171747E-2,8.3757937E-4,-2.8465448E-2,1.5181109E-2,-3.6424384E-2,4.129729E-3,1.5897429E-2,-1.1495987E-2],"split_indices":[3,3,9,3,8,4,9,4,9,2,2,0,9,0,4,0,0,0,0,0,0,0,0,0,0,0,0],"split_type":[0,0,0,0,0,0,0,0,0,0,0,0,0,0,0,0,0,0,0,0,0,0,0,0,0,0,0],"sum_hessian":[4.371E3,4.112E3,2.59E2,1.192E3,2.92E3,4.3E1,2.16E2,1.047E3,1.45E2,2.795E3,1.25E2,8E0,3.5E1,2E0,2.14E2,5.05E2,5.42E2,3.7E1,1.08E2,6E0,2.789E3,7E0,1.18E2,7E0,2.8E1,2E2,1.4E1],"tree_param":{"num_deleted":"0","num_feature":"10","num_nodes":"27","size_leaf_vector":"1"}},{"base_weights":[-3.601289E-3,-5.381136E-2,5.4626256E-2,-4.466372E-2,-3.4968752E-1,3.191023E-2,2.4002983E-1,-9.313836E-2,9.11844E-3,-2.8391877E-1,-5.739487E-2,2.4077529E-1,1.5352285E-2,4.7498748E-1,7.541017E-4,-7.6152603E-3,-1.0599348E-3,2.1490682E-2,-1.8802469E-4,2.69613E-2,-1.8761018E-2,-8.630229E-4,2.347839E-2,-1.6765393E-3,3.7222428E-3,1.876395E-2,5.4405164E-2,-8.396204E-3,1.44361425E-2],"categories":[],"categories_nodes":[],"categories_segments":[],"categories_sizes":[],"default_left":[0,0,0,0,0,0,0,0,0,0,0,0,0,0,0,0,0,0,0,0,0,0,0,0,0,0,0,0,0],"id":44,"left_children":[1,3,5,7,9,11,13,15,17,19,-1,21,23,25,27,-1,-1,-1,-1,-1,-1,-1,-1,-1,-1,-1,-1,-1,-1],"loss_changes":[1.2735257E1,6.315046E0,8.487202E0,5.9188995E0,3.348897E0,6.2144637E0,1.2367969E1,5.078964E0,5.836916E0,5.16252E0,0E0,7.8009424E0,4.8178363E0,6.377405E0,5.3916283E0,0E0,0E0,0E0,0E0,0E0,0E0,0E0,0E0,0E0,0E0,0E0,0E0,0E0,0E0],"parents":[2147483647,0,0,1,1,2,2,3,3,4,4,5,5,6,6,7,7,8,8,9,9,11,11,12,12,13,13,14,14],"right_children":[2,4,6,8,10,12,14,16,18,20,-1,22,24,26,28,-1,-1,-1,-1,-1,-1,-1,-1,-1,-1,-1,-1,-1,-1],"split_conditions":[1.4361345E0,1.4285715E0,1.1479592E0,-9.8182626E-2,1.4094563E0,1.4E1,1.5E2,1.36E2,-7.8947365E-2,1.0833334E0,-5.739487E-2,1.6333333E0,1.5058876E0,1.16E2,1.932971E0,-7.6152603E-3,-1.0599348E-3,2.1490682E-2,-1.8802469E-4,2.69613E-2,-1.8761018E-2,-8.630229E-4,2.347839E-2,-1.6765393E-3,3.7222428E-3,1.876395E-2,5.4405164E-2,-8.396204E-3,1.44361425E-2],"split_indices":[3,3,8,8,8,1,0,0,8,7,0,3,7,0,8,0,0,0,0,0,0,0,0,0,0,0,0,0,0],"split_type":[0,0,0,0,0,0,0,0,0,0,0,0,0,0,0,0,0,0,0,0,0,0,0,0,0,0,0,0,0],"sum_hessian":[4.354E3,2.338E3,2.016E3,2.269E3,6.9E1,1.797E3,2.19E2,1.193E3,1.076E3,6.5E1,4E0,1.31E2,1.666E3,1.1E2,1.09E2,6.54E2,5.39E2,3.1E1,1.045E3,6E0,5.9E1,6.2E1,6.9E1,9.12E2,7.54E2,9.6E1,1.4E1,6.9E1,4E1],"tree_param":{"num_deleted":"0","num_feature":"10","num_nodes":"29","size_leaf_vector":"1"}},{"base_weights":[-6.358535E-3,1.05226785E-1,-2.8753301E-2,-5.050469E-3,3.0467474E-1,-1.216798E-2,-1.3992625E-1,4.298741E-2,-3.428584E-1,1.5457405E-2,3.8004807E-1,-2.7428018E-2,9.7351134E-2,-2.693539E-1,-1.0371397E-1,5.895636E-4,8.1430845E-2,-1.0154699E-2,-3.6964726E-2,-6.0161366E-3,4.818551E-2,1.6086534E-2,5.0645273E-2,-8.090615E-3,-8.271937E-4,4.0732176E-4,1.7928777E-2,2.796095E-2,-1.4564904E-2,-8.612521E-3,4.2544023E-4],"categories":[],"categories_nodes":[],"categories_segments":[],"categories_sizes":[],"default_left":[0,0,0,0,0,0,0,0,0,0,0,0,0,0,0,0,0,0,0,0,0,0,0,0,0,0,0,0,0,0,0],"id":45,"left_children":[1,3,5,7,9,11,13,15,17,19,21,23,25,27,29,-1,-1,-1,-1,-1,-1,-1,-1,-1,-1,-1,-1,-1,-1,-1,-1],"loss_changes":[1.0958323E1,1.6123562E1,6.7319984E0,7.690382E0,5.683733E0,5.315624E0,2.1936407E0,2.0508986E1,3.118907E0,7.197419E0,7.3137856E0,4.079601E0,9.0617285E0,2.0356846E0,2.862648E0,0E0,0E0,0E0,0E0,0E0,0E0,0E0,0E0,0E0,0E0,0E0,0E0,0E0,0E0,0E0,0E0],"parents":[2147483647,0,0,1,1,2,2,3,3,4,4,5,5,6,6,7,7,8,8,9,9,10,10,11,11,12,12,13,13,14,14],"right_children":[2,4,6,8,10,12,14,16,18,20,22,24,26,28,30,-1,-1,-1,-1,-1,-1,-1,-1,-1,-1,-1,-1,-1,-1,-1,-1],"split_conditions":[-5.8687943E-1,1.5526316E0,1.0666667E0,5.263158E-2,1.0349462E0,8.7122446E-1,2.0641026E0,2.9411765E-2,9.605263E-1,2.3684211E-1,1.4094563E0,-9.705882E-1,1.7365004E0,7.8947365E-2,1.4411764E0,5.895636E-4,8.1430845E-2,-1.0154699E-2,-3.6964726E-2,-6.0161366E-3,4.818551E-2,1.6086534E-2,5.0645273E-2,-8.090615E-3,-8.271937E-4,4.0732176E-4,1.7928777E-2,2.796095E-2,-1.4564904E-2,-8.612521E-3,4.2544023E-4],"split_indices":[4,6,4,8,7,8,2,8,2,5,8,8,2,9,6,0,0,0,0,0,0,0,0,0,0,0,0,0,0,0,0],"split_type":[0,0,0,0,0,0,0,0,0,0,0,0,0,0,0,0,0,0,0,0,0,0,0,0,0,0,0,0,0,0,0],"sum_hessian":[4.383E3,7.32E2,3.651E3,4.72E2,2.6E2,3.178E3,4.73E2,4.14E2,5.8E1,5.4E1,2.06E2,2.79E3,3.88E2,1.02E2,3.71E2,4.07E2,7E0,4.4E1,1.4E1,4.8E1,6E0,1.9E2,1.6E1,2.08E2,2.582E3,2.9E2,9.8E1,2E0,1E2,2.3E2,1.41E2],"tree_param":{"num_deleted":"0","num_feature":"10","num_nodes":"31","size_leaf_vector":"1"}},{"base_weights":[4.1823843E-3,-6.3230917E-3,2.0612857E-1,-4.6241377E-2,3.5910696E-2,1.1497819E-1,4.5559552E-1,-5.5182327E-2,3.1641257E-1,-5.643567E-1,3.974653E-2,2.0922448E-1,-4.595963E-1,8.011541E-1,1.2878148E-1,-2.2013068E-2,-2.4227696E-3,1.9458773E-2,-5.0088655E-2,-3.8296293E-2,1.8142456E-2,3.2081727E-2,1.7165663E-3,-5.883384E-3,1.6018385E-2,9.85976E-3,-3.515024E-2,8.458822E-3,6.687948E-2,-6.28564E-3,7.386472E-2],"categories":[],"categories_nodes":[],"categories_segments":[],"categories_sizes":[],"default_left":[0,0,0,0,0,0,0,0,0,0,0,0,0,0,0,0,0,0,0,0,0,0,0,0,0,0,0,0,0,0,0],"id":46,"left_children":[1,3,5,7,9,11,13,15,17,19,21,23,25,27,29,-1,-1,-1,-1,-1,-1,-1,-1,-1,-1,-1,-1,-1,-1,-1,-1],"loss_changes":[9.353055E0,7.0672684E0,4.9047194E0,7.004987E0,4.712677E0,8.814552E0,6.4469614E0,5.428872E0,5.377445E0,2.7075648E0,6.578149E0,5.0878234E0,3.8156066E0,9.266138E0,1.0824569E1,0E0,0E0,0E0,0E0,0E0,0E0,0E0,0E0,0E0,0E0,0E0,0E0,0E0,0E0,0E0,0E0],"parents":[2147483647,0,0,1,1,2,2,3,3,4,4,5,5,6,6,7,7,8,8,9,9,10,10,11,11,12,12,13,13,14,14],"right_children":[2,4,6,8,10,12,14,16,18,20,22,24,26,28,30,-1,-1,-1,-1,-1,-1,-1,-1,-1,-1,-1,-1,-1,-1,-1,-1],"split_conditions":[2.1176472E0,-9.8182626E-2,5.5263156E-1,1.86E2,7.0430106E-1,4.5652175E-1,6E-1,7.368421E-1,3.6842105E-1,1.3919355E0,7.368421E-1,2.5503355E-1,7.8947365E-2,9.1E1,1.3882979E0,-2.2013068E-2,-2.4227696E-3,1.9458773E-2,-5.0088655E-2,-3.8296293E-2,1.8142456E-2,3.2081727E-2,1.7165663E-3,-5.883384E-3,1.6018385E-2,9.85976E-3,-3.515024E-2,8.458822E-3,6.687948E-2,-6.28564E-3,7.386472E-2],"split_indices":[3,8,8,0,2,9,9,2,9,7,2,9,5,0,2,0,0,0,0,0,0,0,0,0,0,0,0,0,0,0,0],"split_type":[0,0,0,0,0,0,0,0,0,0,0,0,0,0,0,0,0,0,0,0,0,0,0,0,0,0,0,0,0,0,0],"sum_hessian":[4.407E3,4.19E3,2.17E2,2.154E3,2.036E3,1.6E2,5.7E1,2.103E3,5.1E1,1.2E1,2.024E3,1.38E2,2.2E1,2.7E1,3E1,3.5E1,2.068E3,4.9E1,2E0,1E1,2E0,1.7E1,2.007E3,3.5E1,1.03E2,6E0,1.6E1,1.3E1,1.4E1,2.6E1,4E0],"tree_param":{"num_deleted":"0","num_feature":"10","num_nodes":"31","size_leaf_vector":"1"}},{"base_weights":[-6.666043E-3,-3.647916E-2,6.1495796E-2,-5.117872E-2,9.154021E-2,-6.403157E-3,1.868502E-1,-1.2758842E-1,-3.7219677E-2,-8.164581E-2,2.4279419E-1,-9.890542E-2,6.368153E-2,1.2663458E-1,4.2892784E-1,1.7632138E-3,-9.245231E-3,1.3017272E-2,-2.3388383E-3,3.1588979E-3,-8.864391E-3,-1.9819355E-3,1.9860443E-2,-2.7466407E-3,-2.9467145E-2,-5.761415E-4,1.264164E-2,-5.5036794E-2,6.8007894E-3,6.763328E-2,1.7528726E-2],"categories":[],"categories_nodes":[],"categories_segments":[],"categories_sizes":[],"default_left":[0,0,0,0,0,0,0,0,0,0,0,0,0,0,0,0,0,0,0,0,0,0,0,0,0,0,0,0,0,0,0],"id":47,"left_children":[1,3,5,7,9,11,13,15,17,19,21,23,25,27,29,-1,-1,-1,-1,-1,-1,-1,-1,-1,-1,-1,-1,-1,-1,-1,-1],"loss_changes":[9.008585E0,5.8082438E0,1.1483119E1,2.94655E0,8.349856E0,5.6853995E0,6.855112E0,3.9921794E0,6.6696444E0,2.0750346E0,7.4297457E0,8.119504E0,7.1011887E0,4.536633E0,6.3293133E0,0E0,0E0,0E0,0E0,0E0,0E0,0E0,0E0,0E0,0E0,0E0,0E0,0E0,0E0,0E0,0E0],"parents":[2147483647,0,0,1,1,2,2,3,3,4,4,5,5,6,6,7,7,8,8,9,9,10,10,11,11,12,12,13,13,14,14],"right_children":[2,4,6,8,10,12,14,16,18,20,22,24,26,28,30,-1,-1,-1,-1,-1,-1,-1,-1,-1,-1,-1,-1,-1,-1,-1,-1],"split_conditions":[1.5585107E0,6.262626E-1,1.7E0,9.4736844E-1,3.8235295E-1,1.5058876E0,2.1176472E0,1.1388888E0,1.8032786E-1,2.8723404E-1,1.0882353E0,1.4736842E0,-3.2954955E-1,6.363636E-1,3.7142858E-1,1.7632138E-3,-9.245231E-3,1.3017272E-2,-2.3388383E-3,3.1588979E-3,-8.864391E-3,-1.9819355E-3,1.9860443E-2,-2.7466407E-3,-2.9467145E-2,-5.761415E-4,1.264164E-2,-5.5036794E-2,6.8007894E-3,6.763328E-2,1.7528726E-2],"split_indices":[3,9,6,6,5,7,3,3,9,5,3,7,8,2,9,0,0,0,0,0,0,0,0,0,0,0,0,0,0,0,0],"split_type":[0,0,0,0,0,0,0,0,0,0,0,0,0,0,0,0,0,0,0,0,0,0,0,0,0,0,0,0,0,0,0],"sum_hessian":[4.431E3,3.083E3,1.348E3,2.766E3,3.17E2,8.75E2,4.73E2,4.26E2,2.34E3,1.48E2,1.69E2,3.77E2,4.98E2,3.8E2,9.3E1,1.11E2,3.15E2,7.2E1,2.268E3,5.9E1,8.9E1,6E1,1.09E2,3.47E2,3E1,3.57E2,1.41E2,2E0,3.78E2,6E0,8.7E1],"tree_param":{"num_deleted":"0","num_feature":"10","num_nodes":"31","size_leaf_vector":"1"}},{"base_weights":[-5.9705065E-3,-3.26207E-2,1.0145192E-1,-6.885263E-2,1.9516073E-2,3.2351196E-2,2.4708213E-1,-5.7777697E-1,-6.46681E-2,-8.094471E-2,5.2467734E-2,8.045932E-2,-1.5875831E-1,3.934832E-1,1.6159709E-1,-3.3261735E-2,2.0538658E-2,3.002798E-3,-3.8425152E-3,6.0852982E-2,-4.761073E-3,1.9756444E-2,1.6681225E-3,-1.8328816E-3,1.2816283E-2,4.200605E-2,-1.0908958E-2,5.2277602E-2,1.2242305E-2,6.2413733E-3,6.066201E-2],"categories":[],"categories_nodes":[],"categories_segments":[],"categories_sizes":[],"default_left":[0,0,0,0,0,0,0,0,0,0,0,0,0,0,0,0,0,0,0,0,0,0,0,0,0,0,0,0,0,0,0],"id":48,"left_children":[1,3,5,7,9,11,13,15,17,19,21,23,25,27,29,-1,-1,-1,-1,-1,-1,-1,-1,-1,-1,-1,-1,-1,-1,-1,-1],"loss_changes":[1.271713E1,6.724352E0,8.877771E0,4.4348183E0,4.8373575E0,5.529125E0,3.4907036E0,1.7430186E0,3.1710749E0,6.8056784E0,7.188121E0,9.895924E0,7.365161E0,9.823849E0,6.847559E0,0E0,0E0,0E0,0E0,0E0,0E0,0E0,0E0,0E0,0E0,0E0,0E0,0E0,0E0,0E0,0E0],"parents":[2147483647,0,0,1,1,2,2,3,3,4,4,5,5,6,6,7,7,8,8,9,9,10,10,11,11,12,12,13,13,14,14],"right_children":[2,4,6,8,10,12,14,16,18,20,22,24,26,28,30,-1,-1,-1,-1,-1,-1,-1,-1,-1,-1,-1,-1,-1,-1,-1,-1],