{"learner":{"attributes":{"scikit_learn":"{\"_estimator_type\": \"classifier\"}"},"feature_names":["home_team_id","away_team_id","home_avg_scored","home_avg_conceded","home_goal_diff","home_win_rate","away_avg_scored","away_avg_conceded","away_goal_diff","away_win_rate"],"feature_types":["int","int","float","float","float","float","float","float","float","float"],"gradient_booster":{"model":{"cats":{"enc":[],"feature_segments":[],"sorted_idx":[]},"gbtree_model_param":{"num_parallel_tree":"1","num_trees":"900"},"iteration_indptr":[0,3,6,9,12,15,18,21,24,27,30,33,36,39,42,45,48,51,54,57,60,63,66,69,72,75,78,81,84,87,90,93,96,99,102,105,108,111,114,117,120,123,126,129,132,135,138,141,144,147,150,153,156,159,162,165,168,171,174,177,180,183,186,189,192,195,198,201,204,207,210,213,216,219,222,225,228,231,234,237,240,243,246,249,252,255,258,261,264,267,270,273,276,279,282,285,288,291,294,297,300,303,306,309,312,315,318,321,324,327,330,333,336,339,342,345,348,351,354,357,360,363,366,369,372,375,378,381,384,387,390,393,396,399,402,405,408,411,414,417,420,423,426,429,432,435,438,441,444,447,450,453,456,459,462,465,468,471,474,477,480,483,486,489,492,495,498,501,504,507,510,513,516,519,522,525,528,531,534,537,540,543,546,549,552,555,558,561,564,567,570,573,576,579,582,585,588,591,594,597,600,603,606,609,612,615,618,621,624,627,630,633,636,639,642,645,648,651,654,657,660,663,666,669,672,675,678,681,684,687,690,693,696,699,702,705,708,711,714,717,720,723,726,729,732,735,738,741,744,747,750,753,756,759,762,765,768,771,774,777,780,783,786,789,792,795,798,801,804,807,810,813,816,819,822,825,828,831,834,837,840,843,846,849,852,855,858,861,864,867,870,873,876,879,882,885,888,891,894,897,900],"tree_info":[0,1,2,0,1,2,0,1,2,0,1,2,0,1,2,0,1,2,0,1,2,0,1,2,0,1,2,0,1,2,0,1,2,0,1,2,0,1,2,0,1,2,0,1,2,0,1,2,0,1,2,0,1,2,0,1,2,0,1,2,0,1,2,0,1,2,0,1,2,0,1,2,0,1,2,0,1,2,0,1,2,0,1,2,0,1,2,0,1,2,0,1,2,0,1,2,0,1,2,0,1,2,0,1,2,0,1,2,0,1,2,0,1,2,0,1,2,0,1,2,0,1,2,0,1,2,0,1,2,0,1,2,0,1,2,0,1,2,0,1,2,0,1,2,0,1,2,0,1,2,0,1,2,0,1,2,0,1,2,0,1,2,0,1,2,0,1,2,0,1,2,0,1,2,0,1,2,0,1,2,0,1,2,0,1,2,0,1,2,0,1,2,0,1,2,0,1,2,0,1,2,0,1,2,0,1,2,0,1,2,0,1,2,0,1,2,0,1,2,0,1,2,0,1,2,0,1,2,0,1,2,0,1,2,0,1,2,0,1,2,0,1,2,0,1,2,0,1,2,0,1,2,0,1,2,0,1,2,0,1,2,0,1,2,0,1,2,0,1,2,0,1,2,0,1,2,0,1,2,0,1,2,0,1,2,0,1,2,0,1,2,0,1,2,0,1,2,0,1,2,0,1,2,0,1,2,0,1,2,0,1,2,0,1,2,0,1,2,0,1,2,0,1,2,0,1,2,0,1,2,0,1,2,0,1,2,0,1,2,0,1,2,0,1,2,0,1,2,0,1,2,0,1,2,0,1,2,0,1,2,0,1,2,0,1,2,0,1,2,0,1,2,0,1,2,0,1,2,0,1,2,0,1,2,0,1,2,0,1,2,0,1,2,0,1,2,0,1,2,0,1,2,0,1,2,0,1,2,0,1,2,0,1,2,0,1,2,0,1,2,0,1,2,0,1,2,0,1,2,0,1,2,0,1,2,0,1,2,0,1,2,0,1,2,0,1,2,0,1,2,0,1,2,0,1,2,0,1,2,0,1,2,0,1,2,0,1,2,0,1,2,0,1,2,0,1,2,0,1,2,0,1,2,0,1,2,0,1,2,0,1,2,0,1,2,0,1,2,0,1,2,0,1,2,0,1,2,0,1,2,0,1,2,0,1,2,0,1,2,0,1,2,0,1,2,0,1,2,0,1,2,0,1,2,0,1,2,0,1,2,0,1,2,0,1,2,0,1,2,0,1,2,0,1,2,0,1,2,0,1,2,0,1,2,0,1,2,0,1,2,0,1,2,0,1,2,0,1,2,0,1,2,0,1,2,0,1,2,0,1,2,0,1,2,0,1,2,0,1,2,0,1,2,0,1,2,0,1,2,0,1,2,0,1,2,0,1,2,0,1,2,0,1,2,0,1,2,0,1,2,0,1,2,0,1,2,0,1,2,0,1,2,0,1,2,0,1,2,0,1,2,0,1,2,0,1,2,0,1,2,0,1,2,0,1,2,0,1,2,0,1,2,0,1,2,0,1,2,0,1,2,0,1,2,0,1,2,0,1,2,0,1,2,0,1,2,0,1,2,0,1,2,0,1,2,0,1,2,0,1,2,0,1,2,0,1,2,0,1,2,0,1,2,0,1,2,0,1,2,0,1,2,0,1,2,0,1,2,0,1,2,0,1,2,0,1,2,0,1,2,0,1,2,0,1,2,0,1,2,0,1,2,0,1,2,0,1,2,0,1,2,0,1,2,0,1,2,0,1,2,0,1,2,0,1,2,0,1,2,0,1,2,0,1,2,0,1,2,0,1,2,0,1,2,0,1,2,0,1,2,0,1,2,0,1,2,0,1,2,0,1,2,0,1,2,0,1,2,0,1,2,0,1,2,0,1,2,0,1,2,0,1,2,0,1,2,0,1,2,0,1,2,0,1,2,0,1,2,0,1,2,0,1,2,0,1,2,0,1,2,0,1,2,0,1,2,0,1,2,0,1,2,0,1,2,0,1,2,0,1,2,0,1,2,0,1,2,0,1,2],"trees":[{"base_weights":[9.898182E-3,-1.676972E-1,4.6272326E-1,1.4989468E-1,-3.662368E-1,7.202646E-1,-3.825643E-3,5.0307065E-1,2.515246E-2,-1.7365718E-1,-4.8861012E-1,5.6153107E-1,9.616138E-1,-1.5010162E-1,2.651019E-1,8.473716E-4,3.466191E-2,-5.549828E-3,1.214545E-2,-1.9735908E-2,-1.2352102E-3,-2.8364072E-2,-1.515414E-2,4.664168E-2,2.0465681E-2,5.8224063E-2,4.2448055E-2,5.625054E-3,-1.0061803E-2,2.8385976E-2,-5.2279546E-3],"categories":[],"categories_nodes":[],"categories_segments":[],"categories_sizes":[],"default_left":[0,0,0,0,0,0,0,0,0,0,0,0,0,0,0,0,0,0,0,0,0,0,0,0,0,0,0,0,0,0,0],"id":0,"left_children":[1,3,5,7,9,11,13,15,17,19,21,23,25,27,29,-1,-1,-1,-1,-1,-1,-1,-1,-1,-1,-1,-1,-1,-1,-1,-1],"loss_changes":[1.5291353E2,8.617678E1,6.4364044E1,2.3165268E1,1.9728271E1,1.26822815E1,7.5734286E0,1.2677795E1,1.1584555E1,1.0797522E1,7.323189E0,1.1521408E1,2.108757E0,1.6968608E0,7.647355E0,0E0,0E0,0E0,0E0,0E0,0E0,0E0,0E0,0E0,0E0,0E0,0E0,0E0,0E0,0E0,0E0],"parents":[2147483647,0,0,1,1,2,2,3,3,4,4,5,5,6,6,7,7,8,8,9,9,10,10,11,11,12,12,13,13,14,14],"right_children":[2,4,6,8,10,12,14,16,18,20,22,24,26,28,30,-1,-1,-1,-1,-1,-1,-1,-1,-1,-1,-1,-1,-1,-1,-1,-1],"split_conditions":[4.6875E-1,3.0769232E-1,1.8421052E-1,-8.181818E-1,1.1170213E-1,1.1479592E0,6.262626E-1,2.5503355E-1,3.263158E-1,2.736842E-1,-1E-1,-6E-1,-4.117647E-1,1.5526316E0,5.638298E-1,8.473716E-4,3.466191E-2,-5.549828E-3,1.214545E-2,-1.9735908E-2,-1.2352102E-3,-2.8364072E-2,-1.515414E-2,4.664168E-2,2.0465681E-2,5.8224063E-2,4.2448055E-2,5.625054E-3,-1.0061803E-2,2.8385976E-2,-5.2279546E-3],"split_indices":[9,5,4,4,4,8,9,9,9,9,8,4,4,2,5,0,0,0,0,0,0,0,0,0,0,0,0,0,0,0,0],"split_type":[0,0,0,0,0,0,0,0,0,0,0,0,0,0,0,0,0,0,0,0,0,0,0,0,0,0,0,0,0,0,0],"sum_hessian":[1.8994801E3,1.3648309E3,5.346492E2,5.2510187E2,8.39729E2,3.44137E2,1.9051216E2,1.362661E2,3.8883575E2,3.2721225E2,5.125168E2,2.0960678E2,1.3453023E2,1.23681015E2,6.683115E1,3.8623196E1,9.764291E1,2.395506E2,1.4928516E2,1.3105849E2,1.9615375E2,3.5845798E2,1.540588E2,5.9453682E1,1.5015309E2,4.4698753E1,8.9831474E1,1.9962551E1,1.0371847E2,3.6453354E1,3.0377794E1],"tree_param":{"num_deleted":"0","num_feature":"10","num_nodes":"31","size_leaf_vector":"1"}},{"base_weights":[-5.032192E-3,6.2129468E-2,-2.4863014E-1,1.19558156E-1,-8.799508E-2,5.9962194E-2,-2.6290765E-1,-3.6816707E-1,1.3961944E-1,1.237598E-1,-2.1725543E-1,-1.8312939E-1,-4.5562258E-1,-2.2872668E-2,1.667299E-2,7.905074E-3,-1.02205165E-2,9.687721E-3,-1.2702107E-2,-1.7314995E-2,-6.7066774E-3,-2.4592377E-2,-6.6982345E-3,-2.6843166E-2,7.970044E-4],"categories":[],"categories_nodes":[],"categories_segments":[],"categories_sizes":[],"default_left":[0,0,0,0,0,0,0,0,0,0,0,0,0,0,0,0,0,0,0,0,0,0,0,0,0],"id":1,"left_children":[1,3,5,7,9,-1,11,13,15,17,19,21,23,-1,-1,-1,-1,-1,-1,-1,-1,-1,-1,-1,-1],"loss_changes":[2.6364113E1,1.0901537E1,7.5146484E0,8.995681E0,9.609879E0,0E0,5.2312717E0,2.432221E0,5.6197243E0,3.5753858E0,2.2893791E0,3.6701822E0,3.8600483E0,0E0,0E0,0E0,0E0,0E0,0E0,0E0,0E0,0E0,0E0,0E0,0E0],"parents":[2147483647,0,0,1,1,2,2,3,3,4,4,6,6,7,7,8,8,9,9,10,10,11,11,12,12],"right_children":[2,4,6,8,10,-1,12,14,16,18,20,22,24,-1,-1,-1,-1,-1,-1,-1,-1,-1,-1,-1,-1],"split_conditions":[1.7916666E0,4.6875E-1,7.701684E-1,-1.2354839E0,1.4210526E0,5.9962194E-2,7.120419E-1,1.5E2,2.125E0,4.8214287E-1,1.1029412E0,-8.1578946E-1,7.659575E-1,-2.2872668E-2,1.667299E-2,7.905074E-3,-1.02205165E-2,9.687721E-3,-1.2702107E-2,-1.7314995E-2,-6.7066774E-3,-2.4592377E-2,-6.6982345E-3,-2.6843166E-2,7.970044E-4],"split_indices":[2,9,7,8,3,0,5,0,3,5,2,8,8,0,0,0,0,0,0,0,0,0,0,0,0],"split_type":[0,0,0,0,0,0,0,0,0,0,0,0,0,0,0,0,0,0,0,0,0,0,0,0,0],"sum_hessian":[1.6095106E3,1.2622456E3,3.47265E2,9.131374E2,3.4910825E2,2.5805254E0,3.4468448E2,3.5390064E1,8.777473E2,1.323441E2,2.1676414E2,2.4514992E2,9.953455E1,3.17036E1,3.686465E0,8.3350977E2,4.423758E1,1.12068535E2,2.0275558E1,8.3682755E1,1.3308139E2,3.244089E1,2.1270903E2,8.47887E1,1.474586E1],"tree_param":{"num_deleted":"0","num_feature":"10","num_nodes":"25","size_leaf_vector":"1"}},{"base_weights":[-7.707965E-3,-2.4050564E-1,4.4667405E-1,1.9290379E-3,-4.272984E-1,6.149497E-1,-5.5175588E-2,-2.53802E-1,1.5775909E-1,-5.6481624E-1,-2.6841754E-1,4.7373232E-1,7.9556495E-1,-2.2562574E-1,1.973162E-1,-2.1915777E-2,-5.98995E-3,3.2054435E-2,4.2965706E-3,-2.338085E-2,-3.443553E-2,-7.919892E-3,-2.3982255E-2,3.1311125E-2,1.2790011E-2,4.3179426E-2,2.9842226E-2,-1.7471809E-2,5.2905655E-3,2.9292483E-2,9.606792E-4],"categories":[],"categories_nodes":[],"categories_segments":[],"categories_sizes":[],"default_left":[0,0,0,0,0,0,0,0,0,0,0,0,0,0,0,0,0,0,0,0,0,0,0,0,0,0,0,0,0,0,0],"id":2,"left_children":[1,3,5,7,9,11,13,15,17,19,21,23,25,27,29,-1,-1,-1,-1,-1,-1,-1,-1,-1,-1,-1,-1,-1,-1,-1,-1],"loss_changes":[2.2965881E2,6.501116E1,6.2147995E1,2.4976011E1,1.7564499E1,1.3674545E1,8.032876E0,5.814994E0,1.3464525E1,4.9011993E0,8.710915E0,1.0196571E1,2.7323303E0,4.6032505E0,5.2020626E0,0E0,0E0,0E0,0E0,0E0,0E0,0E0,0E0,0E0,0E0,0E0,0E0,0E0,0E0,0E0,0E0],"parents":[2147483647,0,0,1,1,2,2,3,3,4,4,5,5,6,6,7,7,8,8,9,9,10,10,11,11,12,12,13,13,14,14],"right_children":[2,4,6,8,10,12,14,16,18,20,22,24,26,28,30,-1,-1,-1,-1,-1,-1,-1,-1,-1,-1,-1,-1,-1,-1,-1,-1],"split_conditions":[4.25E-1,3.2352942E-1,3.970588E-1,2.6666668E-1,2.9473683E-1,5.75E-1,5.75E-1,2.0588236E-1,1.3636364E-1,3.7645137E-1,5.483871E-1,-1.9565217E-1,-5.1612902E-2,1.203125E0,7.352941E-1,-2.1915777E-2,-5.98995E-3,3.2054435E-2,4.2965706E-3,-2.338085E-2,-3.443553E-2,-7.919892E-3,-2.3982255E-2,3.1311125E-2,1.2790011E-2,4.3179426E-2,2.9842226E-2,-1.7471809E-2,5.2905655E-3,2.9292483E-2,9.606792E-4],"split_indices":[5,9,8,5,5,5,5,5,9,8,9,8,8,7,8,0,0,0,0,0,0,0,0,0,0,0,0,0,0,0,0],"split_type":[0,0,0,0,0,0,0,0,0,0,0,0,0,0,0,0,0,0,0,0,0,0,0,0,0,0,0,0,0,0,0],"sum_hessian":[2.1691018E3,1.4345807E3,7.3452106E2,6.2473676E2,8.0984393E2,5.499062E2,1.8461488E2,2.3630705E2,3.8842972E2,4.3273727E2,3.7710666E2,3.106453E2,2.3926088E2,1.1027663E2,7.433826E1,9.846127E1,1.3784578E2,4.9230637E1,3.3919907E2,2.4516856E2,1.8756873E2,2.4910701E2,1.2799965E2,1.8166104E2,1.2898427E2,1.7575337E2,6.350752E1,8.024593E1,3.0030687E1,2.2646091E1,5.1692165E1],"tree_param":{"num_deleted":"0","num_feature":"10","num_nodes":"31","size_leaf_vector":"1"}},{"base_weights":[9.728756E-3,-1.6230668E-1,4.02011E-1,-2.676578E-1,3.2046354E-1,6.460902E-1,6.481039E-2,-1.4956106E-1,-5.101857E-1,-2.3201828E-1,4.5426956E-1,4.9263337E-1,8.4462863E-1,-4.6435468E-2,5.8893645E-1,-1.8674152E-2,-1.6425314E-3,-2.8987734E-2,-1.568964E-2,1.6345127E-2,-1.9545216E-2,3.5825357E-2,1.4736349E-2,1.7009001E-2,3.6043357E-2,3.255303E-2,5.1621586E-2,-1.34359775E-2,6.7476095E-3,-1.6575104E-2,3.68622E-2],"categories":[],"categories_nodes":[],"categories_segments":[],"categories_sizes":[],"default_left":[0,0,0,0,0,0,0,0,0,0,0,0,0,0,0,0,0,0,0,0,0,0,0,0,0,0,0,0,0,0,0],"id":3,"left_children":[1,3,5,7,9,11,13,15,17,19,21,23,25,27,29,-1,-1,-1,-1,-1,-1,-1,-1,-1,-1,-1,-1,-1,-1,-1,-1],"loss_changes":[1.2962715E2,6.799786E1,4.8151527E1,3.1332863E1,1.7821123E1,9.929611E0,1.4428335E1,1.9298603E1,4.719002E0,4.3358297E0,7.874363E0,6.502552E0,4.6585846E0,8.288428E0,6.1575594E0,0E0,0E0,0E0,0E0,0E0,0E0,0E0,0E0,0E0,0E0,0E0,0E0,0E0,0E0,0E0,0E0],"parents":[2147483647,0,0,1,1,2,2,3,3,4,4,5,5,6,6,7,7,8,8,9,9,10,10,11,11,12,12,13,13,14,14],"right_children":[2,4,6,8,10,12,14,16,18,20,22,24,26,28,30,-1,-1,-1,-1,-1,-1,-1,-1,-1,-1,-1,-1,-1,-1,-1,-1],"split_conditions":[4.5652175E-1,1.7354167E0,1.4736842E0,1.7E0,2.2950819E-1,1.5447695E0,1.5681819E0,2.631579E-1,-8.82353E-2,9.117647E-1,1.0053763E0,1.0666667E0,5.638298E-1,1.9714285E0,4.7179487E-1,-1.8674152E-2,-1.6425314E-3,-2.8987734E-2,-1.568964E-2,1.6345127E-2,-1.9545216E-2,3.5825357E-2,1.4736349E-2,1.7009001E-2,3.6043357E-2,3.255303E-2,5.1621586E-2,-1.34359775E-2,6.7476095E-3,-1.6575104E-2,3.68622E-2],"split_indices":[9,3,2,2,9,3,3,9,8,2,2,8,9,6,8,0,0,0,0,0,0,0,0,0,0,0,0,0,0,0,0],"split_type":[0,0,0,0,0,0,0,0,0,0,0,0,0,0,0,0,0,0,0,0,0,0,0,0,0,0,0,0,0,0,0],"sum_hessian":[1.918821E3,1.3342651E3,5.845559E2,1.0956218E3,2.3864328E2,3.385697E2,2.4598619E2,7.3791675E2,3.5770508E2,4.6385345E1,1.9225793E2,1.9292952E2,1.4564018E2,2.0366885E2,4.2317345E1,2.5207765E2,4.858391E2,2.6269705E2,9.5008026E1,1.0033294E1,3.6352055E1,7.1403E1,1.2085494E2,1.1716036E2,7.576915E1,7.391891E1,7.1721275E1,9.130112E1,1.1236773E2,5.7008724E0,3.6616474E1],"tree_param":{"num_deleted":"0","num_feature":"10","num_nodes":"31","size_leaf_vector":"1"}},{"base_weights":[8.647334E-3,7.9201475E-2,-2.6394704E-1,1.2290318E-1,-1.4191136E-1,7.846316E-2,-3.5771602E-1,1.601018E-1,-8.679317E-2,-4.0032718E-1,-7.208035E-2,5.7417314E-2,2.1306187E-2,-2.8734222E-1,-4.910967E-1,9.901435E-3,3.0609276E-3,-2.3515472E-2,-8.654138E-4,-3.1427234E-2,-8.643571E-3,4.4066004E-2,-4.8226747E-3,1.6102163E-2,-8.262112E-3,-2.5955437E-2,-1.155262E-2,-2.6612759E-2,-8.838958E-3],"categories":[],"categories_nodes":[],"categories_segments":[],"categories_sizes":[],"default_left":[0,0,0,0,0,0,0,0,0,0,0,0,0,0,0,0,0,0,0,0,0,0,0,0,0,0,0,0,0],"id":4,"left_children":[1,3,5,7,9,11,13,15,17,19,21,-1,23,25,27,-1,-1,-1,-1,-1,-1,-1,-1,-1,-1,-1,-1,-1,-1],"loss_changes":[3.1252756E1,1.2490252E1,1.0755714E1,8.425089E0,3.8234544E0,4.418051E0,2.3225594E0,3.423895E0,4.3385506E0,2.23742E0,4.0186887E0,0E0,3.9793816E0,2.1530313E0,1.0604286E0,0E0,0E0,0E0,0E0,0E0,0E0,0E0,0E0,0E0,0E0,0E0,0E0,0E0,0E0],"parents":[2147483647,0,0,1,1,2,2,3,3,4,4,5,5,6,6,7,7,8,8,9,9,10,10,12,12,13,13,14,14],"right_children":[2,4,6,8,10,12,14,16,18,20,22,-1,24,26,28,-1,-1,-1,-1,-1,-1,-1,-1,-1,-1,-1,-1,-1,-1],"split_conditions":[5.5263156E-1,1.9436275E0,1.1979166E0,1.8202571E0,-6E-1,7.701684E-1,6.9902915E-1,1.5E0,7.0430106E-1,1.23E2,6E0,5.7417314E-2,8.5E-1,1.9042553E0,1.79E2,9.901435E-3,3.0609276E-3,-2.3515472E-2,-8.654138E-4,-3.1427234E-2,-8.643571E-3,4.4066004E-2,-4.8226747E-3,1.6102163E-2,-8.262112E-3,-2.5955437E-2,-1.155262E-2,-2.6612759E-2,-8.838958E-3],"split_indices":[4,6,7,7,4,7,5,6,6,0,0,0,4,2,0,0,0,0,0,0,0,0,0,0,0,0,0,0,0],"split_type":[0,0,0,0,0,0,0,0,0,0,0,0,0,0,0,0,0,0,0,0,0,0,0,0,0,0,0,0,0],"sum_hessian":[1.6228962E3,1.289779E3,3.3311716E2,1.0773008E3,2.1247827E2,7.164799E1,2.6146918E2,9.1518933E2,1.621115E2,4.4195633E1,1.6828264E2,2.6653826E0,6.8982605E1,1.7322643E2,8.824275E1,6.6075323E2,2.5443607E2,2.3981121E1,1.3813037E2,2.1180664E1,2.3014969E1,3.3183854E0,1.6496425E2,2.6130682E1,4.2851925E1,3.2243927E1,1.409825E2,7.741255E1,1.0830197E1],"tree_param":{"num_deleted":"0","num_feature":"10","num_nodes":"29","size_leaf_vector":"1"}},{"base_weights":[-6.0417657E-3,-2.2089638E-1,4.25721E-1,-3.179433E-2,-4.0975288E-1,-5.8053628E-2,5.7345676E-1,-2.6666802E-1,1.0853774E-1,-5.607756E-1,-2.49461E-1,-4.068233E-1,3.9627707E-1,4.449866E-1,7.423858E-1,2.8891623E-2,-1.5034434E-2,2.1510778E-3,2.508754E-2,-2.2825124E-2,-3.4776524E-2,-8.343075E-3,-3.0125245E-2,-3.4294643E-2,-1.3827929E-2,4.0438946E-2,9.859416E-3,1.646806E-2,3.075176E-2,3.858705E-2,-2.5862402E-3],"categories":[],"categories_nodes":[],"categories_segments":[],"categories_sizes":[],"default_left":[0,0,0,0,0,0,0,0,0,0,0,0,0,0,0,0,0,0,0,0,0,0,0,0,0,0,0,0,0,0,0],"id":5,"left_children":[1,3,5,7,9,11,13,15,17,19,21,23,25,27,29,-1,-1,-1,-1,-1,-1,-1,-1,-1,-1,-1,-1,-1,-1,-1,-1],"loss_changes":[2.0100829E2,5.1657692E1,5.1491318E1,2.3893106E1,1.738163E1,2.6994596E1,1.1641617E1,7.96216E0,1.1672782E1,4.907799E0,1.0191212E1,3.3108683E0,5.921691E0,6.0075035E0,5.560089E0,0E0,0E0,0E0,0E0,0E0,0E0,0E0,0E0,0E0,0E0,0E0,0E0,0E0,0E0,0E0,0E0],"parents":[2147483647,0,0,1,1,2,2,3,3,4,4,5,5,6,6,7,7,8,8,9,9,10,10,11,11,12,12,13,13,14,14],"right_children":[2,4,6,8,10,12,14,16,18,20,22,24,26,28,30,-1,-1,-1,-1,-1,-1,-1,-1,-1,-1,-1,-1,-1,-1,-1,-1],"split_conditions":[4.2857143E-1,3.478261E-1,1.203125E0,2.6666668E-1,2.9473683E-1,8.1440496E-1,8.1440496E-1,7.0430106E-1,2.0666666E0,1.7810284E0,6.315789E-1,3.529412E-1,1.4037815E0,1.604762E0,2.0704787E0,2.8891623E-2,-1.5034434E-2,2.1510778E-3,2.508754E-2,-2.2825124E-2,-3.4776524E-2,-8.343075E-3,-3.0125245E-2,-3.4294643E-2,-1.3827929E-2,4.0438946E-2,9.859416E-3,1.646806E-2,3.075176E-2,3.858705E-2,-2.5862402E-3],"split_indices":[5,9,7,5,5,4,4,6,7,6,9,4,6,7,6,0,0,0,0,0,0,0,0,0,0,0,0,0,0,0,0],"split_type":[0,0,0,0,0,0,0,0,0,0,0,0,0,0,0,0,0,0,0,0,0,0,0,0,0,0,0,0,0,0,0],"sum_hessian":[2.1648127E3,1.4458262E3,7.1898645E2,7.230272E2,7.2279895E2,1.6834196E2,5.506445E2,2.7008533E2,4.529419E2,3.7087347E2,3.5192548E2,9.529373E1,7.304824E1,3.1484198E2,2.3580249E2,9.84003E0,2.602453E2,3.8920325E2,6.3738674E1,2.1155797E2,1.593155E2,2.863926E2,6.553287E1,2.8968464E1,6.6325264E1,2.2782219E1,5.0266018E1,1.891591E2,1.2568286E2,2.2742369E2,8.378799E0],"tree_param":{"num_deleted":"0","num_feature":"10","num_nodes":"31","size_leaf_vector":"1"}},{"base_weights":[-6.2273367E-4,2.0893063E-1,-3.4826425E-1,-6.062103E-2,5.283255E-1,-4.8922226E-1,2.1732094E-2,3.5293707E-1,-1.3962619E-1,8.582534E-1,3.9896166E-1,-5.601964E-1,-3.3194765E-1,-1.6440903E-1,1.805471E-1,4.203517E-3,2.648361E-2,-1.6165659E-2,-9.703751E-4,3.176137E-2,5.5677116E-2,1.3391415E-2,3.735582E-2,-2.0909263E-2,-2.913395E-2,7.40702E-4,-2.2069078E-2,2.3456492E-2,-1.1137134E-2,-1.7762808E-2,1.2392E-2],"categories":[],"categories_nodes":[],"categories_segments":[],"categories_sizes":[],"default_left":[0,0,0,0,0,0,0,0,0,0,0,0,0,0,0,0,0,0,0,0,0,0,0,0,0,0,0,0,0,0,0],"id":6,"left_children":[1,3,5,7,9,11,13,15,17,19,21,23,25,27,29,-1,-1,-1,-1,-1,-1,-1,-1,-1,-1,-1,-1,-1,-1,-1,-1],"loss_changes":[1.381232E2,1.0187605E2,3.7199654E1,2.1039476E1,2.2770065E1,5.5782166E0,5.873246E0,4.8653526E0,1.1920582E1,7.9273148E0,1.7644695E1,8.8773346E-1,6.1929817E0,3.4871256E0,3.9511223E0,0E0,0E0,0E0,0E0,0E0,0E0,0E0,0E0,0E0,0E0,0E0,0E0,0E0,0E0,0E0,0E0],"parents":[2147483647,0,0,1,1,2,2,3,3,4,4,5,5,6,6,7,7,8,8,9,9,10,10,11,11,12,12,13,13,14,14],"right_children":[2,4,6,8,10,12,14,16,18,20,22,24,26,28,30,-1,-1,-1,-1,-1,-1,-1,-1,-1,-1,-1,-1,-1,-1,-1,-1],"split_conditions":[1.1170213E-1,3.7142858E-1,4.7682118E-1,-8.181818E-1,-5.8687943E-1,-1E-1,8E-1,2.5503355E-1,2.5503355E-1,1.8392857E0,1.0666667E0,4.3137255E-1,4.6666667E-1,4E-1,1.1E1,4.203517E-3,2.648361E-2,-1.6165659E-2,-9.703751E-4,3.176137E-2,5.5677116E-2,1.3391415E-2,3.735582E-2,-2.0909263E-2,-2.913395E-2,7.40702E-4,-2.2069078E-2,2.3456492E-2,-1.1137134E-2,-1.7762808E-2,1.2392E-2],"split_indices":[4,9,9,4,4,8,8,9,9,6,8,5,5,5,0,0,0,0,0,0,0,0,0,0,0,0,0,0,0,0,0],"split_type":[0,0,0,0,0,0,0,0,0,0,0,0,0,0,0,0,0,0,0,0,0,0,0,0,0,0,0,0,0,0,0],"sum_hessian":[1.8940101E3,1.1819479E3,7.120623E2,6.414281E2,5.405197E2,5.1539087E2,1.9667143E2,1.0232634E2,5.391018E2,1.506555E2,3.898642E2,3.5336444E2,1.6202644E2,9.052972E1,1.0614171E2,4.117008E1,6.1156258E1,2.1258902E2,3.2651276E2,8.227047E1,6.8385025E1,2.8448245E2,1.05381744E2,5.097593E1,3.0238852E2,3.9074913E1,1.2295153E2,7.0390615E0,8.3490654E1,1.1365717E1,9.477599E1],"tree_param":{"num_deleted":"0","num_feature":"10","num_nodes":"31","size_leaf_vector":"1"}},{"base_weights":[4.9319393E-3,6.572812E-2,-2.588424E-1,1.3850406E-1,-4.7914304E-2,1.2100761E-1,-3.395482E-1,-3.997026E-1,1.5900372E-1,-2.9966218E-4,-3.515748E-1,-1.394357E-1,5.242412E-1,1.0223197E-1,-3.717249E-1,-2.6010564E-2,3.1761687E-2,1.0721445E-2,1.986052E-3,-1.5957171E-2,9.29606E-4,-2.7508322E-2,-1.1805619E-2,-1.598312E-2,1.8102108E-2,3.6826946E-2,-3.5420925E-4,-1.3277881E-2,1.4930523E-2,-1.9759625E-2,1.3209417E-3],"categories":[],"categories_nodes":[],"categories_segments":[],"categories_sizes":[],"default_left":[0,0,0,0,0,0,0,0,0,0,0,0,0,0,0,0,0,0,0,0,0,0,0,0,0,0,0,0,0,0,0],"id":7,"left_children":[1,3,5,7,9,11,13,15,17,19,21,23,25,27,29,-1,-1,-1,-1,-1,-1,-1,-1,-1,-1,-1,-1,-1,-1,-1,-1],"loss_changes":[2.6320562E1,1.1037691E1,9.465967E0,9.037292E0,7.5392795E0,5.8083715E0,3.646164E0,4.0879197E0,5.1761894E0,2.7271433E0,1.490777E0,3.1859753E0,2.4463048E0,1.3805583E0,2.2230759E0,0E0,0E0,0E0,0E0,0E0,0E0,0E0,0E0,0E0,0E0,0E0,0E0,0E0,0E0,0E0,0E0],"parents":[2147483647,0,0,1,1,2,2,3,3,4,4,5,5,6,6,7,7,8,8,9,9,10,10,11,11,12,12,13,13,14,14],"right_children":[2,4,6,8,10,12,14,16,18,20,22,24,26,28,30,-1,-1,-1,-1,-1,-1,-1,-1,-1,-1,-1,-1,-1,-1,-1,-1],"split_conditions":[5.263158E-1,1.5E0,1.1388888E0,-1.5789474E0,1.9541667E0,1.39E2,1.3E1,1.56E2,1.6052631E0,1.5159575E0,1.2074468E0,1.08289E0,1.7E2,1.2554426E0,7.409131E-1,-2.6010564E-2,3.1761687E-2,1.0721445E-2,1.986052E-3,-1.5957171E-2,9.29606E-4,-2.7508322E-2,-1.1805619E-2,-1.598312E-2,1.8102108E-2,3.6826946E-2,-3.5420925E-4,-1.3277881E-2,1.4930523E-2,-1.9759625E-2,1.3209417E-3],"split_indices":[5,6,7,8,3,1,1,0,7,6,7,7,0,7,8,0,0,0,0,0,0,0,0,0,0,0,0,0,0,0,0],"split_type":[0,0,0,0,0,0,0,0,0,0,0,0,0,0,0,0,0,0,0,0,0,0,0,0,0,0,0,0,0,0,0],"sum_hessian":[1.6392328E3,1.3327938E3,3.0643893E2,8.123506E2,5.204433E2,5.3611515E1,2.5282742E2,2.9127478E1,7.8322314E2,4.5076355E2,6.967974E1,3.2970505E1,2.064101E1,1.7016516E1,2.3581091E2,2.6535065E1,2.5924115E0,5.3420496E2,2.4901816E2,2.4325169E1,4.2643835E2,2.423369E1,4.544605E1,2.4520582E1,8.449923E0,1.4472223E1,6.168786E0,5.8005733E0,1.1215942E1,2.2269228E2,1.3118632E1],"tree_param":{"num_deleted":"0","num_feature":"10","num_nodes":"31","size_leaf_vector":"1"}},{"base_weights":[-5.5297464E-3,-2.2907293E-1,3.532513E-1,-6.862771E-3,-4.0593484E-1,5.952883E-1,1.109785E-1,-3.6611474E-1,8.2665704E-2,-3.0661485E-1,-5.5837405E-1,3.314934E-1,7.445177E-1,-4.5899253E-2,4.0462336E-1,-2.1060383E-2,2.0332802E-2,2.0164503E-2,4.3263214E-4,-2.2955026E-2,-8.844424E-3,-3.3824407E-2,-2.2916077E-2,3.6229197E-2,1.15877045E-2,3.8028087E-2,-6.822487E-4,-1.4989371E-2,6.015021E-3,2.948894E-2,4.3997676E-3],"categories":[],"categories_nodes":[],"categories_segments":[],"categories_sizes":[],"default_left":[0,0,0,0,0,0,0,0,0,0,0,0,0,0,0,0,0,0,0,0,0,0,0,0,0,0,0,0,0,0,0],"id":8,"left_children":[1,3,5,7,9,11,13,15,17,19,21,23,25,27,29,-1,-1,-1,-1,-1,-1,-1,-1,-1,-1,-1,-1,-1,-1,-1,-1],"loss_changes":[1.7372365E2,5.244487E1,4.8692863E1,1.9085638E1,1.1079079E1,1.611876E1,1.9218197E1,5.211014E0,1.1270393E1,8.862846E0,3.139824E0,5.79183E0,3.2304382E0,1.1536674E1,8.462313E0,0E0,0E0,0E0,0E0,0E0,0E0,0E0,0E0,0E0,0E0,0E0,0E0,0E0,0E0,0E0,0E0],"parents":[2147483647,0,0,1,1,2,2,3,3,4,4,5,5,6,6,7,7,8,8,9,9,10,10,11,11,12,12,13,13,14,14],"right_children":[2,4,6,8,10,12,14,16,18,20,22,24,26,28,30,-1,-1,-1,-1,-1,-1,-1,-1,-1,-1,-1,-1,-1,-1,-1,-1],"split_conditions":[1.1170213E-1,3.2380953E-1,-1E-1,-6.7688173E-1,1.7810284E0,3.970588E-1,8.1440496E-1,2.3235295E0,-8.8235295E-1,-3.75E-1,1.0882353E0,1.8421052E-1,1.7217948E0,1.203125E0,7.352941E-1,-2.1060383E-2,2.0332802E-2,2.0164503E-2,4.3263214E-4,-2.2955026E-2,-8.844424E-3,-3.3824407E-2,-2.2916077E-2,3.6229197E-2,1.15877045E-2,3.8028087E-2,-6.822487E-4,-1.4989371E-2,6.015021E-3,2.948894E-2,4.3997676E-3],"split_indices":[4,9,8,4,6,4,4,7,8,4,7,9,6,7,8,0,0,0,0,0,0,0,0,0,0,0,0,0,0,0,0],"split_type":[0,0,0,0,0,0,0,0,0,0,0,0,0,0,0,0,0,0,0,0,0,0,0,0,0,0,0,0,0,0,0],"sum_hessian":[2.1640388E3,1.3335283E3,8.3051056E2,5.9145734E2,7.42071E2,4.147286E2,4.1578198E2,1.1737518E2,4.7408215E2,4.5114444E2,2.9092657E2,1.510091E2,2.6371948E2,2.7155127E2,1.442307E2,1.0998873E2,7.3864536E0,8.8078316E1,3.860038E2,2.0621356E2,2.4493086E2,1.3077852E2,1.6014806E2,2.9293478E1,1.2171562E2,2.5825125E2,5.468231E0,1.0711603E2,1.6443524E2,9.046598E1,5.3764725E1],"tree_param":{"num_deleted":"0","num_feature":"10","num_nodes":"31","size_leaf_vector":"1"}},{"base_weights":[-3.8715327E-5,-1.7030576E-1,3.9168012E-1,-2.672064E-1,2.7421245E-1,5.7848847E-1,3.1847514E-2,-1.0564147E-1,-4.3859679E-1,-1.507546E-1,4.2954066E-1,3.6222818E-1,7.400082E-1,-9.703861E-2,3.4542853E-1,-2.3636647E-2,-2.7567695E-3,-2.6061332E-2,-1.3595049E-2,2.2905482E-2,-1.3276082E-2,1.4565915E-2,4.414914E-2,1.2335287E-2,3.1178964E-2,4.5321483E-2,3.0051876E-2,-1.663523E-2,-2.2439907E-4,4.6940372E-4,3.432339E-2],"categories":[],"categories_nodes":[],"categories_segments":[],"categories_sizes":[],"default_left":[0,0,0,0,0,0,0,0,0,0,0,0,0,0,0,0,0,0,0,0,0,0,0,0,0,0,0,0,0,0,0],"id":9,"left_children":[1,3,5,7,9,11,13,15,17,19,21,23,25,27,29,-1,-1,-1,-1,-1,-1,-1,-1,-1,-1,-1,-1,-1,-1,-1,-1],"loss_changes":[1.27555E2,5.749253E1,3.8930412E1,3.0273872E1,1.5845871E1,1.3052803E1,8.079197E0,1.0448377E1,7.172394E0,4.645046E0,1.0732388E1,4.828041E0,4.481949E0,3.0927052E0,6.6641903E0,0E0,0E0,0E0,0E0,0E0,0E0,0E0,0E0,0E0,0E0,0E0,0E0,0E0,0E0,0E0,0E0],"parents":[2147483647,0,0,1,1,2,2,3,3,4,4,5,5,6,6,7,7,8,8,9,9,10,10,11,11,12,12,13,13,14,14],"right_children":[2,4,6,8,10,12,14,16,18,20,22,24,26,28,30,-1,-1,-1,-1,-1,-1,-1,-1,-1,-1,-1,-1,-1,-1,-1,-1],"split_conditions":[4.5652175E-1,1.7354167E0,1.5677613E0,1.3965893E0,2.5503355E-1,1.4505264E0,1.4458333E0,1.6666667E-1,-1.2167553E-1,6.9E1,2.125E0,6.785714E-1,1.1029412E0,1.0777777E0,8E-1,-2.3636647E-2,-2.7567695E-3,-2.6061332E-2,-1.3595049E-2,2.2905482E-2,-1.3276082E-2,1.4565915E-2,4.414914E-2,1.2335287E-2,3.1178964E-2,4.5321483E-2,3.0051876E-2,-1.663523E-2,-2.2439907E-4,4.6940372E-4,3.432339E-2],"split_indices":[9,3,2,2,9,3,3,9,8,1,3,9,2,3,8,0,0,0,0,0,0,0,0,0,0,0,0,0,0,0,0],"split_type":[0,0,0,0,0,0,0,0,0,0,0,0,0,0,0,0,0,0,0,0,0,0,0,0,0,0,0,0,0,0,0],"sum_hessian":[1.9104601E3,1.3320345E3,5.7842554E2,1.0939607E3,2.3807387E2,3.8035516E2,1.9807039E2,5.6395374E2,5.3000696E2,6.3733345E1,1.7434052E2,1.6400713E2,2.1634805E2,1.408639E2,5.7206467E1,6.719596E1,4.9675778E2,3.5293362E2,1.7707333E2,9.63356E0,5.4099785E1,1.3487051E2,3.9469997E1,1.1508236E2,4.892476E1,9.593756E1,1.204105E2,3.8989166E1,1.0187475E2,2.9331968E1,2.78745E1],"tree_param":{"num_deleted":"0","num_feature":"10","num_nodes":"31","size_leaf_vector":"1"}},{"base_weights":[-1.2008474E-2,4.7988907E-2,-2.5746986E-1,1.3537176E-1,-9.692517E-2,-4.1398332E-1,-9.5341116E-2,2.195667E-1,-3.645844E-2,-5.4536605E-1,-6.482672E-2,-4.287157E-1,2.9647252E-1,-1.4696912E-1,5.209171E-1,-2.141641E-4,1.2916057E-2,-1.7657753E-2,1.1737206E-4,-2.3750702E-3,-3.0037913E-2,2.9688515E-3,-8.452842E-3,-1.7971879E-2,-2.625787E-2,-1.671363E-2,3.2807864E-2,-1.02488985E-2,7.379742E-3,3.41849E-2,-1.9869236E-2],"categories":[],"categories_nodes":[],"categories_segments":[],"categories_sizes":[],"default_left":[0,0,0,0,0,0,0,0,0,0,0,0,0,0,0,0,0,0,0,0,0,0,0,0,0,0,0,0,0,0,0],"id":10,"left_children":[1,3,5,7,9,11,13,15,17,19,21,23,25,27,29,-1,-1,-1,-1,-1,-1,-1,-1,-1,-1,-1,-1,-1,-1,-1,-1],"loss_changes":[2.3701843E1,1.6392242E1,7.9818764E0,1.1687686E1,6.9767046E0,1.8074303E0,5.0579534E0,4.7028084E0,3.274164E0,8.6511326E-1,5.909922E0,8.647976E-1,1.0933712E0,2.5121028E0,2.1137347E0,0E0,0E0,0E0,0E0,0E0,0E0,0E0,0E0,0E0,0E0,0E0,0E0,0E0,0E0,0E0,0E0],"parents":[2147483647,0,0,1,1,2,2,3,3,4,4,5,5,6,6,7,7,8,8,9,9,10,10,11,11,12,12,13,13,14,14],"right_children":[2,4,6,8,10,12,14,16,18,20,22,24,26,28,30,-1,-1,-1,-1,-1,-1,-1,-1,-1,-1,-1,-1,-1,-1,-1,-1],"split_conditions":[5.1282054E-1,1.5E0,-9.8182626E-2,1.604762E0,1.5159575E0,1.617647E0,1.4642857E0,9.4414896E-1,7.0430106E-1,2.2E1,5.1282054E-1,6.9902915E-1,1.0349462E0,1.5E2,7.120419E-1,-2.141641E-4,1.2916057E-2,-1.7657753E-2,1.1737206E-4,-2.3750702E-3,-3.0037913E-2,2.9688515E-3,-8.452842E-3,-1.7971879E-2,-2.625787E-2,-1.671363E-2,3.2807864E-2,-1.02488985E-2,7.379742E-3,3.41849E-2,-1.9869236E-2],"split_indices":[5,6,8,7,6,6,8,6,6,1,9,5,3,1,5,0,0,0,0,0,0,0,0,0,0,0,0,0,0,0,0],"split_type":[0,0,0,0,0,0,0,0,0,0,0,0,0,0,0,0,0,0,0,0,0,0,0,0,0,0,0,0,0,0,0],"sum_hessian":[1.6075706E3,1.2924624E3,3.1510815E2,8.063195E2,4.861429E2,1.595402E2,1.5556796E2,5.409715E2,2.6534805E2,3.1404642E1,4.5473828E2,1.566876E2,2.8525949E0,1.4424512E2,1.1322848E1,7.996636E1,4.6100513E2,2.8080578E1,2.3726746E2,3.3302197E0,2.8074423E1,2.0768495E2,2.4705331E2,9.393626E1,6.2751354E1,1.0616066E0,1.7909881E0,1.2076654E2,2.3478575E1,9.834952E0,1.4878967E0],"tree_param":{"num_deleted":"0","num_feature":"10","num_nodes":"31","size_leaf_vector":"1"}},{"base_weights":[-3.4622033E-3,-2.0758034E-1,3.8728815E-1,-7.992381E-2,-4.6823686E-1,5.333792E-1,-4.874229E-2,-4.1884705E-1,6.544705E-3,-5.537305E-1,-2.900541E-1,3.93247E-1,7.1686417E-1,-4.9912652E-1,7.629892E-2,2.9334307E-2,-2.1882795E-2,1.6999446E-2,-2.247862E-3,-2.1175062E-2,-3.1038169E-2,-3.6374893E-2,-1.1856297E-2,3.9318997E-2,1.5321053E-2,3.772445E-2,1.0724107E-2,-3.224997E-2,2.6776714E-3,1.0925241E-2,-1.2133703E-2],"categories":[],"categories_nodes":[],"categories_segments":[],"categories_sizes":[],"default_left":[0,0,0,0,0,0,0,0,0,0,0,0,0,0,0,0,0,0,0,0,0,0,0,0,0,0,0,0,0,0,0],"id":11,"left_children":[1,3,5,7,9,11,13,15,17,19,21,23,25,27,29,-1,-1,-1,-1,-1,-1,-1,-1,-1,-1,-1,-1,-1,-1,-1,-1],"loss_changes":[1.7117412E2,4.6870243E1,4.6935417E1,2.7769882E1,6.896057E0,1.3903015E1,1.0497651E1,3.8995476E0,1.2995951E1,2.4601898E0,3.353652E0,1.0511585E1,4.330696E0,3.2990227E0,6.686281E0,0E0,0E0,0E0,0E0,0E0,0E0,0E0,0E0,0E0,0E0,0E0,0E0,0E0,0E0,0E0,0E0],"parents":[2147483647,0,0,1,1,2,2,3,3,4,4,5,5,6,6,7,7,8,8,9,9,10,10,11,11,12,12,13,13,14,14],"right_children":[2,4,6,8,10,12,14,16,18,20,22,24,26,28,30,-1,-1,-1,-1,-1,-1,-1,-1,-1,-1,-1,-1,-1,-1,-1,-1],"split_conditions":[4.25E-1,2.03125E-1,3.970588E-1,2.2580644E-1,-1.5E-1,8.1440496E-1,3.529412E-1,7.0430106E-1,-8.8235295E-1,1.7810284E0,7.848793E-1,-8.125E-1,1.7368422E0,1.2859043E0,1.1600177E0,2.9334307E-2,-2.1882795E-2,1.6999446E-2,-2.247862E-3,-2.1175062E-2,-3.1038169E-2,-3.6374893E-2,-1.1856297E-2,3.9318997E-2,1.5321053E-2,3.772445E-2,1.0724107E-2,-3.224997E-2,2.6776714E-3,1.0925241E-2,-1.2133703E-2],"split_indices":[5,8,8,5,4,4,4,6,8,6,7,8,6,7,8,0,0,0,0,0,0,0,0,0,0,0,0,0,0,0,0],"split_type":[0,0,0,0,0,0,0,0,0,0,0,0,0,0,0,0,0,0,0,0,0,0,0,0,0,0,0,0,0,0,0],"sum_hessian":[2.1441274E3,1.4087177E3,7.3540985E2,9.4648376E2,4.6223383E2,5.506818E2,1.8472803E2,1.9160847E2,7.548753E2,3.1093628E2,1.5129755E2,3.1400854E2,2.3667326E2,3.9491703E1,1.4523631E2,2.9639037E0,1.8864458E2,1.00245346E2,6.5462994E2,1.0814788E2,2.027884E2,1.4954635E1,1.3634291E2,5.5347534E1,2.58661E2,2.1971625E2,1.695702E1,3.111283E1,8.378872E0,1.0067011E2,4.4566208E1],"tree_param":{"num_deleted":"0","num_feature":"10","num_nodes":"31","size_leaf_vector":"1"}},{"base_weights":[4.8783797E-4,-1.1561459E-1,4.671918E-1,7.268912E-2,-4.0225965E-1,6.558469E-1,9.304003E-2,-3.247507E-2,3.147271E-1,-5.100185E-1,-2.4396457E-1,7.733801E-1,4.2921257E-1,-1.3710883E-1,2.3824514E-1,1.643813E-2,-5.1190495E-3,2.4133025E-2,4.1105035E-3,-1.5973117E-2,-2.659722E-2,-7.5004525E-3,-2.3191938E-2,4.8652664E-2,3.1921174E-2,-2.8668582E-2,2.3419064E-2,-1.8158972E-2,1.1929738E-3,2.1021601E-3,2.9735908E-2],"categories":[],"categories_nodes":[],"categories_segments":[],"categories_sizes":[],"default_left":[0,0,0,0,0,0,0,0,0,0,0,0,0,0,0,0,0,0,0,0,0,0,0,0,0,0,0,0,0,0,0],"id":12,"left_children":[1,3,5,7,9,11,13,15,17,19,21,23,25,27,29,-1,-1,-1,-1,-1,-1,-1,-1,-1,-1,-1,-1,-1,-1,-1,-1],"loss_changes":[1.02915245E2,8.212456E1,2.6646278E1,2.339669E1,1.0164207E1,6.3638535E0,4.3101215E0,1.6230692E1,1.0830498E1,1.3256226E0,5.016836E0,3.8056946E0,3.7278652E0,1.8336196E0,5.489538E0,0E0,0E0,0E0,0E0,0E0,0E0,0E0,0E0,0E0,0E0,0E0,0E0,0E0,0E0,0E0,0E0],"parents":[2147483647,0,0,1,1,2,2,3,3,4,4,5,5,6,6,7,7,8,8,9,9,10,10,11,11,12,12,13,13,14,14],"right_children":[2,4,6,8,10,12,14,16,18,20,22,24,26,28,30,-1,-1,-1,-1,-1,-1,-1,-1,-1,-1,-1,-1,-1,-1,-1,-1],"split_conditions":[1.8641775E0,3.8947368E-1,1.4583333E-1,1.4040337E0,-1.09707445E-1,1.1842105E0,8.7122446E-1,-8.181818E-1,1.07E2,1.1170213E-1,6E-1,-4.117647E-1,1.1441176E0,5.4E1,1.2859043E0,1.643813E-2,-5.1190495E-3,2.4133025E-2,4.1105035E-3,-1.5973117E-2,-2.659722E-2,-7.5004525E-3,-2.3191938E-2,4.8652664E-2,3.1921174E-2,-2.8668582E-2,2.3419064E-2,-1.8158972E-2,1.1929738E-3,2.1021601E-3,2.9735908E-2],"split_indices":[6,5,4,6,8,7,8,4,0,4,5,4,3,0,3,0,0,0,0,0,0,0,0,0,0,0,0,0,0,0,0],"split_type":[0,0,0,0,0,0,0,0,0,0,0,0,0,0,0,0,0,0,0,0,0,0,0,0,0,0,0,0,0,0,0],"sum_hessian":[1.8973176E3,1.5199503E3,3.7736734E2,9.177836E2,6.021667E2,2.503718E2,1.2699554E2,6.4039935E2,2.7738425E2,3.569513E2,2.452154E2,1.6328122E2,8.7090576E1,4.91496E1,7.784594E1,1.0323441E2,5.37165E2,1.6043538E2,1.1694885E2,3.8440197E1,3.185111E2,1.729805E2,7.223489E1,6.3346973E1,9.993425E1,2.7617106E0,8.4328865E1,1.9918713E1,2.923089E1,5.093137E1,2.6914568E1],"tree_param":{"num_deleted":"0","num_feature":"10","num_nodes":"31","size_leaf_vector":"1"}},{"base_weights":[2.64101E-3,6.293543E-2,-2.43117E-1,1.349382E-1,-5.8568418E-2,8.907626E-2,-3.2882985E-1,-2.9615256E-1,1.5282422E-1,-2.5303268E-1,-7.734112E-4,-7.315138E-2,4.718936E-1,-4.4208342E-1,-2.2236115E-1,1.0588428E-3,-2.5474181E-2,7.2092647E-3,2.9753322E-2,-1.7909486E-2,9.910956E-4,2.8928518E-3,-7.4319947E-3,2.2895887E-2,-1.2477619E-2,2.9270058E-2,-1.0119597E-2,-2.5992677E-2,-1.6402021E-2,-1.3858686E-2,1.3754946E-2],"categories":[],"categories_nodes":[],"categories_segments":[],"categories_sizes":[],"default_left":[0,0,0,0,0,0,0,0,0,0,0,0,0,0,0,0,0,0,0,0,0,0,0,0,0,0,0,0,0,0,0],"id":13,"left_children":[1,3,5,7,9,11,13,15,17,19,21,23,25,27,29,-1,-1,-1,-1,-1,-1,-1,-1,-1,-1,-1,-1,-1,-1,-1,-1],"loss_changes":[2.4012455E1,1.1391808E1,9.119482E0,6.3474245E0,5.449354E0,4.149877E0,2.9642715E0,2.2380853E0,2.9150028E0,3.1944604E0,3.2578266E0,4.555543E0,1.638319E0,9.120388E-1,3.7007895E0,0E0,0E0,0E0,0E0,0E0,0E0,0E0,0E0,0E0,0E0,0E0,0E0,0E0,0E0,0E0,0E0],"parents":[2147483647,0,0,1,1,2,2,3,3,4,4,5,5,6,6,7,7,8,8,9,9,10,10,11,11,12,12,13,13,14,14],"right_children":[2,4,6,8,10,12,14,16,18,20,22,24,26,28,30,-1,-1,-1,-1,-1,-1,-1,-1,-1,-1,-1,-1,-1,-1,-1,-1],"split_conditions":[5.5263156E-1,1.5E0,1.1578947E0,7.0430106E-1,-6E-1,1.39E2,1.2941177E0,2.264706E0,1.4852941E0,1.46875E0,1.5259309E0,7.409131E-1,1.0833334E0,1.0882353E0,1.882353E0,1.0588428E-3,-2.5474181E-2,7.2092647E-3,2.9753322E-2,-1.7909486E-2,9.910956E-4,2.8928518E-3,-7.4319947E-3,2.2895887E-2,-1.2477619E-2,2.9270058E-2,-1.0119597E-2,-2.5992677E-2,-1.6402021E-2,-1.3858686E-2,1.3754946E-2],"split_indices":[4,6,7,6,4,1,6,7,6,7,2,4,7,3,7,0,0,0,0,0,0,0,0,0,0,0,0,0,0,0,0],"split_type":[0,0,0,0,0,0,0,0,0,0,0,0,0,0,0,0,0,0,0,0,0,0,0,0,0,0,0,0,0,0,0],"sum_hessian":[1.6184778E3,1.300224E3,3.182538E2,8.163482E2,4.8387576E2,6.526605E1,2.5298775E2,3.1901339E1,7.8444684E2,1.1008659E2,3.7378918E2,4.640836E1,1.8857695E1,1.21060394E2,1.3192735E2,1.3186777E1,1.8714561E1,7.7071735E2,1.3729468E1,7.923645E1,3.0850145E1,2.6809552E2,1.05693665E2,1.1173567E1,3.5234795E1,1.6253448E1,2.604245E0,6.986112E1,5.1199272E1,1.1923255E2,1.2694799E1],"tree_param":{"num_deleted":"0","num_feature":"10","num_nodes":"31","size_leaf_vector":"1"}},{"base_weights":[-7.5616934E-3,-1.6898213E-1,4.2846617E-1,2.6459128E-2,-3.6953393E-1,5.440609E-1,-5.6422915E-2,-4.183416E-1,9.2920355E-2,-4.8129082E-1,-2.0040517E-1,4.0138334E-1,6.6049653E-1,-3.0279118E-1,1.4074299E-1,2.3562288E-2,-2.2908906E-2,2.3808336E-2,1.5700244E-3,-2.0929804E-2,-3.2468144E-2,1.8293327E-3,-1.613081E-2,3.635961E-2,1.6082834E-2,4.1502677E-2,2.959959E-2,2.6714658E-2,-1.9190736E-2,2.4988163E-2,3.245615E-3],"categories":[],"categories_nodes":[],"categories_segments":[],"categories_sizes":[],"default_left":[0,0,0,0,0,0,0,0,0,0,0,0,0,0,0,0,0,0,0,0,0,0,0,0,0,0,0,0,0,0,0],"id":14,"left_children":[1,3,5,7,9,11,13,15,17,19,21,23,25,27,29,-1,-1,-1,-1,-1,-1,-1,-1,-1,-1,-1,-1,-1,-1,-1,-1],"loss_changes":[1.5252641E2,6.199952E1,3.2848877E1,2.3744722E1,1.4658394E1,7.590927E0,5.5616684E0,3.916523E0,1.645325E1,4.673538E0,9.057055E0,5.3521156E0,2.5151978E0,3.6521635E0,1.7043288E0,0E0,0E0,0E0,0E0,0E0,0E0,0E0,0E0,0E0,0E0,0E0,0E0,0E0,0E0,0E0,0E0],"parents":[2147483647,0,0,1,1,2,2,3,3,4,4,5,5,6,6,7,7,8,8,9,9,10,10,11,11,12,12,13,13,14,14],"right_children":[2,4,6,8,10,12,14,16,18,20,22,24,26,28,30,-1,-1,-1,-1,-1,-1,-1,-1,-1,-1,-1,-1,-1,-1,-1,-1],"split_conditions":[3.6031452E-1,-1.0526316E-1,5.176471E-1,-8.181818E-1,-1.5789473E-1,8.1440496E-1,8.1440496E-1,7.0430106E-1,-9.5238096E-1,8.306277E-1,2.03125E-1,-6.9503546E-1,-4.473684E-1,3.7645137E-1,7.352941E-1,2.3562288E-2,-2.2908906E-2,2.3808336E-2,1.5700244E-3,-2.0929804E-2,-3.2468144E-2,1.8293327E-3,-1.613081E-2,3.635961E-2,1.6082834E-2,4.1502677E-2,2.959959E-2,2.6714658E-2,-1.9190736E-2,2.4988163E-2,3.245615E-3],"split_indices":[4,8,9,4,4,4,4,6,8,8,8,8,8,4,8,0,0,0,0,0,0,0,0,0,0,0,0,0,0,0,0],"split_type":[0,0,0,0,0,0,0,0,0,0,0,0,0,0,0,0,0,0,0,0,0,0,0,0,0,0,0,0,0,0,0],"sum_hessian":[2.165038E3,1.5805283E3,5.8450977E2,8.0090265E2,7.7962573E2,4.7189154E2,1.1261821E2,1.0342466E2,6.97478E2,4.683222E2,3.1130353E2,2.1404855E2,2.57843E2,4.9824448E1,6.2793762E1,3.968768E0,9.9455894E1,9.554257E1,6.019354E2,3.4363065E2,1.2469154E2,1.0615271E2,2.0515082E2,4.0484516E1,1.7356404E2,7.0998055E1,1.8684494E2,3.9033365E0,4.5921112E1,9.975284E0,5.2818478E1],"tree_param":{"num_deleted":"0","num_feature":"10","num_nodes":"31","size_leaf_vector":"1"}},{"base_weights":[-1.0105053E-2,-1.6783398E-1,3.706935E-1,2.1911778E-1,-2.978091E-1,5.56229E-1,5.896404E-3,-5.476009E-1,2.837837E-1,-1.4692472E-1,-4.5577455E-1,3.977005E-1,7.4598557E-1,-1.3428447E-1,2.4547736E-1,-3.0456904E-2,-2.4363592E-3,9.520448E-3,3.3982992E-2,-1.4120497E-2,2.043678E-3,-2.8850866E-2,-1.8762557E-2,3.819379E-2,1.3082484E-2,2.5184035E-2,4.1883983E-2,-4.809124E-3,-2.0256368E-2,7.0202725E-5,3.0294096E-2],"categories":[],"categories_nodes":[],"categories_segments":[],"categories_sizes":[],"default_left":[0,0,0,0,0,0,0,0,0,0,0,0,0,0,0,0,0,0,0,0,0,0,0,0,0,0,0,0,0,0,0],"id":15,"left_children":[1,3,5,7,9,11,13,15,17,19,21,23,25,27,29,-1,-1,-1,-1,-1,-1,-1,-1,-1,-1,-1,-1,-1,-1,-1,-1],"loss_changes":[1.1400323E2,6.756478E1,3.7623665E1,1.6915134E1,2.3888298E1,1.0788391E1,6.361439E0,7.879524E-1,1.141827E1,1.3128645E1,4.57251E0,9.908817E0,3.279274E0,1.1944773E0,6.148771E0,0E0,0E0,0E0,0E0,0E0,0E0,0E0,0E0,0E0,0E0,0E0,0E0,0E0,0E0,0E0,0E0],"parents":[2147483647,0,0,1,1,2,2,3,3,4,4,5,5,6,6,7,7,8,8,9,9,10,10,11,11,12,12,13,13,14,14],"right_children":[2,4,6,8,10,12,14,16,18,20,22,24,26,28,30,-1,-1,-1,-1,-1,-1,-1,-1,-1,-1,-1,-1,-1,-1,-1,-1],"split_conditions":[4.6875E-1,2.5925925E-1,1.6563861E-1,1.6666667E-1,1.1170213E-1,6.1627907E-1,6.262626E-1,1.0625E0,2.125E0,3.1782946E-1,2.736842E-1,-6.4705884E-1,1.4208999E0,1.4523809E0,1.2727273E0,-3.0456904E-2,-2.4363592E-3,9.520448E-3,3.3982992E-2,-1.4120497E-2,2.043678E-3,-2.8850866E-2,-1.8762557E-2,3.819379E-2,1.3082484E-2,2.5184035E-2,4.1883983E-2,-4.809124E-3,-2.0256368E-2,7.0202725E-5,3.0294096E-2],"split_indices":[9,5,4,9,4,9,9,6,3,9,9,4,3,3,3,0,0,0,0,0,0,0,0,0,0,0,0,0,0,0,0],"split_type":[0,0,0,0,0,0,0,0,0,0,0,0,0,0,0,0,0,0,0,0,0,0,0,0,0,0,0,0,0,0,0],"sum_hessian":[1.8960267E3,1.3410963E3,5.549305E2,3.3703027E2,1.00406604E3,3.67497E2,1.8743346E2,2.5633667E1,3.113966E2,5.1453046E2,4.8953558E2,2.0191049E2,1.655865E2,1.1852372E2,6.8909744E1,2.2622149E1,3.0115182E0,2.5316412E2,5.823247E1,2.986027E2,2.1592775E2,1.9290935E2,2.9662625E2,5.3446568E1,1.4846393E2,4.72417E1,1.183448E2,1.0509426E2,1.3429464E1,4.168423E1,2.7225512E1],"tree_param":{"num_deleted":"0","num_feature":"10","num_nodes":"31","size_leaf_vector":"1"}},{"base_weights":[-4.9286326E-3,4.2177826E-2,-2.585238E-1,1.1032002E-1,-6.746561E-2,-2.8785738E-1,4.81856E-1,1.742165E-1,-2.1277381E-2,-3.1210613E-1,-2.2245465E-2,-4.1751102E-1,-2.0570827E-1,6.360064E-1,-1.8391734E-2,1.2303016E-2,2.5755265E-3,-1.608085E-2,7.6642237E-4,-2.00357E-2,-9.4316696E-4,1.6541831E-3,-8.657235E-3,2.181016E-2,-2.1775892E-2,9.203554E-3,-1.1828721E-2,3.8536683E-2,-4.1654726E-4],"categories":[],"categories_nodes":[],"categories_segments":[],"categories_sizes":[],"default_left":[0,0,0,0,0,0,0,0,0,0,0,0,0,0,0,0,0,0,0,0,0,0,0,0,0,0,0,0,0],"id":16,"left_children":[1,3,5,7,9,11,13,15,17,19,21,23,25,27,-1,-1,-1,-1,-1,-1,-1,-1,-1,-1,-1,-1,-1,-1,-1],"loss_changes":[1.9305119E1,1.0190628E1,5.6367817E0,7.074875E0,5.7790823E0,2.514389E0,1.546596E0,4.978695E0,3.036582E0,2.1105757E0,3.7002473E0,1.6306763E0,1.8652463E0,7.746215E-1,0E0,0E0,0E0,0E0,0E0,0E0,0E0,0E0,0E0,0E0,0E0,0E0,0E0,0E0,0E0],"parents":[2147483647,0,0,1,1,2,2,3,3,4,4,5,5,6,6,7,7,8,8,9,9,10,10,11,11,12,12,13,13],"right_children":[2,4,6,8,10,12,14,16,18,20,22,24,26,28,-1,-1,-1,-1,-1,-1,-1,-1,-1,-1,-1,-1,-1,-1,-1],"split_conditions":[5.5789477E-1,1.5E0,7.263158E-1,1.6052631E0,-7.8571427E-1,1.1875E0,1.2894737E0,3.4285715E-1,7.0430106E-1,1.15E2,6.262626E-1,1.0612245E0,2.736842E-1,2.3003104E0,-1.8391734E-2,1.2303016E-2,2.5755265E-3,-1.608085E-2,7.6642237E-4,-2.00357E-2,-9.4316696E-4,1.6541831E-3,-8.657235E-3,2.181016E-2,-2.1775892E-2,9.203554E-3,-1.1828721E-2,3.8536683E-2,-4.1654726E-4],"split_indices":[5,6,9,7,4,6,3,5,6,1,9,7,9,2,0,0,0,0,0,0,0,0,0,0,0,0,0,0,0],"split_type":[0,0,0,0,0,0,0,0,0,0,0,0,0,0,0,0,0,0,0,0,0,0,0,0,0,0,0,0,0],"sum_hessian":[1.6141234E3,1.3619657E3,2.5215767E2,8.399438E2,5.22022E2,2.4313591E2,9.021753E0,5.651931E2,2.7475064E2,8.0518074E1,4.415039E2,9.271851E1,1.5041739E2,7.849234E0,1.1725188E0,3.5584317E2,2.0934998E2,2.9003103E1,2.4574754E2,6.155253E1,1.8965548E1,3.2362384E2,1.1788006E2,1.4355142E0,9.1283005E1,1.0673119E1,1.3974428E2,6.329589E0,1.5196456E0],"tree_param":{"num_deleted":"0","num_feature":"10","num_nodes":"29","size_leaf_vector":"1"}},{"base_weights":[1.2638376E-2,-1.896173E-1,3.258037E-1,9.828592E-3,-3.5916308E-1,5.4017556E-1,1.1534243E-1,-2.7684546E-1,1.1262739E-1,-2.5868756E-1,-5.093469E-1,3.7024668E-1,6.682068E-1,-2.1934036E-2,3.5708022E-1,-1.6741311E-2,2.0339679E-2,2.2322543E-2,1.7570185E-3,-1.4500632E-2,1.5025976E-2,-3.512536E-2,-2.2275705E-2,1.2311368E-2,3.0711988E-2,3.4215283E-2,-1.5686719E-2,-1.40549345E-2,7.772442E-3,2.5255045E-2,4.531404E-3],"categories":[],"categories_nodes":[],"categories_segments":[],"categories_sizes":[],"default_left":[0,0,0,0,0,0,0,0,0,0,0,0,0,0,0,0,0,0,0,0,0,0,0,0,0,0,0,0,0,0,0],"id":17,"left_children":[1,3,5,7,9,11,13,15,17,19,21,23,25,27,29,-1,-1,-1,-1,-1,-1,-1,-1,-1,-1,-1,-1,-1,-1,-1,-1],"loss_changes":[1.3580579E2,4.4057064E1,3.7896698E1,1.770055E1,1.0494415E1,8.814697E0,1.4138531E1,6.42054E0,1.1418375E1,7.5136604E0,3.1547241E0,5.332514E0,3.950264E0,1.2572321E1,6.0393314E0,0E0,0E0,0E0,0E0,0E0,0E0,0E0,0E0,0E0,0E0,0E0,0E0,0E0,0E0,0E0,0E0],"parents":[2147483647,0,0,1,1,2,2,3,3,4,4,5,5,6,6,7,7,8,8,9,9,10,10,11,11,12,12,13,13,14,14],"right_children":[2,4,6,8,10,12,14,16,18,20,22,24,26,28,30,-1,-1,-1,-1,-1,-1,-1,-1,-1,-1,-1,-1,-1,-1,-1,-1],"split_conditions":[1.1170213E-1,3.263158E-1,-1.08333334E-1,-5.3846157E-1,1.7810284E0,5.185185E-1,8.1440496E-1,2.125E0,-8.8235295E-1,1.5259309E0,1E0,1.7870125E0,1.7217948E0,1.203125E0,7.352941E-1,-1.6741311E-2,2.0339679E-2,2.2322543E-2,1.7570185E-3,-1.4500632E-2,1.5025976E-2,-3.512536E-2,-2.2275705E-2,1.2311368E-2,3.0711988E-2,3.4215283E-2,-1.5686719E-2,-1.40549345E-2,7.772442E-3,2.5255045E-2,4.531404E-3],"split_indices":[4,9,8,4,6,4,4,7,8,2,2,7,6,7,8,0,0,0,0,0,0,0,0,0,0,0,0,0,0,0,0],"split_type":[0,0,0,0,0,0,0,0,0,0,0,0,0,0,0,0,0,0,0,0,0,0,0,0,0,0,0,0,0,0,0],"sum_hessian":[2.142119E3,1.3017726E3,8.403464E2,5.985766E2,7.03196E2,4.155294E2,4.2481702E2,1.5754347E2,4.410331E2,4.2295462E2,2.802414E2,1.8022218E2,2.353072E2,2.71531E2,1.5328598E2,1.4569685E2,1.1846609E1,8.218943E1,3.588437E2,4.009746E2,2.1980001E1,6.712213E1,2.1311925E2,1.2081981E2,5.9402378E1,2.318098E2,3.4973948E0,1.1009394E2,1.6143707E2,9.796716E1,5.531882E1],"tree_param":{"num_deleted":"0","num_feature":"10","num_nodes":"31","size_leaf_vector":"1"}},{"base_weights":[-1.018627E-2,1.6043992E-1,-3.0155963E-1,6.3802544E-3,5.2616364E-1,-3.9497444E-1,1.1343482E-1,3.6338574E-1,-6.673823E-2,6.501294E-1,3.471269E-1,-4.949236E-1,-2.8014073E-1,2.738261E-1,-1.9810131E-1,-1.2521775E-4,2.553601E-2,-1.8511059E-2,-1.1556969E-5,3.4387976E-2,1.1036689E-2,7.632371E-3,2.8271964E-2,-3.0403981E-2,-2.2616355E-2,-9.570709E-3,-2.1577021E-2,2.0672074E-4,2.1149052E-2,-2.1694943E-2,-3.0292715E-3],"categories":[],"categories_nodes":[],"categories_segments":[],"categories_sizes":[],"default_left":[0,0,0,0,0,0,0,0,0,0,0,0,0,0,0,0,0,0,0,0,0,0,0,0,0,0,0,0,0,0,0],"id":18,"left_children":[1,3,5,7,9,11,13,15,17,19,21,23,25,27,29,-1,-1,-1,-1,-1,-1,-1,-1,-1,-1,-1,-1,-1,-1,-1,-1],"loss_changes":[9.478262E1,6.774482E1,2.7340096E1,2.2135216E1,7.683853E0,6.4603195E0,6.5573606E0,7.772007E0,1.4207185E1,3.2321625E0,6.1951294E0,1.2003174E0,3.54241E0,3.4711137E0,1.4267936E0,0E0,0E0,0E0,0E0,0E0,0E0,0E0,0E0,0E0,0E0,0E0,0E0,0E0,0E0,0E0,0E0],"parents":[2147483647,0,0,1,1,2,2,3,3,4,4,5,5,6,6,7,7,8,8,9,9,10,10,11,11,12,12,13,13,14,14],"right_children":[2,4,6,8,10,12,14,16,18,20,22,24,26,28,30,-1,-1,-1,-1,-1,-1,-1,-1,-1,-1,-1,-1,-1,-1,-1,-1],"split_conditions":[1.1170213E-1,4.6875E-1,5.483871E-1,-8.181818E-1,-2.9545453E-1,3.3684212E-1,6E-1,2.5503355E-1,2.2105263E-1,3.2352942E-1,6.2393165E-1,2.1052632E-1,8.1440496E-1,6.262626E-1,9.347826E-1,-1.2521775E-4,2.553601E-2,-1.8511059E-2,-1.1556969E-5,3.4387976E-2,1.1036689E-2,7.632371E-3,2.8271964E-2,-3.0403981E-2,-2.2616355E-2,-9.570709E-3,-2.1577021E-2,2.0672074E-4,2.1149052E-2,-2.1694943E-2,-3.0292715E-3],"split_indices":[4,9,9,4,4,9,5,9,9,5,9,9,4,9,3,0,0,0,0,0,0,0,0,0,0,0,0,0,0,0,0],"split_type":[0,0,0,0,0,0,0,0,0,0,0,0,0,0,0,0,0,0,0,0,0,0,0,0,0,0,0,0,0,0,0],"sum_hessian":[1.9045109E3,1.2014182E3,7.0309265E2,8.460433E2,3.553749E2,5.739462E2,1.2914645E2,1.4314742E2,7.028958E2,2.084276E2,1.4694733E2,3.0509082E2,2.6885538E2,8.533409E1,4.381236E1,4.1376385E1,1.01771034E2,1.2552728E2,5.773685E2,1.9108054E2,1.7347061E1,7.861438E1,6.833294E1,7.980819E1,2.2528265E2,1.7094106E2,9.791433E1,3.0754204E1,5.457989E1,1.5345047E1,2.8467312E1],"tree_param":{"num_deleted":"0","num_feature":"10","num_nodes":"31","size_leaf_vector":"1"}},{"base_weights":[-8.597092E-3,4.4579774E-2,-2.21439E-1,6.774409E-2,-2.261465E-1,-2.4997139E-1,5.263587E-1,-1.664703E-1,9.2132315E-2,6.646589E-2,-2.7285233E-1,-3.5054922E-1,-1.4417762E-1,6.870415E-1,-1.9484134E-2,-2.4372814E-2,-5.3022318E-3,-1.143675E-2,5.621513E-3,-1.3406316E-2,2.9066158E-2,-1.8381601E-2,-4.231896E-3,-1.0748968E-2,-2.6062671E-2,-1.0801281E-2,1.0763152E-2,2.20971E-2,5.777932E-2],"categories":[],"categories_nodes":[],"categories_segments":[],"categories_sizes":[],"default_left":[0,0,0,0,0,0,0,0,0,0,0,0,0,0,0,0,0,0,0,0,0,0,0,0,0,0,0,0,0],"id":19,"left_children":[1,3,5,7,9,11,13,15,17,19,21,23,25,27,-1,-1,-1,-1,-1,-1,-1,-1,-1,-1,-1,-1,-1,-1,-1],"loss_changes":[1.827113E1,8.116077E0,7.016659E0,6.816685E0,1.4127545E0,3.2640743E0,2.0607967E0,2.1332083E0,7.053501E0,2.7140737E0,1.5421829E0,3.567402E0,4.011082E0,7.210512E-1,0E0,0E0,0E0,0E0,0E0,0E0,0E0,0E0,0E0,0E0,0E0,0E0,0E0,0E0,0E0],"parents":[2147483647,0,0,1,1,2,2,3,3,4,4,5,5,6,6,7,7,8,8,9,9,10,10,11,11,12,12,13,13],"right_children":[2,4,6,8,10,12,14,16,18,20,22,24,26,28,-1,-1,-1,-1,-1,-1,-1,-1,-1,-1,-1,-1,-1,-1,-1],"split_conditions":[1.7916666E0,6.5217394E-1,1.4642857E0,9.350508E-1,9.4414896E-1,-9.8182626E-2,2.487234E0,-1.6470588E0,-1.0789474E0,-3.75E-1,3.75E-1,6.785714E-1,1.5E2,7.8723407E-1,-1.9484134E-2,-2.4372814E-2,-5.3022318E-3,-1.143675E-2,5.621513E-3,-1.3406316E-2,2.9066158E-2,-1.8381601E-2,-4.231896E-3,-1.0748968E-2,-2.6062671E-2,-1.0801281E-2,1.0763152E-2,2.20971E-2,5.777932E-2],"split_indices":[2,9,8,6,2,8,2,8,4,4,5,5,1,9,0,0,0,0,0,0,0,0,0,0,0,0,0,0,0],"split_type":[0,0,0,0,0,0,0,0,0,0,0,0,0,0,0,0,0,0,0,0,0,0,0,0,0,0,0,0,0],"sum_hessian":[1.6124327E3,1.2907417E3,3.21691E2,1.1896967E3,1.01044975E2,3.105092E2,1.1181825E1,1.1164818E2,1.0780485E3,1.3850217E1,8.719476E1,1.579926E2,1.5251659E2,9.725809E0,1.4560153E0,1.656841E1,9.5079765E1,6.352854E1,1.01451996E3,8.685173E0,5.165044E0,5.7357708E1,2.9837053E1,8.9317665E1,6.8674934E1,1.2744151E2,2.5075079E1,7.6613293E0,2.0644803E0],"tree_param":{"num_deleted":"0","num_feature":"10","num_nodes":"29","size_leaf_vector":"1"}},{"base_weights":[1.3632038E-2,-1.7652722E-1,3.1455463E-1,9.852739E-3,-3.5531375E-1,4.9166793E-1,8.170044E-2,-3.9778647E-1,8.132311E-2,-2.9617316E-1,-5.84898E-1,2.8815144E-1,6.3678545E-1,-3.0292332E-2,3.4122342E-1,1.159035E-2,-2.2793528E-2,2.6191482E-2,1.5682102E-3,-2.1353105E-2,-9.606951E-3,-2.992875E-2,-1.1278425E-2,9.922846E-3,2.7054299E-2,4.145587E-2,2.8591633E-2,-1.3012479E-2,7.825187E-3,2.7192285E-2,3.6111984E-3],"categories":[],"categories_nodes":[],"categories_segments":[],"categories_sizes":[],"default_left":[0,0,0,0,0,0,0,0,0,0,0,0,0,0,0,0,0,0,0,0,0,0,0,0,0,0,0,0,0,0,0],"id":20,"left_children":[1,3,5,7,9,11,13,15,17,19,21,23,25,27,29,-1,-1,-1,-1,-1,-1,-1,-1,-1,-1,-1,-1,-1,-1,-1,-1],"loss_changes":[1.231238E2,4.393942E1,3.4320374E1,1.8868223E1,8.964523E0,1.3786484E1,1.0506657E1,3.638773E0,1.2162594E1,7.2325172E0,5.37426E-1,4.4009E0,2.9650574E0,1.09165745E1,5.8988237E0,0E0,0E0,0E0,0E0,0E0,0E0,0E0,0E0,0E0,0E0,0E0,0E0,0E0,0E0,0E0,0E0],"parents":[2147483647,0,0,1,1,2,2,3,3,4,4,5,5,6,6,7,7,8,8,9,9,10,10,11,11,12,12,13,13,14,14],"right_children":[2,4,6,8,10,12,14,16,18,20,22,24,26,28,30,-1,-1,-1,-1,-1,-1,-1,-1,-1,-1,-1,-1,-1,-1,-1,-1],"split_conditions":[1.1170213E-1,-1.2167553E-1,-2.9411765E-2,-8.181818E-1,1.0666667E0,5.151515E-1,8.7122446E-1,8.684211E-1,1.25E-1,1.1077127E0,1.6666666E0,1.8202571E0,-6.9503546E-1,1.203125E0,7.352941E-1,1.159035E-2,-2.2793528E-2,2.6191482E-2,1.5682102E-3,-2.1353105E-2,-9.606951E-3,-2.992875E-2,-1.1278425E-2,9.922846E-3,2.7054299E-2,4.145587E-2,2.8591633E-2,-1.3012479E-2,7.825187E-3,2.7192285E-2,3.6111984E-3],"split_indices":[4,8,8,4,8,4,4,6,9,2,2,7,8,7,8,0,0,0,0,0,0,0,0,0,0,0,0,0,0,0,0],"split_type":[0,0,0,0,0,0,0,0,0,0,0,0,0,0,0,0,0,0,0,0,0,0,0,0,0,0,0,0,0,0,0],"sum_hessian":[2.1496702E3,1.3175171E3,8.3215314E2,6.455227E2,6.7199445E2,4.7201675E2,3.6013638E2,9.561367E1,5.49909E2,5.361682E2,1.358262E2,1.9771786E2,2.7429892E2,2.5219092E2,1.0794546E2,7.8233004E0,8.7790375E1,5.4824116E1,4.950849E2,2.360635E2,3.0010474E2,1.3020448E2,5.6217074E0,1.4727608E2,5.0441784E1,6.627796E1,2.0802095E2,1.1286009E2,1.3933084E2,6.0986214E1,4.6959248E1],"tree_param":{"num_deleted":"0","num_feature":"10","num_nodes":"31","size_leaf_vector":"1"}},{"base_weights":[-7.6151185E-4,-1.7375238E-1,2.739312E-1,-1.1413168E-2,-4.2408243E-1,4.4523215E-1,-7.078447E-2,4.8544756E-1,-7.083701E-2,-4.813008E-1,-2.2144216E-1,3.2767135E-1,6.6938084E-1,-1.8634786E-1,2.0230195E-1,-4.524999E-3,3.5643917E-2,-1.1300683E-2,2.5442804E-3,-2.9815754E-2,-2.2093242E-2,-4.6687084E-3,-2.6259933E-2,2.3524147E-2,7.337895E-3,4.0232968E-2,2.805242E-2,4.1831797E-4,-1.2669578E-2,1.6859783E-2,-8.325594E-3],"categories":[],"categories_nodes":[],"categories_segments":[],"categories_sizes":[],"default_left":[0,0,0,0,0,0,0,0,0,0,0,0,0,0,0,0,0,0,0,0,0,0,0,0,0,0,0,0,0,0,0],"id":21,"left_children":[1,3,5,7,9,11,13,15,17,19,21,23,25,27,29,-1,-1,-1,-1,-1,-1,-1,-1,-1,-1,-1,-1,-1,-1,-1,-1],"loss_changes":[8.921291E1,4.6808414E1,4.2869682E1,2.0696606E1,5.1474E0,1.2554726E1,7.6651545E0,9.873329E0,1.1834364E1,1.3353729E0,3.9044394E0,8.197247E0,1.9786148E0,2.2258692E0,3.6553633E0,0E0,0E0,0E0,0E0,0E0,0E0,0E0,0E0,0E0,0E0,0E0,0E0,0E0,0E0,0E0,0E0],"parents":[2147483647,0,0,1,1,2,2,3,3,4,4,5,5,6,6,7,7,8,8,9,9,10,10,11,11,12,12,13,13,14,14],"right_children":[2,4,6,8,10,12,14,16,18,20,22,24,26,28,30,-1,-1,-1,-1,-1,-1,-1,-1,-1,-1,-1,-1,-1,-1,-1,-1],"split_conditions":[4.057971E-1,-2.1008404E-3,1.8421052E-1,-9.705882E-1,-1E-1,6.1627907E-1,6.262626E-1,2.5503355E-1,2.736842E-1,2.1052632E-1,8.1440496E-1,-3.107765E-1,-3.7083334E-1,3.6031452E-1,1.4642857E0,-4.524999E-3,3.5643917E-2,-1.1300683E-2,2.5442804E-3,-2.9815754E-2,-2.2093242E-2,-4.6687084E-3,-2.6259933E-2,2.3524147E-2,7.337895E-3,4.0232968E-2,2.805242E-2,4.1831797E-4,-1.2669578E-2,1.6859783E-2,-8.325594E-3],"split_indices":[9,4,4,4,8,9,9,9,9,9,4,4,4,4,8,0,0,0,0,0,0,0,0,0,0,0,0,0,0,0,0],"split_type":[0,0,0,0,0,0,0,0,0,0,0,0,0,0,0,0,0,0,0,0,0,0,0,0,0,0,0,0,0,0,0],"sum_hessian":[1.875401E3,1.1509467E3,7.244543E2,6.9881213E2,4.5213452E2,4.8376395E2,2.4069038E2,7.3883194E1,6.2492896E2,3.5150653E2,1.0062799E2,3.1894598E2,1.6481795E2,1.6934529E2,7.134509E1,2.1086258E1,5.2796936E1,2.7433694E2,3.50592E2,8.614499E1,2.6536154E2,7.170398E1,2.892401E1,1.7734822E2,1.4159776E2,7.043526E1,9.43827E1,4.359835E1,1.2574693E2,5.230153E1,1.9043564E1],"tree_param":{"num_deleted":"0","num_feature":"10","num_nodes":"31","size_leaf_vector":"1"}},{"base_weights":[3.8636385E-3,5.616796E-2,-1.8339066E-1,1.2754253E-1,-6.5459765E-2,1.4809817E-1,-2.7616856E-1,1.9056843E-1,-1.15674585E-2,-2.5580245E-1,-6.2622334E-4,5.6969948E-2,8.417241E-1,-4.1058227E-1,-2.006256E-1,3.872911E-2,8.998301E-3,-1.7184995E-2,1.3557773E-3,-1.7998103E-2,-2.3553832E-3,3.801501E-3,-7.758595E-3,-1.0440729E-2,7.957662E-3,-1.7111119E-2,5.2490324E-2,3.1097196E-3,-2.2400832E-2,-1.7578876E-2,-6.0119545E-3],"categories":[],"categories_nodes":[],"categories_segments":[],"categories_sizes":[],"default_left":[0,0,0,0,0,0,0,0,0,0,0,0,0,0,0,0,0,0,0,0,0,0,0,0,0,0,0,0,0,0,0],"id":22,"left_children":[1,3,5,7,9,11,13,15,17,19,21,23,25,27,29,-1,-1,-1,-1,-1,-1,-1,-1,-1,-1,-1,-1,-1,-1,-1,-1],"loss_changes":[1.5769659E1,1.093355E1,1.0852705E1,6.958638E0,5.751412E0,4.852433E0,2.7101917E0,3.242012E0,3.1998901E0,2.557065E0,4.1422863E0,1.9233937E0,2.559266E0,1.7622395E0,2.1179514E0,0E0,0E0,0E0,0E0,0E0,0E0,0E0,0E0,0E0,0E0,0E0,0E0,0E0,0E0,0E0,0E0],"parents":[2147483647,0,0,1,1,2,2,3,3,4,4,5,5,6,6,7,7,8,8,9,9,10,10,11,11,12,12,13,13,14,14],"right_children":[2,4,6,8,10,12,14,16,18,20,22,24,26,28,30,-1,-1,-1,-1,-1,-1,-1,-1,-1,-1,-1,-1,-1,-1,-1,-1],"split_conditions":[4.7179487E-1,1.5E0,1.1999452E0,1.6196809E0,-5.5263156E-1,1.7E2,1.0777777E0,9.622642E-1,7.0430106E-1,1.15E2,0E0,1.4814814E0,7.701684E-1,1.7E1,3.8E1,3.872911E-2,8.998301E-3,-1.7184995E-2,1.3557773E-3,-1.7998103E-2,-2.3553832E-3,3.801501E-3,-7.758595E-3,-1.0440729E-2,7.957662E-3,-1.7111119E-2,5.2490324E-2,3.1097196E-3,-2.2400832E-2,-1.7578876E-2,-6.0119545E-3],"split_indices":[4,6,7,7,4,1,3,7,6,1,4,6,3,1,0,0,0,0,0,0,0,0,0,0,0,0,0,0,0,0,0],"split_type":[0,0,0,0,0,0,0,0,0,0,0,0,0,0,0,0,0,0,0,0,0,0,0,0,0,0,0,0,0,0,0],"sum_hessian":[1.6080487E3,1.2575006E3,3.5054807E2,7.9243115E2,4.6506946E2,7.652684E1,2.740212E2,5.4509674E2,2.473344E2,1.1741349E2,3.4765594E2,6.859676E1,7.9300747E0,9.6997795E1,1.7702342E2,8.434632E0,5.366621E2,2.4979057E1,2.2235533E2,7.7839134E1,3.9574356E1,2.3272835E2,1.14927605E2,1.8759283E1,4.9837482E1,1.0890355E0,6.841039E0,7.068229E0,8.9929565E1,6.034063E1,1.16682785E2],"tree_param":{"num_deleted":"0","num_feature":"10","num_nodes":"31","size_leaf_vector":"1"}},{"base_weights":[1.8783566E-2,-1.9746219E-1,3.0195373E-1,-2.0600779E-2,-3.5185158E-1,3.9838532E-1,-1.554109E-1,-2.667014E-1,9.84588E-2,-4.3267703E-1,-1.7821291E-1,2.4082717E-1,5.636076E-1,-2.7657688E-1,6.752888E-2,-1.8312953E-2,-6.3704485E-3,2.7509576E-2,2.2121465E-3,-3.0328935E-2,-1.928266E-2,-5.0732744E-4,-1.4770378E-2,1.8977536E-2,4.9520223E-3,3.206922E-2,2.0672819E-2,-4.48621E-3,-2.399305E-2,-2.8262435E-2,4.979284E-3],"categories":[],"categories_nodes":[],"categories_segments":[],"categories_sizes":[],"default_left":[0,0,0,0,0,0,0,0,0,0,0,0,0,0,0,0,0,0,0,0,0,0,0,0,0,0,0,0,0,0,0],"id":23,"left_children":[1,3,5,7,9,11,13,15,17,19,21,23,25,27,29,-1,-1,-1,-1,-1,-1,-1,-1,-1,-1,-1,-1,-1,-1,-1,-1],"loss_changes":[1.3117216E2,3.3159363E1,4.0969284E1,1.6645155E1,9.023697E0,1.9812317E1,4.4008274E0,2.5216084E0,9.35541E0,3.3788223E0,4.087401E0,7.711796E0,4.0943146E0,3.956647E0,1.2313156E0,0E0,0E0,0E0,0E0,0E0,0E0,0E0,0E0,0E0,0E0,0E0,0E0,0E0,0E0,0E0,0E0],"parents":[2147483647,0,0,1,1,2,2,3,3,4,4,5,5,6,6,7,7,8,8,9,9,10,10,11,11,12,12,13,13,14,14],"right_children":[2,4,6,8,10,12,14,16,18,20,22,24,26,28,30,-1,-1,-1,-1,-1,-1,-1,-1,-1,-1,-1,-1,-1,-1,-1,-1],"split_conditions":[3.8235295E-1,3.3333334E-1,5.913621E-1,2.3684211E-1,-2.4090375E-1,5.1282054E-1,8.1440496E-1,2.0689656E-1,1.1764706E-1,1.6666667E-1,2.03125E-1,-1.9532472E-1,-7.247341E-2,1.1587481E0,7.701684E-1,-1.8312953E-2,-6.3704485E-3,2.7509576E-2,2.2121465E-3,-3.0328935E-2,-1.928266E-2,-5.0732744E-4,-1.4770378E-2,1.8977536E-2,4.9520223E-3,3.206922E-2,2.0672819E-2,-4.48621E-3,-2.399305E-2,-2.8262435E-2,4.979284E-3],"split_indices":[5,9,8,5,4,5,4,5,9,5,8,8,8,8,7,0,0,0,0,0,0,0,0,0,0,0,0,0,0,0,0],"split_type":[0,0,0,0,0,0,0,0,0,0,0,0,0,0,0,0,0,0,0,0,0,0,0,0,0,0,0,0,0,0,0],"sum_hessian":[2.1401602E3,1.2136482E3,9.26512E2,5.661855E2,6.474627E2,7.6528656E2,1.6122546E2,1.8419905E2,3.8198645E2,4.4079114E2,2.0667157E2,3.9298672E2,3.7229987E2,1.0429913E2,5.692633E1,1.06470825E2,7.7728226E1,3.9952187E1,3.4203424E2,9.128934E1,3.495018E2,8.535391E1,1.2131766E2,1.9779147E2,1.9519525E2,2.4310318E2,1.2919667E2,5.5096996E1,4.9202137E1,1.9428651E0,5.4983463E1],"tree_param":{"num_deleted":"0","num_feature":"10","num_nodes":"31","size_leaf_vector":"1"}},{"base_weights":[-9.338051E-3,2.7865E-1,-1.6521642E-1,1.3350104E-1,5.870164E-1,-2.964291E-1,1.2556705E-1,4.01424E-1,3.6004618E-2,4.761247E-1,7.3719645E-1,-1.822892E-1,-4.5208964E-1,2.7470192E-1,-1.2295965E-1,-3.8108856E-3,2.7402094E-2,-2.436459E-2,3.659275E-3,3.641976E-2,1.9228332E-2,3.3423375E-2,5.149891E-2,-2.2876933E-2,-3.39808E-3,-2.7135795E-2,-1.895145E-2,6.804486E-3,2.5199866E-2,-1.6790649E-2,2.3166733E-4],"categories":[],"categories_nodes":[],"categories_segments":[],"categories_sizes":[],"default_left":[0,0,0,0,0,0,0,0,0,0,0,0,0,0,0,0,0,0,0,0,0,0,0,0,0,0,0,0,0,0,0],"id":24,"left_children":[1,3,5,7,9,11,13,15,17,19,21,23,25,27,29,-1,-1,-1,-1,-1,-1,-1,-1,-1,-1,-1,-1,-1,-1,-1,-1],"loss_changes":[8.454181E1,2.9524494E1,4.6656498E1,1.1766343E1,3.1693192E0,1.4881691E1,1.414101E1,8.46166E0,6.490751E0,2.5936775E0,1.0815239E0,1.5313068E1,2.1490326E0,7.5016594E0,3.8970196E0,0E0,0E0,0E0,0E0,0E0,0E0,0E0,0E0,0E0,0E0,0E0,0E0,0E0,0E0,0E0,0E0],"parents":[2147483647,0,0,1,1,2,2,3,3,4,4,5,5,6,6,7,7,8,8,9,9,10,10,11,11,12,12,13,13,14,14],"right_children":[2,4,6,8,10,12,14,16,18,20,22,24,26,28,30,-1,-1,-1,-1,-1,-1,-1,-1,-1,-1,-1,-1,-1,-1,-1,-1],"split_conditions":[-3.107765E-1,4.6666667E-1,4.5652175E-1,-8.9166665E-1,6.1627907E-1,4.4210526E-1,3.529412E-1,2.5503355E-1,1.3636364E-1,5.1E1,2.0789473E0,2.5503355E-1,1.0882353E0,1.1479592E0,5.913621E-1,-3.8108856E-3,2.7402094E-2,-2.436459E-2,3.659275E-3,3.641976E-2,1.9228332E-2,3.3423375E-2,5.149891E-2,-2.2876933E-2,-3.39808E-3,-2.7135795E-2,-1.895145E-2,6.804486E-3,2.5199866E-2,-1.6790649E-2,2.3166733E-4],"split_indices":[4,9,9,4,9,5,4,9,9,0,3,9,3,8,8,0,0,0,0,0,0,0,0,0,0,0,0,0,0,0,0],"split_type":[0,0,0,0,0,0,0,0,0,0,0,0,0,0,0,0,0,0,0,0,0,0,0,0,0,0,0,0,0,0,0],"sum_hessian":[1.8812386E3,6.6038257E2,1.2208561E3,4.4999945E2,2.103831E2,8.412378E2,3.7961826E2,1.1923124E2,3.3076822E2,1.2342067E2,8.696243E1,4.8660217E2,3.5463562E2,2.3718434E2,1.4243391E2,2.8116238E1,9.1115005E1,2.1139376E1,3.0962885E2,3.1013477E1,9.240719E1,7.3088455E1,1.38739805E1,1.419202E2,3.4468198E2,1.5542023E2,1.992154E2,1.4881633E2,8.8368004E1,5.2769997E1,8.966392E1],"tree_param":{"num_deleted":"0","num_feature":"10","num_nodes":"31","size_leaf_vector":"1"}},{"base_weights":[9.420437E-4,5.242935E-2,-2.1379006E-1,9.140801E-2,-1.1481653E-1,-3.5291287E-1,-7.247123E-2,-3.0166864E-1,1.03446044E-1,7.740618E-2,-2.1846166E-1,-2.8086206E-1,-4.7210693E-1,-1.5861261E-1,3.0327624E-1,-2.0489737E-2,3.938106E-2,2.5393188E-3,8.601282E-3,5.826981E-3,-2.6917381E-2,-7.5855623E-3,-2.344921E-2,-1.6541455E-2,2.817651E-3,-2.6363522E-2,-6.7271315E-3,2.936758E-3,-9.941164E-3,2.8106336E-2,1.6527114E-3],"categories":[],"categories_nodes":[],"categories_segments":[],"categories_sizes":[],"default_left":[0,0,0,0,0,0,0,0,0,0,0,0,0,0,0,0,0,0,0,0,0,0,0,0,0,0,0,0,0,0,0],"id":25,"left_children":[1,3,5,7,9,11,13,15,17,19,21,23,25,27,29,-1,-1,-1,-1,-1,-1,-1,-1,-1,-1,-1,-1,-1,-1,-1,-1],"loss_changes":[1.7939644E1,8.542506E0,6.1443014E0,5.056306E0,4.954179E0,1.2232761E0,5.127807E0,4.0695896E0,3.7151632E0,2.1724231E0,2.6256332E0,1.7182245E0,1.0093126E0,1.133215E0,2.0527065E0,0E0,0E0,0E0,0E0,0E0,0E0,0E0,0E0,0E0,0E0,0E0,0E0,0E0,0E0,0E0,0E0],"parents":[2147483647,0,0,1,1,2,2,3,3,4,4,5,5,6,6,7,7,8,8,9,9,10,10,11,11,12,12,13,13,14,14],"right_children":[2,4,6,8,10,12,14,16,18,20,22,24,26,28,30,-1,-1,-1,-1,-1,-1,-1,-1,-1,-1,-1,-1,-1,-1,-1,-1],"split_conditions":[5.185185E-1,5.588235E-1,-9.8182626E-2,-1.2368422E0,1.421123E0,6.9902915E-1,1.5E2,1.56E2,1.31E2,1.435062E0,1.9411764E0,-1.9565217E-1,1.79E2,1.4E1,2.1625E0,-2.0489737E-2,3.938106E-2,2.5393188E-3,8.601282E-3,5.826981E-3,-2.6917381E-2,-7.5855623E-3,-2.344921E-2,-1.6541455E-2,2.817651E-3,-2.6363522E-2,-6.7271315E-3,2.936758E-3,-9.941164E-3,2.8106336E-2,1.6527114E-3],"split_indices":[4,8,8,8,3,5,1,0,0,7,3,8,0,1,2,0,0,0,0,0,0,0,0,0,0,0,0,0,0,0,0],"split_type":[0,0,0,0,0,0,0,0,0,0,0,0,0,0,0,0,0,0,0,0,0,0,0,0,0,0,0,0,0,0,0],"sum_hessian":[1.6206056E3,1.3077872E3,3.128183E2,1.0609691E3,2.4681815E2,1.5687944E2,1.5593887E2,3.08119E1,1.0301572E3,8.655128E1,1.6026688E2,9.986754E1,5.7011894E1,1.2732668E2,2.8612194E1,2.8597067E1,2.2148323E0,5.8369806E2,4.464591E2,8.214161E1,4.409666E0,1.2781643E2,3.2450443E1,8.699583E1,1.2871715E1,4.8520817E1,8.4910755E0,1.9806643E1,1.07520035E2,1.4061854E1,1.4550341E1],"tree_param":{"num_deleted":"0","num_feature":"10","num_nodes":"31","size_leaf_vector":"1"}},{"base_weights":[-3.7764742E-3,-1.3653588E-1,3.5400683E-1,-2.2544943E-2,-3.7947083E-1,4.4610888E-1,-1.0027379E-1,-1.9979216E-1,1.08462505E-1,-4.589463E-1,-2.5070438E-1,3.028796E-1,5.74064E-1,-1.0266301E-2,-3.779972E-1,3.2445796E-2,-1.1327791E-2,2.0882897E-2,2.592595E-3,-1.8972354E-2,-2.9173492E-2,-1.3565773E-2,1.7963966E-2,3.1765293E-2,1.1407145E-2,3.277692E-2,1.9294523E-2,1.7194422E-3,-3.3137552E-2,-2.325101E-2,1.4118276E-2],"categories":[],"categories_nodes":[],"categories_segments":[],"categories_sizes":[],"default_left":[0,0,0,0,0,0,0,0,0,0,0,0,0,0,0,0,0,0,0,0,0,0,0,0,0,0,0,0,0,0,0],"id":26,"left_children":[1,3,5,7,9,11,13,15,17,19,21,23,25,27,29,-1,-1,-1,-1,-1,-1,-1,-1,-1,-1,-1,-1,-1,-1,-1,-1],"loss_changes":[1.0080695E2,4.2856445E1,2.407669E1,2.4510492E1,4.943367E0,8.581604E0,2.436774E0,1.0335815E1,1.06040325E1,2.7923965E0,2.4969072E0,5.507965E0,3.5983582E0,2.2012615E0,1.5030484E0,0E0,0E0,0E0,0E0,0E0,0E0,0E0,0E0,0E0,0E0,0E0,0E0,0E0,0E0,0E0,0E0],"parents":[2147483647,0,0,1,1,2,2,3,3,4,4,5,5,6,6,7,7,8,8,9,9,10,10,11,11,12,12,13,13,14,14],"right_children":[2,4,6,8,10,12,14,16,18,20,22,24,26,28,30,-1,-1,-1,-1,-1,-1,-1,-1,-1,-1,-1,-1,-1,-1,-1,-1],"split_conditions":[3.6031452E-1,2.03125E-1,7.409131E-1,-3.107765E-1,-1.5E-1,8.1440496E-1,1.39E2,-1.625E0,-8.181818E-1,8.306277E-1,1.8235294E0,-6.9503546E-1,-5.882353E-2,1.435062E0,1.2894737E0,3.2445796E-2,-1.1327791E-2,2.0882897E-2,2.592595E-3,-1.8972354E-2,-2.9173492E-2,-1.3565773E-2,1.7963966E-2,3.1765293E-2,1.1407145E-2,3.277692E-2,1.9294523E-2,1.7194422E-3,-3.3137552E-2,-2.325101E-2,1.4118276E-2],"split_indices":[4,8,8,4,4,4,0,8,8,8,3,8,8,3,3,0,0,0,0,0,0,0,0,0,0,0,0,0,0,0,0],"split_type":[0,0,0,0,0,0,0,0,0,0,0,0,0,0,0,0,0,0,0,0,0,0,0,0,0,0,0,0,0,0,0],"sum_hessian":[2.120274E3,1.5468987E3,5.733753E2,1.0536115E3,4.932872E2,4.7673816E2,9.663718E1,4.4755905E2,6.060524E2,3.0343872E2,1.898485E2,2.2653195E2,2.502062E2,7.3766975E1,2.2870201E1,1.2971474E1,4.345876E2,9.280313E1,5.132493E2,1.8767139E2,1.1576733E2,1.8418033E2,5.668166E0,4.020424E1,1.8632771E2,1.7287296E2,7.733325E1,6.992846E1,3.8385108E0,2.0468643E1,2.4015589E0],"tree_param":{"num_deleted":"0","num_feature":"10","num_nodes":"31","size_leaf_vector":"1"}},{"base_weights":[-2.9326936E-3,-1.6852732E-1,2.5113133E-1,6.479004E-2,-3.2767612E-1,4.180354E-1,-5.2454438E-2,3.7090182E-1,-2.036573E-2,-4.822021E-1,-2.4968082E-1,6.0016376E-1,3.184437E-1,-2.11102E-1,1.5704972E-1,-1.9744625E-3,2.8035665E-2,-1.35060875E-2,1.966559E-3,-3.0854804E-2,-2.1781897E-2,-5.3997E-3,-2.0744158E-2,3.155109E-2,5.886253E-3,1.1719817E-2,3.197108E-2,-2.0675734E-2,-5.067164E-3,3.0814253E-3,3.3609174E-2],"categories":[],"categories_nodes":[],"categories_segments":[],"categories_sizes":[],"default_left":[0,0,0,0,0,0,0,0,0,0,0,0,0,0,0,0,0,0,0,0,0,0,0,0,0,0,0,0,0,0,0],"id":27,"left_children":[1,3,5,7,9,11,13,15,17,19,21,23,25,27,29,-1,-1,-1,-1,-1,-1,-1,-1,-1,-1,-1,-1,-1,-1,-1,-1],"loss_changes":[8.008015E1,4.280992E1,3.8079105E1,1.2210062E1,8.138039E0,8.60154E0,8.918549E0,7.962448E0,5.485215E0,1.168129E0,1.0662636E1,2.4600296E0,8.361902E0,3.3473887E0,5.649443E0,0E0,0E0,0E0,0E0,0E0,0E0,0E0,0E0,0E0,0E0,0E0,0E0,0E0,0E0,0E0,0E0],"parents":[2147483647,0,0,1,1,2,2,3,3,4,4,5,5,6,6,7,7,8,8,9,9,10,10,11,11,12,12,13,13,14,14],"right_children":[2,4,6,8,10,12,14,16,18,20,22,24,26,28,30,-1,-1,-1,-1,-1,-1,-1,-1,-1,-1,-1,-1,-1,-1,-1,-1],"split_conditions":[4.057971E-1,-2.7105495E-1,4.057971E-1,-8.9166665E-1,2.5E-1,2.5E-1,7.8457445E-1,2.5503355E-1,2.1052632E-1,1.3636364E-1,4.4210526E-1,-3.75E-1,1.2846289E0,1.1304348E0,1.435062E0,-1.9744625E-3,2.8035665E-2,-1.35060875E-2,1.966559E-3,-3.0854804E-2,-2.1781897E-2,-5.3997E-3,-2.0744158E-2,3.155109E-2,5.886253E-3,1.1719817E-2,3.197108E-2,-2.0675734E-2,-5.067164E-3,3.0814253E-3,3.3609174E-2],"split_indices":[9,4,5,4,9,5,8,9,9,9,5,4,8,3,3,0,0,0,0,0,0,0,0,0,0,0,0,0,0,0,0],"split_type":[0,0,0,0,0,0,0,0,0,0,0,0,0,0,0,0,0,0,0,0,0,0,0,0,0,0,0,0,0,0,0],"sum_hessian":[1.9014178E3,1.1513344E3,7.500835E2,4.6711758E2,6.8421674E2,4.8375165E2,2.6633185E2,1.0093352E2,3.6618408E2,2.2777048E2,4.5644626E2,1.6923567E2,3.1451596E2,1.5155717E2,1.1477467E2,3.217024E1,6.876328E1,6.996098E1,2.9622308E2,5.5304314E1,1.7246617E2,2.4660103E2,2.0984525E2,1.587722E2,1.0463461E1,2.5062155E2,6.3894424E1,5.231409E1,9.924309E1,9.778165E1,1.6993027E1],"tree_param":{"num_deleted":"0","num_feature":"10","num_nodes":"31","size_leaf_vector":"1"}},{"base_weights":[-3.0685486E-3,5.2092582E-2,-1.4634664E-1,7.3573016E-2,-1.904398E-1,-1.7056614E-1,4.1874436E-1,1.1791359E-1,-4.6351433E-2,-7.840322E-2,-4.6704128E-1,-1.4861013E-1,-5.403349E-1,5.512674E-1,-2.174279E-2,2.1156105E-3,1.054947E-2,-1.0163545E-2,7.336924E-4,1.8659167E-2,-6.921137E-3,-3.0194744E-2,-7.8129275E-3,-1.3336874E-2,-3.0291006E-3,-1.1118217E-2,-2.8646851E-2,3.3256654E-2,-1.9304147E-2],"categories":[],"categories_nodes":[],"categories_segments":[],"categories_sizes":[],"default_left":[0,0,0,0,0,0,0,0,0,0,0,0,0,0,0,0,0,0,0,0,0,0,0,0,0,0,0,0,0],"id":28,"left_children":[1,3,5,7,9,11,13,15,17,19,21,23,25,27,-1,-1,-1,-1,-1,-1,-1,-1,-1,-1,-1,-1,-1,-1,-1],"loss_changes":[1.2784889E1,6.099064E0,6.2255707E0,5.714954E0,2.917009E0,3.4260674E0,2.362968E0,5.5089693E0,2.7852912E0,1.9228151E0,1.0656638E0,4.2374887E0,1.1961126E-1,2.0379562E0,0E0,0E0,0E0,0E0,0E0,0E0,0E0,0E0,0E0,0E0,0E0,0E0,0E0,0E0,0E0],"parents":[2147483647,0,0,1,1,2,2,3,3,4,4,5,5,6,6,7,7,8,8,9,9,10,10,11,11,12,12,13,13],"right_children":[2,4,6,8,10,12,14,16,18,20,22,24,26,28,-1,-1,-1,-1,-1,-1,-1,-1,-1,-1,-1,-1,-1,-1,-1],"split_conditions":[1.6666666E0,6.5217394E-1,1.4642857E0,1.6E0,1.6315789E0,6.5217394E-1,1.6E0,9.8E1,1.0588236E0,9.4414896E-1,1.71E2,1.2941177E0,5E0,2.487234E0,-2.174279E-2,2.1156105E-3,1.054947E-2,-1.0163545E-2,7.336924E-4,1.8659167E-2,-6.921137E-3,-3.0194744E-2,-7.8129275E-3,-1.3336874E-2,-3.0291006E-3,-1.1118217E-2,-2.8646851E-2,3.3256654E-2,-1.9304147E-2],"split_indices":[2,9,8,7,3,9,3,1,2,2,0,6,0,2,0,0,0,0,0,0,0,0,0,0,0,0,0,0,0],"split_type":[0,0,0,0,0,0,0,0,0,0,0,0,0,0,0,0,0,0,0,0,0,0,0,0,0,0,0,0,0],"sum_hessian":[1.6156835E3,1.1670234E3,4.4866E2,1.0727129E3,9.4310616E1,4.308904E2,1.7769575E1,7.831643E2,2.895485E2,6.803621E1,2.6274406E1,4.080625E2,2.282791E1,1.5688146E1,2.0814292E0,4.3295148E2,3.5021283E2,8.0421906E1,2.0912659E2,7.3696094E0,6.06666E1,1.7586866E1,8.68754E0,1.733753E2,2.3468721E2,2.8502073E0,1.9977703E1,1.424779E1,1.4403548E0],"tree_param":{"num_deleted":"0","num_feature":"10","num_nodes":"29","size_leaf_vector":"1"}},{"base_weights":[-9.613207E-3,-1.3816278E-1,3.470219E-1,1.38829965E-2,-2.9542914E-1,4.3387857E-1,-1.0947225E-1,-3.936397E-1,8.004304E-2,-4.3768546E-1,-1.7819619E-1,3.6547783E-1,6.180671E-1,-1.6173397E-1,4.1741234E-1,2.7869849E-2,-2.124626E-2,2.2534957E-2,1.8667905E-3,-1.7360248E-2,-2.7841462E-2,-5.2667134E-3,-2.3141487E-2,3.267217E-2,1.5123752E-2,3.3933327E-2,1.9171214E-2,-1.5549454E-2,-8.7652757E-4,3.2608554E-2,-5.238719E-3],"categories":[],"categories_nodes":[],"categories_segments":[],"categories_sizes":[],"default_left":[0,0,0,0,0,0,0,0,0,0,0,0,0,0,0,0,0,0,0,0,0,0,0,0,0,0,0,0,0,0,0],"id":29,"left_children":[1,3,5,7,9,11,13,15,17,19,21,23,25,27,29,-1,-1,-1,-1,-1,-1,-1,-1,-1,-1,-1,-1,-1,-1,-1,-1],"loss_changes":[9.75307E1,3.73944E1,2.2396301E1,2.1492838E1,1.2741547E1,5.742798E0,2.5705624E0,3.5498161E0,1.083674E1,3.5430222E0,8.725801E0,6.11438E0,1.5434303E0,1.7899897E0,1.1081386E0,0E0,0E0,0E0,0E0,0E0,0E0,0E0,0E0,0E0,0E0,0E0,0E0,0E0,0E0,0E0,0E0],"parents":[2147483647,0,0,1,1,2,2,3,3,4,4,5,5,6,6,7,7,8,8,9,9,10,10,11,11,12,12,13,13,14,14],"right_children":[2,4,6,8,10,12,14,16,18,20,22,24,26,28,30,-1,-1,-1,-1,-1,-1,-1,-1,-1,-1,-1,-1,-1,-1,-1,-1],"split_conditions":[3.6031452E-1,-1.0526316E-1,1.9714285E0,2.0689656E-1,2.9473683E-1,6.9902915E-1,1.435062E0,7.0430106E-1,1.3636364E-1,1.7810284E0,1.1479592E0,-6.9503546E-1,3.904762E-1,8.306277E-1,1.1304082E0,2.7869849E-2,-2.124626E-2,2.2534957E-2,1.8667905E-3,-1.7360248E-2,-2.7841462E-2,-5.2667134E-3,-2.3141487E-2,3.267217E-2,1.5123752E-2,3.3933327E-2,1.9171214E-2,-1.5549454E-2,-8.7652757E-4,3.2608554E-2,-5.238719E-3],"split_indices":[4,8,6,5,5,5,7,6,9,6,8,8,9,4,3,0,0,0,0,0,0,0,0,0,0,0,0,0,0,0,0],"split_type":[0,0,0,0,0,0,0,0,0,0,0,0,0,0,0,0,0,0,0,0,0,0,0,0,0,0,0,0,0,0,0],"sum_hessian":[2.1253416E3,1.562683E3,5.6265845E2,7.949926E2,7.676904E2,4.7275702E2,8.9901436E1,1.10346565E2,6.8464606E2,3.455949E2,4.220955E2,3.4691135E2,1.2584568E2,8.24193E1,7.482139E0,2.9787903E0,1.07367775E2,6.9748184E1,6.148979E2,1.986498E2,1.469451E2,3.3715814E2,8.493737E1,6.0592186E1,2.8631915E2,9.85115E1,2.7334187E1,3.9931908E1,4.2487392E1,4.989909E0,2.4922297E0],"tree_param":{"num_deleted":"0","num_feature":"10","num_nodes":"31","size_leaf_vector":"1"}},{"base_weights":[4.373153E-5,2.882412E-1,-1.3887611E-1,1.695498E-1,5.3492934E-1,-3.4384003E-1,2.5288673E-2,4.0276277E-1,6.914526E-2,6.517708E-1,3.5123882E-1,-2.279967E-1,-4.6348283E-1,1.5085904E-1,-1.9012082E-1,-2.071168E-2,2.2880387E-2,5.939301E-3,-1.2764211E-2,4.7384176E-2,2.8756803E-2,-7.0809447E-3,2.2300906E-2,-1.8767606E-2,-5.684649E-3,-2.5667766E-2,-1.9275093E-2,3.6916893E-3,2.0155875E-2,-1.5419557E-2,7.2849E-4],"categories":[],"categories_nodes":[],"categories_segments":[],"categories_sizes":[],"default_left":[0,0,0,0,0,0,0,0,0,0,0,0,0,0,0,0,0,0,0,0,0,0,0,0,0,0,0,0,0,0,0],"id":30,"left_children":[1,3,5,7,9,11,13,15,17,19,21,23,25,27,29,-1,-1,-1,-1,-1,-1,-1,-1,-1,-1,-1,-1,-1,-1,-1,-1],"loss_changes":[7.590394E1,1.7964176E1,4.3052467E1,9.754915E0,4.0602875E0,7.780472E0,1.926729E1,5.814266E0,4.753235E0,2.198452E0,3.7938824E0,4.859646E0,8.869209E-1,8.711519E0,6.356147E0,0E0,0E0,0E0,0E0,0E0,0E0,0E0,0E0,0E0,0E0,0E0,0E0,0E0,0E0,0E0,0E0],"parents":[2147483647,0,0,1,1,2,2,3,3,4,4,5,5,6,6,7,7,8,8,9,9,10,10,11,11,12,12,13,13,14,14],"right_children":[2,4,6,8,10,12,14,16,18,20,22,24,26,28,30,-1,-1,-1,-1,-1,-1,-1,-1,-1,-1,-1,-1,-1,-1,-1,-1],"split_conditions":[-3.543956E-1,4.6666667E-1,3.3684212E-1,-8.9166665E-1,1.1029412E0,1.1875E-1,3.529412E-1,1.8032786E-1,2.9473683E-1,-1.2354839E0,1.5585107E0,2.5E-1,2.736842E-1,6.2393165E-1,5.913621E-1,-2.071168E-2,2.2880387E-2,5.939301E-3,-1.2764211E-2,4.7384176E-2,2.8756803E-2,-7.0809447E-3,2.2300906E-2,-1.8767606E-2,-5.684649E-3,-2.5667766E-2,-1.9275093E-2,3.6916893E-3,2.0155875E-2,-1.5419557E-2,7.2849E-4],"split_indices":[4,9,9,4,2,4,4,9,5,4,3,9,9,9,8,0,0,0,0,0,0,0,0,0,0,0,0,0,0,0,0],"split_type":[0,0,0,0,0,0,0,0,0,0,0,0,0,0,0,0,0,0,0,0,0,0,0,0,0,0,0,0,0,0,0],"sum_hessian":[1.8938759E3,6.1563324E2,1.2782426E3,4.1678757E2,1.9884566E2,5.679936E2,7.10249E2,1.24528854E2,2.9225873E2,1.1998052E2,7.8865135E1,2.9005518E2,2.7793842E2,4.4887967E2,2.6136932E2,7.4215226E0,1.1710734E2,2.5402446E2,3.823427E1,2.2342443E1,9.763808E1,1.2640358E1,6.622478E1,1.2571064E2,1.6434454E2,1.6611623E2,1.1182218E2,3.448691E2,1.0401055E2,1.6533315E2,9.603619E1],"tree_param":{"num_deleted":"0","num_feature":"10","num_nodes":"31","size_leaf_vector":"1"}},{"base_weights":[9.7026415E-3,3.7270498E-2,-2.662991E-1,9.401297E-2,-5.573737E-2,-3.6023253E-1,-5.487166E-2,-3.3188596E-1,1.1078384E-1,-2.4669102E-1,-8.026496E-3,-2.1717204E-1,-5.096798E-1,-1.6964665E-1,2.7513564E-1,-2.1962963E-2,-4.0315045E-3,6.720496E-3,-6.1480734E-3,-1.8151073E-2,-9.404334E-4,-1.810024E-2,8.533678E-4,-1.64794E-2,1.3172157E-2,-6.1579695E-4,-2.7235532E-2,1.3954865E-2,-1.2764784E-2,4.8921453E-3,2.7982676E-2],"categories":[],"categories_nodes":[],"categories_segments":[],"categories_sizes":[],"default_left":[0,0,0,0,0,0,0,0,0,0,0,0,0,0,0,0,0,0,0,0,0,0,0,0,0,0,0,0,0,0,0],"id":31,"left_children":[1,3,5,7,9,11,13,15,17,19,21,23,25,27,29,-1,-1,-1,-1,-1,-1,-1,-1,-1,-1,-1,-1,-1,-1,-1,-1],"loss_changes":[1.2384476E1,7.8134885E0,2.915866E0,6.60299E0,5.111277E0,2.0736132E0,1.8136151E0,9.109311E-1,4.9051094E0,2.9665866E0,4.004105E0,3.0011783E0,8.509426E-1,1.4253215E0,5.717085E-1,0E0,0E0,0E0,0E0,0E0,0E0,0E0,0E0,0E0,0E0,0E0,0E0,0E0,0E0,0E0,0E0],"parents":[2147483647,0,0,1,1,2,2,3,3,4,4,5,5,6,6,7,7,8,8,9,9,10,10,11,11,12,12,13,13,14,14],"right_children":[2,4,6,8,10,12,14,16,18,20,22,24,26,28,30,-1,-1,-1,-1,-1,-1,-1,-1,-1,-1,-1,-1,-1,-1,-1,-1],"split_conditions":[2.0862145E0,1.5E0,1.7368422E0,7.0430106E-1,-6E-1,3E-1,1.5E2,1.02E2,5.5263156E-1,1.15E2,1.5159575E0,1.3166667E0,2.3E1,1.7810284E0,2.1625E0,-2.1962963E-2,-4.0315045E-3,6.720496E-3,-6.1480734E-3,-1.8151073E-2,-9.404334E-4,-1.810024E-2,8.533678E-4,-1.64794E-2,1.3172157E-2,-6.1579695E-4,-2.7235532E-2,1.3954865E-2,-1.2764784E-2,4.8921453E-3,2.7982676E-2],"split_indices":[2,6,6,6,4,9,1,0,4,1,6,6,1,6,6,0,0,0,0,0,0,0,0,0,0,0,0,0,0,0,0],"split_type":[0,0,0,0,0,0,0,0,0,0,0,0,0,0,0,0,0,0,0,0,0,0,0,0,0,0,0,0,0,0,0],"sum_hessian":[1.6253523E3,1.4785367E3,1.4681557E2,9.1829205E2,5.602447E2,1.01165665E2,4.5649906E1,3.4078312E1,8.8421375E2,1.111635E2,4.490812E2,5.2940647E1,4.8225018E1,3.4230595E1,1.1419311E1,2.3351065E1,1.0727249E1,8.0343097E2,8.0782776E1,7.3201996E1,3.7961502E1,2.8839539E1,4.2024167E2,4.3159798E1,9.780849E0,3.26207E0,4.4962948E1,5.1242585E0,2.9106337E1,7.8633075E0,3.5560033E0],"tree_param":{"num_deleted":"0","num_feature":"10","num_nodes":"31","size_leaf_vector":"1"}},{"base_weights":[-1.1826824E-2,-1.799369E-1,2.6810402E-1,6.678146E-3,-3.2685286E-1,4.6398893E-1,7.8133516E-2,-3.875424E-1,7.212179E-2,-4.1292384E-1,-1.8780302E-1,3.2940248E-1,5.513339E-1,-6.1223038E-2,3.0997512E-1,1.843393E-2,-2.1257412E-2,1.7613431E-2,1.5829547E-4,-2.7222333E-2,-1.772998E-2,3.3113582E-4,-1.5790084E-2,2.1077236E-2,5.885301E-3,2.8364664E-2,-2.7138807E-3,-1.4358269E-2,4.1628047E-3,2.4224652E-2,8.55247E-3],"categories":[],"categories_nodes":[],"categories_segments":[],"categories_sizes":[],"default_left":[0,0,0,0,0,0,0,0,0,0,0,0,0,0,0,0,0,0,0,0,0,0,0,0,0,0,0,0,0,0,0],"id":32,"left_children":[1,3,5,7,9,11,13,15,17,19,21,23,25,27,29,-1,-1,-1,-1,-1,-1,-1,-1,-1,-1,-1,-1,-1,-1,-1,-1],"loss_changes":[9.9752525E1,3.6311188E1,2.9561031E1,1.5103292E1,8.790916E0,4.4192734E0,1.3103304E1,2.5270748E0,9.696078E0,3.3115005E0,7.098257E0,3.0034847E0,2.3104553E0,8.308141E0,3.6073093E0,0E0,0E0,0E0,0E0,0E0,0E0,0E0,0E0,0E0,0E0,0E0,0E0,0E0,0E0,0E0,0E0],"parents":[2147483647,0,0,1,1,2,2,3,3,4,4,5,5,6,6,7,7,8,8,9,9,10,10,11,11,12,12,13,13,14,14],"right_children":[2,4,6,8,10,12,14,16,18,20,22,24,26,28,30,-1,-1,-1,-1,-1,-1,-1,-1,-1,-1,-1,-1,-1,-1,-1,-1],"split_conditions":[1.3333334E-1,3.2380953E-1,-1.0526316E-1,-8.181818E-1,-2.631579E-1,5.185185E-1,8.1440496E-1,7.0430106E-1,-8.8235295E-1,1.1388888E0,1.5263158E0,8.2E1,1.617647E0,1.203125E0,4.6875E-1,1.843393E-2,-2.1257412E-2,1.7613431E-2,1.5829547E-4,-2.7222333E-2,-1.772998E-2,3.3113582E-4,-1.5790084E-2,2.1077236E-2,5.885301E-3,2.8364664E-2,-2.7138807E-3,-1.4358269E-2,4.1628047E-3,2.4224652E-2,8.55247E-3],"split_indices":[4,9,8,4,4,4,4,6,8,7,6,0,6,7,9,0,0,0,0,0,0,0,0,0,0,0,0,0,0,0,0],"split_type":[0,0,0,0,0,0,0,0,0,0,0,0,0,0,0,0,0,0,0,0,0,0,0,0,0,0,0,0,0,0,0],"sum_hessian":[2.1176992E3,1.3233375E3,7.943618E2,5.83333E2,7.400045E2,3.9038275E2,4.0397903E2,8.234999E1,5.0098303E2,4.5586032E2,2.841442E2,1.5551971E2,2.3486304E2,2.527754E2,1.5120363E2,3.4840925E0,7.88659E1,9.814422E1,4.028388E2,1.3748737E2,3.1837292E2,1.1317833E2,1.7096587E2,1.07666084E2,4.7853634E1,2.2889436E2,5.968684E0,9.820728E1,1.5456813E2,6.591459E1,8.528904E1],"tree_param":{"num_deleted":"0","num_feature":"10","num_nodes":"31","size_leaf_vector":"1"}},{"base_weights":[-1.1168674E-3,1.3264602E-1,-2.8292552E-1,-9.2933714E-2,3.0486494E-1,-4.8165402E-1,-1.1102172E-1,4.98785E-2,-2.119701E-1,2.2429192E-1,5.930486E-1,-5.421261E-1,-4.0986001E-1,1.0280824E-2,-3.519101E-1,3.1971533E-2,6.098204E-4,-1.6776143E-2,-5.3753196E-3,2.6022935E-2,5.879236E-3,1.5859788E-2,3.0869365E-2,-1.7837977E-2,-2.8218646E-2,-1.8981686E-2,-3.0959124E-2,-4.1335E-3,1.5834762E-2,-2.6336E-2,-1.1753143E-2],"categories":[],"categories_nodes":[],"categories_segments":[],"categories_sizes":[],"default_left":[0,0,0,0,0,0,0,0,0,0,0,0,0,0,0,0,0,0,0,0,0,0,0,0,0,0,0,0,0,0,0],"id":33,"left_children":[1,3,5,7,9,11,13,15,17,19,21,23,25,27,29,-1,-1,-1,-1,-1,-1,-1,-1,-1,-1,-1,-1,-1,-1,-1,-1],"loss_changes":[7.057831E1,4.9353962E1,2.05346E1,9.368063E0,1.6590538E1,9.9005127E-1,9.483783E0,5.5692406E0,3.8411713E0,1.7777699E1,8.566475E-1,4.1088486E-1,5.985756E-1,6.199547E0,2.0962257E0,0E0,0E0,0E0,0E0,0E0,0E0,0E0,0E0,0E0,0E0,0E0,0E0,0E0,0E0,0E0,0E0],"parents":[2147483647,0,0,1,1,2,2,3,3,4,4,5,5,6,6,7,7,8,8,9,9,10,10,11,11,12,12,13,13,14,14],"right_children":[2,4,6,8,10,12,14,16,18,20,22,24,26,28,30,-1,-1,-1,-1,-1,-1,-1,-1,-1,-1,-1,-1,-1,-1,-1,-1],"split_conditions":[1.6563861E-1,3.3684212E-1,-1E-1,-3.3333334E-1,1.1479592E0,2.7272728E-1,6E-1,9.836066E-2,2.5503355E-1,-6.703297E-1,2.8E1,4.3137255E-1,3.8709676E-1,6.262626E-1,4.6875E-1,3.1971533E-2,6.098204E-4,-1.6776143E-2,-5.3753196E-3,2.6022935E-2,5.879236E-3,1.5859788E-2,3.0869365E-2,-1.7837977E-2,-2.8218646E-2,-1.8981686E-2,-3.0959124E-2,-4.1335E-3,1.5834762E-2,-2.6336E-2,-1.1753143E-2],"split_indices":[4,9,8,4,8,9,5,5,9,4,0,5,9,9,9,0,0,0,0,0,0,0,0,0,0,0,0,0,0,0,0],"split_type":[0,0,0,0,0,0,0,0,0,0,0,0,0,0,0,0,0,0,0,0,0,0,0,0,0,0,0,0,0,0,0],"sum_hessian":[1.8703295E3,1.2686725E3,6.01657E2,5.494455E2,7.19227E2,2.7822015E2,3.2343683E2,2.5004207E2,2.9940344E2,5.634662E2,1.5576076E2,1.4746184E2,1.307583E2,2.1575024E2,1.0768658E2,1.4062306E1,2.3597977E2,1.3615569E2,1.6324774E2,1.4821545E2,4.1525076E2,1.3766369E1,1.4199438E2,1.7626793E1,1.2983504E2,1.167178E2,1.4040514E1,1.660954E2,4.965485E1,4.1737396E1,6.594918E1],"tree_param":{"num_deleted":"0","num_feature":"10","num_nodes":"31","size_leaf_vector":"1"}},{"base_weights":[5.7177143E-3,5.1393308E-2,-2.123307E-1,1.1058655E-1,-4.715453E-2,-4.476984E-1,-1.4373873E-1,1.5161979E-1,-5.945777E-2,-5.839392E-3,-3.3710548E-1,-5.6254774E-1,-3.2703954E-1,-6.5533824E-2,-3.1025368E-1,-1.5942313E-3,9.199952E-3,-2.247675E-2,-4.3567896E-5,1.8792158E-2,-1.1567768E-3,-8.05171E-3,-2.5575925E-2,-1.659534E-2,-2.9551549E-2,-7.964748E-3,-2.1758309E-2,-4.421636E-3,1.8773833E-2,-2.0472027E-2,5.141852E-3],"categories":[],"categories_nodes":[],"categories_segments":[],"categories_sizes":[],"default_left":[0,0,0,0,0,0,0,0,0,0,0,0,0,0,0,0,0,0,0,0,0,0,0,0,0,0,0,0,0,0,0],"id":34,"left_children":[1,3,5,7,9,11,13,15,17,19,21,23,25,27,29,-1,-1,-1,-1,-1,-1,-1,-1,-1,-1,-1,-1,-1,-1,-1,-1],"loss_changes":[1.5940924E1,7.7242994E0,4.4111214E0,5.7793856E0,5.954932E0,6.7636204E-1,2.7942042E0,3.966117E0,3.6900918E0,2.8887446E0,1.82161E0,3.6678314E-3,5.231464E-1,1.5311457E0,2.861117E0,0E0,0E0,0E0,0E0,0E0,0E0,0E0,0E0,0E0,0E0,0E0,0E0,0E0,0E0,0E0,0E0],"parents":[2147483647,0,0,1,1,2,2,3,3,4,4,5,5,6,6,7,7,8,8,9,9,10,10,11,11,12,12,13,13,14,14],"right_children":[2,4,6,8,10,12,14,16,18,20,22,24,26,28,30,-1,-1,-1,-1,-1,-1,-1,-1,-1,-1,-1,-1,-1,-1,-1,-1],"split_conditions":[5.263158E-1,1.5E0,-4.117647E-1,1.7579787E0,2E0,1.0789474E0,7.120419E-1,9.4414896E-1,7.0430106E-1,5E0,1.8392857E0,1.5263158E0,1.1388888E0,1.8202571E0,8E-1,-1.5942313E-3,9.199952E-3,-2.247675E-2,-4.3567896E-5,1.8792158E-2,-1.1567768E-3,-8.05171E-3,-2.5575925E-2,-1.659534E-2,-2.9551549E-2,-7.964748E-3,-2.1758309E-2,-4.421636E-3,1.8773833E-2,-2.0472027E-2,5.141852E-3],"split_indices":[5,6,8,7,3,3,5,6,6,1,6,7,3,7,8,0,0,0,0,0,0,0,0,0,0,0,0,0,0,0,0],"split_type":[0,0,0,0,0,0,0,0,0,0,0,0,0,0,0,0,0,0,0,0,0,0,0,0,0,0,0,0,0,0,0],"sum_hessian":[1.5984806E3,1.3222642E3,2.762164E2,8.260007E2,4.9626352E2,6.1084152E1,2.1513225E2,6.6551434E2,1.6048633E2,4.35263E2,6.1000523E1,2.9419163E1,3.166499E1,1.4733086E2,6.780139E1,9.9819275E1,5.656951E2,2.0084911E1,1.4040141E2,1.7970446E1,4.1729254E2,3.131305E1,2.9687473E1,4.6245837E0,2.4794579E1,1.3380336E1,1.8284655E1,1.4081851E2,6.5123396E0,5.468086E1,1.3120537E1],"tree_param":{"num_deleted":"0","num_feature":"10","num_nodes":"31","size_leaf_vector":"1"}},{"base_weights":[2.487063E-3,-1.8376069E-1,2.5789964E-1,2.2404534E-3,-3.371896E-1,3.398683E-1,-9.203456E-2,-2.9176378E-1,7.56085E-2,-5.890625E-1,-2.8758463E-1,2.063306E-1,4.7547135E-1,-2.1264346E-1,1.7601515E-1,8.099309E-3,-1.8888706E-2,2.0201249E-2,1.5000221E-3,-2.5494728E-2,-3.3787116E-2,-1.16081415E-2,-2.508842E-2,1.8141007E-2,6.0773077E-3,2.6265352E-3,2.5220335E-2,-6.1601233E-3,-2.225665E-2,1.6154721E-2,-6.5382817E-3],"categories":[],"categories_nodes":[],"categories_segments":[],"categories_sizes":[],"default_left":[0,0,0,0,0,0,0,0,0,0,0,0,0,0,0,0,0,0,0,0,0,0,0,0,0,0,0,0,0,0,0],"id":35,"left_children":[1,3,5,7,9,11,13,15,17,19,21,23,25,27,29,-1,-1,-1,-1,-1,-1,-1,-1,-1,-1,-1,-1,-1,-1,-1,-1],"loss_changes":[1.0187128E2,3.534331E1,2.5934475E1,1.2118639E1,8.309723E0,1.3155052E1,5.6037083E0,4.440114E0,6.7220407E0,4.1517258E-1,6.6370506E0,4.871913E0,4.408165E0,2.4237823E0,2.4777355E0,0E0,0E0,0E0,0E0,0E0,0E0,0E0,0E0,0E0,0E0,0E0,0E0,0E0,0E0,0E0,0E0],"parents":[2147483647,0,0,1,1,2,2,3,3,4,4,5,5,6,6,7,7,8,8,9,9,10,10,11,11,12,12,13,13,14,14],"right_children":[2,4,6,8,10,12,14,16,18,20,22,24,26,28,30,-1,-1,-1,-1,-1,-1,-1,-1,-1,-1,-1,-1,-1,-1,-1,-1],"split_conditions":[3.8947368E-1,3.2380953E-1,5.176471E-1,-6.7688173E-1,1.8181819E-1,5.1282054E-1,8.7122446E-1,1.764706E-1,1.3636364E-1,8.75E-1,6.1627907E-1,2.6923078E-1,1.2E1,1.29E2,1.15E2,8.099309E-3,-1.8888706E-2,2.0201249E-2,1.5000221E-3,-2.5494728E-2,-3.3787116E-2,-1.16081415E-2,-2.508842E-2,1.8141007E-2,6.0773077E-3,2.6265352E-3,2.5220335E-2,-6.1601233E-3,-2.225665E-2,1.6154721E-2,-6.5382817E-3],"split_indices":[5,9,9,4,5,5,4,9,9,2,9,9,1,0,1,0,0,0,0,0,0,0,0,0,0,0,0,0,0,0,0],"split_type":[0,0,0,0,0,0,0,0,0,0,0,0,0,0,0,0,0,0,0,0,0,0,0,0,0,0,0,0,0,0,0],"sum_hessian":[2.1395054E3,1.2374402E3,9.0206525E2,5.5979224E2,6.77648E2,7.3089014E2,1.7117511E2,1.1120183E2,4.4859042E2,1.09710396E2,5.6793756E2,3.6951984E2,3.6137027E2,1.1819845E2,5.2976654E1,1.7579155E1,9.362267E1,5.3742252E1,3.9484818E2,6.0936913E1,4.8773483E1,4.5284433E2,1.1509327E2,1.286981E2,2.4082175E2,2.3320196E1,3.3805008E2,8.64646E1,3.1733847E1,3.5772934E1,1.720372E1],"tree_param":{"num_deleted":"0","num_feature":"10","num_nodes":"31","size_leaf_vector":"1"}},{"base_weights":[-1.0489941E-2,2.2255647E-1,-1.406369E-1,1.2236958E-1,5.5680513E-1,-2.2257908E-1,2.130645E-1,1.6284025E-1,-3.890974E-1,6.7023414E-1,4.2600635E-1,-1.0689815E-1,-3.779161E-1,2.4811107E-1,-4.7989187E-1,-1.4593038E-2,9.934637E-3,-2.386599E-2,2.2824401E-2,4.1080676E-2,2.6218126E-2,3.5187703E-2,1.6095076E-2,-1.0928056E-2,3.4502966E-3,-2.8230777E-2,-1.6825045E-2,1.6157035E-2,-3.8713675E-3,-4.4557694E-3,-2.7046088E-2],"categories":[],"categories_nodes":[],"categories_segments":[],"categories_sizes":[],"default_left":[0,0,0,0,0,0,0,0,0,0,0,0,0,0,0,0,0,0,0,0,0,0,0,0,0,0,0,0,0,0,0],"id":36,"left_children":[1,3,5,7,9,11,13,15,17,19,21,23,25,27,29,-1,-1,-1,-1,-1,-1,-1,-1,-1,-1,-1,-1,-1,-1,-1,-1],"loss_changes":[5.665212E1,2.234629E1,3.478269E1,1.0749701E1,2.000431E0,1.7453503E1,5.6060915E0,7.8685684E0,3.0638556E0,1.3528137E0,1.9219503E0,1.1002504E1,3.020008E0,5.293949E0,2.1932316E-1,0E0,0E0,0E0,0E0,0E0,0E0,0E0,0E0,0E0,0E0,0E0,0E0,0E0,0E0,0E0,0E0],"parents":[2147483647,0,0,1,1,2,2,3,3,4,4,5,5,6,6,7,7,8,8,9,9,10,10,11,11,12,12,13,13,14,14],"right_children":[2,4,6,8,10,12,14,16,18,20,22,24,26,28,30,-1,-1,-1,-1,-1,-1,-1,-1,-1,-1,-1,-1,-1,-1,-1,-1],"split_conditions":[-3.107765E-1,1.8392857E0,1.9436275E0,3.1782946E-1,-6E-1,4.375E-1,1.4642857E0,8.947368E-1,2.3529413E0,1.13E2,9.347826E-1,1.3695652E0,9.8333335E-1,1.2894737E0,7.701684E-1,-1.4593038E-2,9.934637E-3,-2.386599E-2,2.2824401E-2,4.1080676E-2,2.6218126E-2,3.5187703E-2,1.6095076E-2,-1.0928056E-2,3.4502966E-3,-2.8230777E-2,-1.6825045E-2,1.6157035E-2,-3.8713675E-3,-4.4557694E-3,-2.7046088E-2],"split_indices":[4,6,6,5,4,5,4,6,7,0,7,6,6,7,3,0,0,0,0,0,0,0,0,0,0,0,0,0,0,0,0],"split_type":[0,0,0,0,0,0,0,0,0,0,0,0,0,0,0,0,0,0,0,0,0,0,0,0,0,0,0,0,0,0,0],"sum_hessian":[1.8658081E3,6.683405E2,1.1974677E3,5.1526294E2,1.5307758E2,9.725315E2,2.2493613E2,4.7811307E2,3.7149868E1,7.977359E1,7.330399E1,5.583851E2,4.1414642E2,2.147186E2,1.0217531E1,3.4421383E1,4.4369168E2,3.403447E1,3.1154003E0,3.6874424E1,4.2899162E1,1.841457E1,5.488942E1,3.4141452E2,2.1697058E2,7.289652E1,3.4124988E2,1.7450607E2,4.021253E1,1.7125041E0,8.505027E0],"tree_param":{"num_deleted":"0","num_feature":"10","num_nodes":"31","size_leaf_vector":"1"}},{"base_weights":[3.578155E-3,3.3904694E-2,-2.7629822E-1,-2.2554828E-1,4.7536194E-2,-3.8218346E-1,9.270713E-2,4.047595E-1,-3.5371622E-1,-1.23692214E-1,6.836572E-2,-4.076052E-1,-6.609091E-2,-1.9147053E-1,4.066634E-1,5.1884748E-2,-8.571124E-3,1.4783682E-2,-2.0225465E-2,1.4905462E-2,-9.227628E-3,5.691658E-3,-1.5058005E-3,-2.4301352E-2,-1.1870663E-2,3.494252E-2,-1.5325206E-2,1.2301265E-2,-1.6559323E-2,3.25406E-2,-5.372397E-3],"categories":[],"categories_nodes":[],"categories_segments":[],"categories_sizes":[],"default_left":[0,0,0,0,0,0,0,0,0,0,0,0,0,0,0,0,0,0,0,0,0,0,0,0,0,0,0,0,0,0,0],"id":37,"left_children":[1,3,5,7,9,11,13,15,17,19,21,23,25,27,29,-1,-1,-1,-1,-1,-1,-1,-1,-1,-1,-1,-1,-1,-1,-1,-1],"loss_changes":[1.3596421E1,5.1219645E0,6.1544867E0,5.98501E0,4.9085264E0,9.5248604E-1,3.2650912E0,4.8042555E0,2.1193647E0,3.8892004E0,5.490936E0,1.3877106E0,2.1022248E0,1.2691964E0,2.2404873E0,0E0,0E0,0E0,0E0,0E0,0E0,0E0,0E0,0E0,0E0,0E0,0E0,0E0,0E0,0E0,0E0],"parents":[2147483647,0,0,1,1,2,2,3,3,4,4,5,5,6,6,7,7,8,8,9,9,10,10,11,11,12,12,13,13,14,14],"right_children":[2,4,6,8,10,12,14,16,18,20,22,24,26,28,30,-1,-1,-1,-1,-1,-1,-1,-1,-1,-1,-1,-1,-1,-1,-1,-1],"split_conditions":[2.0704787E0,-1.117647E0,5.5263156E-1,2.5503355E-1,-7.631579E-1,1.79E2,9.6E1,1.6083333E0,1.0335498E0,-6E-1,4.6666667E-1,-9.8182626E-2,1.67E2,5.176471E-1,1.0833334E0,5.1884748E-2,-8.571124E-3,1.4783682E-2,-2.0225465E-2,1.4905462E-2,-9.227628E-3,5.691658E-3,-1.5058005E-3,-2.4301352E-2,-1.1870663E-2,3.494252E-2,-1.5325206E-2,1.2301265E-2,-1.6559323E-2,3.25406E-2,-5.372397E-3],"split_indices":[2,4,8,9,8,0,1,7,7,4,9,8,1,9,3,0,0,0,0,0,0,0,0,0,0,0,0,0,0,0,0],"split_type":[0,0,0,0,0,0,0,0,0,0,0,0,0,0,0,0,0,0,0,0,0,0,0,0,0,0,0,0,0,0,0],"sum_hessian":[1.5997966E3,1.4441877E3,1.5560887E2,7.1313194E1,1.3728745E3,1.20885376E2,3.472349E1,1.1685904E1,5.962729E1,1.483587E2,1.2245159E3,1.1161891E2,9.266469E0,1.8430895E1,1.6292597E1,5.1870017E0,6.498902E0,3.9757798E0,5.565151E1,1.821547E1,1.3014323E2,8.376366E2,3.868792E2,7.513986E1,3.647905E1,1.7599208E0,7.506548E0,4.277079E0,1.4153815E1,1.0866337E1,5.42626E0],"tree_param":{"num_deleted":"0","num_feature":"10","num_nodes":"31","size_leaf_vector":"1"}},{"base_weights":[-2.857E-3,-1.2862155E-1,3.3747727E-1,-2.0336026E-2,-3.366797E-1,4.2076382E-1,-6.833896E-2,-3.8849652E-1,3.549728E-2,-4.536012E-1,-2.6685438E-1,2.8267542E-1,5.449845E-1,4.0227547E-2,-9.447069E-2,1.3933442E-2,-2.1471698E-2,1.49016995E-2,-7.169531E-4,-2.6406428E-2,-1.6370036E-2,-1.7043548E-2,-8.4164245E-3,-1.1814375E-2,1.6632864E-2,3.127678E-2,2.2270387E-2,-1.291754E-2,1.2750739E-3],"categories":[],"categories_nodes":[],"categories_segments":[],"categories_sizes":[],"default_left":[0,0,0,0,0,0,0,0,0,0,0,0,0,0,0,0,0,0,0,0,0,0,0,0,0,0,0,0,0],"id":38,"left_children":[1,3,5,7,9,11,13,15,17,19,21,23,25,-1,27,-1,-1,-1,-1,-1,-1,-1,-1,-1,-1,-1,-1,-1,-1],"loss_changes":[8.98635E1,3.453118E1,1.9175972E1,2.0760859E1,4.1625443E0,7.9110794E0,2.2960408E0,3.75202E0,1.1483005E1,1.6588211E0,2.3559723E0,5.9079857E0,1.6980743E0,0E0,1.8821082E0,0E0,0E0,0E0,0E0,0E0,0E0,0E0,0E0,0E0,0E0,0E0,0E0,0E0,0E0],"parents":[2147483647,0,0,1,1,2,2,3,3,4,4,5,5,6,6,7,7,8,8,9,9,10,10,11,11,12,12,14,14],"right_children":[2,4,6,8,10,12,14,16,18,20,22,24,26,-1,28,-1,-1,-1,-1,-1,-1,-1,-1,-1,-1,-1,-1,-1,-1],"split_conditions":[3.6031452E-1,1.6563861E-1,7.409131E-1,-8.181818E-1,1.1304082E0,8.1440496E-1,3.7645137E-1,8.684211E-1,-8.181818E-1,-1.5E-1,-1.9565217E-1,1.1714286E0,1.2945479E0,4.0227547E-2,8.1440496E-1,1.3933442E-2,-2.1471698E-2,1.49016995E-2,-7.169531E-4,-2.6406428E-2,-1.6370036E-2,-1.7043548E-2,-8.4164245E-3,-1.1814375E-2,1.6632864E-2,3.127678E-2,2.2270387E-2,-1.291754E-2,1.2750739E-3],"split_indices":[4,8,8,4,7,4,4,6,8,4,4,7,6,0,4,0,0,0,0,0,0,0,0,0,0,0,0,0,0],"split_type":[0,0,0,0,0,0,0,0,0,0,0,0,0,0,0,0,0,0,0,0,0,0,0,0,0,0,0,0,0],"sum_hessian":[2.097503E3,1.532001E3,5.65502E2,1.0083138E3,5.2368726E2,4.691753E2,9.6326706E1,1.3199446E2,8.763193E2,1.9375346E2,3.299338E2,2.2373674E2,2.4543854E2,1.934063E0,9.439264E1,7.2952447E0,1.2469921E2,1.390144E2,7.3730493E2,1.1981326E2,7.39402E1,1.8699556E2,1.4293823E2,1.9327831E1,2.044089E2,1.3276141E2,1.1267713E2,3.940821E1,5.498443E1],"tree_param":{"num_deleted":"0","num_feature":"10","num_nodes":"29","size_leaf_vector":"1"}},{"base_weights":[-9.813879E-3,1.1285125E-1,-2.7004418E-1,-9.6172035E-2,2.7275622E-1,-4.8348334E-1,-9.3769506E-2,4.9535844E-2,-2.4697532E-1,2.0210968E-1,5.2159625E-1,-5.631497E-1,-4.2694268E-1,1.8662222E-2,-3.10695E-1,-2.4139544E-2,5.991133E-3,-1.9493775E-2,-8.347622E-3,2.579203E-2,6.8506687E-3,2.1601206E-2,3.3226047E-2,-1.2835785E-2,-2.8903795E-2,-9.552457E-3,-2.2792263E-2,-2.840047E-3,9.021127E-3,-2.7962139E-2,-7.878435E-3],"categories":[],"categories_nodes":[],"categories_segments":[],"categories_sizes":[],"default_left":[0,0,0,0,0,0,0,0,0,0,0,0,0,0,0,0,0,0,0,0,0,0,0,0,0,0,0,0,0,0,0],"id":39,"left_children":[1,3,5,7,9,11,13,15,17,19,21,23,25,27,29,-1,-1,-1,-1,-1,-1,-1,-1,-1,-1,-1,-1,-1,-1,-1,-1],"loss_changes":[5.7813652E1,4.1170147E1,2.1784382E1,1.17521305E1,1.21598015E1,9.406128E-1,7.786236E0,1.0256001E1,2.9391594E0,1.1060682E1,1.6798782E0,3.3509064E-1,9.8667717E-1,2.5865715E0,4.058669E0,0E0,0E0,0E0,0E0,0E0,0E0,0E0,0E0,0E0,0E0,0E0,0E0,0E0,0E0,0E0,0E0],"parents":[2147483647,0,0,1,1,2,2,3,3,4,4,5,5,6,6,7,7,8,8,9,9,10,10,11,11,12,12,13,13,14,14],"right_children":[2,4,6,8,10,12,14,16,18,20,22,24,26,28,30,-1,-1,-1,-1,-1,-1,-1,-1,-1,-1,-1,-1,-1,-1,-1,-1],"split_conditions":[1.6563861E-1,3.3684212E-1,-1E-1,2.8947368E-1,1.1479592E0,-5E-1,6E-1,1.5384616E-1,2.3529412E-1,-8.8235295E-1,1.6315789E0,4.057971E-1,2E1,8E-1,4.6875E-1,-2.4139544E-2,5.991133E-3,-1.9493775E-2,-8.347622E-3,2.579203E-2,6.8506687E-3,2.1601206E-2,3.3226047E-2,-1.2835785E-2,-2.8903795E-2,-9.552457E-3,-2.2792263E-2,-2.840047E-3,9.021127E-3,-2.7962139E-2,-7.878435E-3],"split_indices":[4,9,8,5,8,8,5,9,9,4,3,5,0,8,9,0,0,0,0,0,0,0,0,0,0,0,0,0,0,0,0],"split_type":[0,0,0,0,0,0,0,0,0,0,0,0,0,0,0,0,0,0,0,0,0,0,0,0,0,0,0,0,0,0,0],"sum_hessian":[1.8091827E3,1.2299744E3,5.7920844E2,5.3328186E2,6.966925E2,2.6119824E2,3.180102E2,2.7156454E2,2.6171732E2,5.440477E2,1.5264479E2,1.0470621E2,1.5649202E2,2.1005392E2,1.0795625E2,3.0989851E1,2.4057469E2,9.255893E1,1.6915837E2,9.2297356E1,4.5175037E2,9.630951E1,5.6335278E1,5.708586E0,9.899762E1,1.791179E1,1.3858023E2,1.4367613E2,6.637781E1,4.0144047E1,6.781221E1],"tree_param":{"num_deleted":"0","num_feature":"10","num_nodes":"31","size_leaf_vector":"1"}},{"base_weights":[-1.2085526E-3,4.3843992E-2,-1.9672216E-1,8.0583066E-2,-1.562442E-1,-2.2451615E-1,4.4294813E-1,9.12719E-2,-4.261396E-1,-4.18808E-1,-7.8088485E-2,-4.7315296E-2,-2.7083918E-1,7.5778973E-1,-3.080838E-1,4.863076E-3,-2.4569307E-2,-2.7020339E-2,9.973514E-3,-2.3492692E-2,9.028713E-3,3.4129464E-3,-9.289884E-3,-1.0284176E-2,8.185071E-3,-1.1784356E-2,-2.2589743E-2,4.3487806E-2,1.6497614E-2,-5.8861994E-3,-2.0458082E-2],"categories":[],"categories_nodes":[],"categories_segments":[],"categories_sizes":[],"default_left":[0,0,0,0,0,0,0,0,0,0,0,0,0,0,0,0,0,0,0,0,0,0,0,0,0,0,0,0,0,0,0],"id":40,"left_children":[1,3,5,7,9,11,13,15,17,19,21,23,25,27,29,-1,-1,-1,-1,-1,-1,-1,-1,-1,-1,-1,-1,-1,-1,-1,-1],"loss_changes":[1.4083514E1,9.565027E0,5.4230423E0,5.9888806E0,4.111003E0,2.3481646E0,3.2612975E0,3.8052568E0,1.7427182E0,1.494998E0,2.4848971E0,2.0661533E0,1.3425903E0,1.5908384E-1,3.828934E-2,0E0,0E0,0E0,0E0,0E0,0E0,0E0,0E0,0E0,0E0,0E0,0E0,0E0,0E0,0E0,0E0],"parents":[2147483647,0,0,1,1,2,2,3,3,4,4,5,5,6,6,7,7,8,8,9,9,10,10,11,11,12,12,13,13,14,14],"right_children":[2,4,6,8,10,12,14,16,18,20,22,24,26,28,30,-1,-1,-1,-1,-1,-1,-1,-1,-1,-1,-1,-1,-1,-1,-1,-1],"split_conditions":[1.7916666E0,1.9436275E0,1.4642857E0,2.368421E0,2.0615137E0,1.1999452E0,1.1388888E0,2.625E0,1.83E2,4.7682118E-1,6.5217394E-1,1.08289E0,2.6007128E0,1.79E2,2.0862145E0,4.863076E-3,-2.4569307E-2,-2.7020339E-2,9.973514E-3,-2.3492692E-2,9.028713E-3,3.4129464E-3,-9.289884E-3,-1.0284176E-2,8.185071E-3,-1.1784356E-2,-2.2589743E-2,4.3487806E-2,1.6497614E-2,-5.8861994E-3,-2.0458082E-2],"split_indices":[2,6,8,7,6,7,3,3,1,5,9,7,2,1,2,0,0,0,0,0,0,0,0,0,0,0,0,0,0,0,0],"split_type":[0,0,0,0,0,0,0,0,0,0,0,0,0,0,0,0,0,0,0,0,0,0,0,0,0,0,0,0,0,0,0],"sum_hessian":[1.5968965E3,1.2984647E3,2.9843176E2,1.0975382E3,2.0092653E2,2.866267E2,1.1805059E1,1.0756678E3,2.187032E1,4.5089596E1,1.5583693E2,5.9819374E1,2.2680734E2,8.311698E0,3.4933617E0,1.0655474E3,1.0120568E1,1.860781E1,3.2625108E0,4.1750095E1,3.3395023E0,6.622351E1,8.961342E1,3.4187157E1,2.5632217E1,1.9184282E2,3.4964523E1,5.769017E0,2.542681E0,1.9623519E0,1.5310097E0],"tree_param":{"num_deleted":"0","num_feature":"10","num_nodes":"31","size_leaf_vector":"1"}},{"base_weights":[-1.8242195E-3,-1.2819523E-1,2.959988E-1,-1.7571053E-2,-3.438303E-1,3.7478605E-1,-6.746552E-2,-1.727077E-1,1.07727215E-1,-4.271686E-1,-2.0974281E-1,2.8048363E-1,5.375272E-1,1.6340071E-1,-1.5313357E-1,2.7713344E-2,-9.931403E-3,1.8339513E-2,2.2344445E-3,-1.8111432E-2,-2.5481462E-2,-6.340158E-3,-2.46689E-2,2.6198959E-2,1.0923646E-2,3.689259E-2,2.4961142E-2,-7.941147E-4,1.9426081E-2,-9.996506E-3,1.4382166E-2],"categories":[],"categories_nodes":[],"categories_segments":[],"categories_sizes":[],"default_left":[0,0,0,0,0,0,0,0,0,0,0,0,0,0,0,0,0,0,0,0,0,0,0,0,0,0,0,0,0,0,0],"id":41,"left_children":[1,3,5,7,9,11,13,15,17,19,21,23,25,27,29,-1,-1,-1,-1,-1,-1,-1,-1,-1,-1,-1,-1,-1,-1,-1,-1],"loss_changes":[7.954275E1,3.539003E1,1.8055328E1,1.910255E1,5.5319977E0,7.792877E0,2.260208E0,8.383074E0,8.863207E0,1.4715805E0,4.5197535E0,4.865305E0,1.0804024E0,1.260186E0,1.7683823E0,0E0,0E0,0E0,0E0,0E0,0E0,0E0,0E0,0E0,0E0,0E0,0E0,0E0,0E0,0E0,0E0],"parents":[2147483647,0,0,1,1,2,2,3,3,4,4,5,5,6,6,7,7,8,8,9,9,10,10,11,11,12,12,13,13,14,14],"right_children":[2,4,6,8,10,12,14,16,18,20,22,24,26,28,30,-1,-1,-1,-1,-1,-1,-1,-1,-1,-1,-1,-1,-1,-1,-1,-1],"split_conditions":[3.1578946E-1,1.4583333E-1,5.37037E-1,-3.107765E-1,1.3166667E0,1.1479592E0,2.0016327E0,-1.625E0,-6.770833E-1,1.5447695E0,1.1600177E0,-6.315789E-1,9.605263E-1,5.6E1,1.4642857E0,2.7713344E-2,-9.931403E-3,1.8339513E-2,2.2344445E-3,-1.8111432E-2,-2.5481462E-2,-6.340158E-3,-2.46689E-2,2.6198959E-2,1.0923646E-2,3.689259E-2,2.4961142E-2,-7.941147E-4,1.9426081E-2,-9.996506E-3,1.4382166E-2],"split_indices":[4,8,9,4,2,4,6,8,8,3,8,8,6,1,4,0,0,0,0,0,0,0,0,0,0,0,0,0,0,0,0],"split_type":[0,0,0,0,0,0,0,0,0,0,0,0,0,0,0,0,0,0,0,0,0,0,0,0,0,0,0,0,0,0,0],"sum_hessian":[2.111456E3,1.4828352E3,6.286208E2,9.807676E2,5.0206763E2,5.166062E2,1.1201455E2,4.380377E2,5.4272986E2,3.0827942E2,1.9378821E2,3.288015E2,1.8780469E2,3.007047E1,8.194408E1,1.4378829E1,4.2365887E2,1.0527441E2,4.3745544E2,1.7547826E2,1.3280118E2,1.5106216E2,4.2726032E1,6.5226944E1,2.635746E2,2.7214632E1,1.6059006E2,1.725683E1,1.2813639E1,7.457318E1,7.370896E0],"tree_param":{"num_deleted":"0","num_feature":"10","num_nodes":"31","size_leaf_vector":"1"}},{"base_weights":[6.6647073E-3,1.337557E-1,-2.386238E-1,-3.6125053E-2,3.2672608E-1,-4.3563753E-1,-7.762342E-2,3.5079068E-1,-7.7623956E-2,2.5411734E-1,5.025135E-1,-4.4102103E-1,1.7176227E-1,1.1563938E-1,-1.6829939E-1,2.3469359E-2,-1.3150376E-2,-1.5586956E-2,-1.2508784E-3,2.261046E-2,8.731723E-3,1.4335682E-2,2.8715E-2,-2.8199343E-2,-2.0468732E-2,3.2866385E-2,-1.8221041E-2,4.4580445E-2,4.211334E-3,-1.33324E-2,1.3461226E-3],"categories":[],"categories_nodes":[],"categories_segments":[],"categories_sizes":[],"default_left":[0,0,0,0,0,0,0,0,0,0,0,0,0,0,0,0,0,0,0,0,0,0,0,0,0,0,0,0,0,0,0],"id":42,"left_children":[1,3,5,7,9,11,13,15,17,19,21,23,25,27,29,-1,-1,-1,-1,-1,-1,-1,-1,-1,-1,-1,-1,-1,-1,-1,-1],"loss_changes":[5.727027E1,3.9680824E1,1.9854435E1,1.0374813E1,7.1047554E0,9.9705505E-1,6.087367E0,4.680825E0,7.1704187E0,6.266693E0,2.3854294E0,8.569832E-1,1.0713621E0,2.6347034E0,4.539996E0,0E0,0E0,0E0,0E0,0E0,0E0,0E0,0E0,0E0,0E0,0E0,0E0,0E0,0E0,0E0,0E0],"parents":[2147483647,0,0,1,1,2,2,3,3,4,4,5,5,6,6,7,7,8,8,9,9,10,10,11,11,12,12,13,13,14,14],"right_children":[2,4,6,8,10,12,14,16,18,20,22,24,26,28,30,-1,-1,-1,-1,-1,-1,-1,-1,-1,-1,-1,-1,-1,-1,-1,-1],"split_conditions":[1.1170213E-1,3.75E-1,-1E-1,-9.705882E-1,6.1627907E-1,1.6E0,3.529412E-1,1.68E2,2.0689656E-1,-6.703297E-1,1.4208999E0,9.411765E-1,9.605263E-1,-8.82353E-2,8E-1,2.3469359E-2,-1.3150376E-2,-1.5586956E-2,-1.2508784E-3,2.261046E-2,8.731723E-3,1.4335682E-2,2.8715E-2,-2.8199343E-2,-2.0468732E-2,3.2866385E-2,-1.8221041E-2,4.4580445E-2,4.211334E-3,-1.33324E-2,1.3461226E-3],"split_indices":[4,9,8,4,9,3,4,1,9,4,3,6,6,8,8,0,0,0,0,0,0,0,0,0,0,0,0,0,0,0,0],"split_type":[0,0,0,0,0,0,0,0,0,0,0,0,0,0,0,0,0,0,0,0,0,0,0,0,0,0,0,0,0,0,0],"sum_hessian":[1.835095E3,1.209087E3,6.2600793E2,6.4344525E2,5.6564185E2,2.8075116E2,3.4525677E2,6.1606155E1,5.818391E2,4.020297E2,1.6361215E2,2.7855618E2,2.1949759E0,1.1016998E2,2.3508678E2,5.182746E1,9.778694E0,1.0584945E2,4.7598965E2,1.137775E2,2.882522E2,4.2086967E1,1.21525185E2,5.357245E1,2.2498375E2,1.0332917E0,1.1616842E0,3.2209527E0,1.0694903E2,1.560874E2,7.899939E1],"tree_param":{"num_deleted":"0","num_feature":"10","num_nodes":"31","size_leaf_vector":"1"}},{"base_weights":[9.2317007E-4,7.846416E-2,-8.765695E-2,1.02227524E-1,-2.2110991E-1,-6.0849197E-2,-3.078505E-1,1.4849253E-1,-2.475539E-2,-2.5782478E-1,3.64211E-2,-1.5394855E-1,-1.5816484E-2,-4.1679674E-1,2.2444157E-1,-1.8511815E-2,8.064735E-3,1.2226879E-2,-5.6020096E-3,-9.015574E-3,-2.8168667E-2,-1.5406785E-2,-1.0887319E-3,-1.496152E-2,5.574263E-4,-2.3647519E-2,-2.4880057E-3,3.1121159E-2,-1.3925651E-2],"categories":[],"categories_nodes":[],"categories_segments":[],"categories_sizes":[],"default_left":[0,0,0,0,0,0,0,0,0,0,0,0,0,0,0,0,0,0,0,0,0,0,0,0,0,0,0,0,0],"id":43,"left_children":[1,3,5,7,9,11,13,15,17,19,-1,21,23,25,27,-1,-1,-1,-1,-1,-1,-1,-1,-1,-1,-1,-1,-1,-1],"loss_changes":[1.0953023E1,6.0758295E0,4.3750734E0,4.6359863E0,2.377431E0,2.784783E0,4.7641478E0,3.8986244E0,4.996892E0,1.348093E0,0E0,4.407918E0,3.436139E0,1.3616142E0,3.0424783E0,0E0,0E0,0E0,0E0,0E0,0E0,0E0,0E0,0E0,0E0,0E0,0E0,0E0,0E0],"parents":[2147483647,0,0,1,1,2,2,3,3,4,4,5,5,6,6,7,7,8,8,9,9,11,11,12,12,13,13,14,14],"right_children":[2,4,6,8,10,12,14,16,18,20,-1,22,24,26,28,-1,-1,-1,-1,-1,-1,-1,-1,-1,-1,-1,-1,-1,-1],"split_conditions":[3.5416666E-1,2.1875E0,7.120419E-1,4.5652175E-1,1.64E2,1.6563861E-1,7.659575E-1,-1.2368422E0,1.3609155E0,7.659575E-1,3.64211E-2,1.02E2,-9.117647E-1,1.79E2,6.5217394E-1,-1.8511815E-2,8.064735E-3,1.2226879E-2,-5.6020096E-3,-9.015574E-3,-2.8168667E-2,-1.5406785E-2,-1.0887319E-3,-1.496152E-2,5.574263E-4,-2.3647519E-2,-2.4880057E-3,3.1121159E-2,-1.3925651E-2],"split_indices":[5,3,5,9,1,4,8,8,3,8,0,0,8,0,9,0,0,0,0,0,0,0,0,0,0,0,0,0,0],"split_type":[0,0,0,0,0,0,0,0,0,0,0,0,0,0,0,0,0,0,0,0,0,0,0,0,0,0,0,0,0],"sum_hessian":[1.5926525E3,8.493048E2,7.433476E2,7.8749634E2,6.1808483E1,6.638078E2,7.953981E1,5.7707513E2,2.1042119E2,6.02089E1,1.5995823E0,2.1562082E2,4.4818695E2,6.620613E1,1.3333682E1,1.3226641E1,5.638485E2,5.1066895E1,1.593543E2,4.9293873E1,1.0915029E1,9.89083E1,1.1671252E2,3.806025E1,4.101267E2,5.717088E1,9.035246E0,7.311026E0,6.022656E0],"tree_param":{"num_deleted":"0","num_feature":"10","num_nodes":"29","size_leaf_vector":"1"}},{"base_weights":[3.5712149E-3,-1.7326847E-1,2.3388454E-1,-3.9680764E-2,-3.1655174E-1,3.431845E-1,-7.901366E-2,-3.0199653E-1,1.521917E-2,-5.620927E-1,-2.7900827E-1,2.6396805E-1,4.9733067E-1,-2.861376E-1,6.3133076E-2,-2.6111508E-2,-1.1764963E-2,2.9799176E-2,-2.6796953E-4,-2.2852363E-2,-3.3562716E-2,-1.1270246E-2,-2.401289E-2,2.6241217E-2,1.0524173E-2,2.581057E-2,8.567195E-3,-1.8880857E-2,8.745287E-3,1.4059569E-2,-3.240448E-3],"categories":[],"categories_nodes":[],"categories_segments":[],"categories_sizes":[],"default_left":[0,0,0,0,0,0,0,0,0,0,0,0,0,0,0,0,0,0,0,0,0,0,0,0,0,0,0,0,0,0,0],"id":44,"left_children":[1,3,5,7,9,11,13,15,17,19,21,23,25,27,29,-1,-1,-1,-1,-1,-1,-1,-1,-1,-1,-1,-1,-1,-1,-1,-1],"loss_changes":[8.407459E1,2.2338272E1,3.0689644E1,8.7236E0,5.0355797E0,7.9847183E0,6.8756943E0,1.4169693E0,5.998072E0,5.3849983E-1,5.183586E0,6.044533E0,1.2932549E0,4.071711E0,3.8946285E0,0E0,0E0,0E0,0E0,0E0,0E0,0E0,0E0,0E0,0E0,0E0,0E0,0E0,0E0,0E0,0E0],"parents":[2147483647,0,0,1,1,2,2,3,3,4,4,5,5,6,6,7,7,8,8,9,9,10,10,11,11,12,12,13,13,14,14],"right_children":[2,4,6,8,10,12,14,16,18,20,22,24,26,28,30,-1,-1,-1,-1,-1,-1,-1,-1,-1,-1,-1,-1,