{"learner":{"attributes":{"scikit_learn":"{\"_estimator_type\": \"classifier\"}"},"feature_names":["home_team_id","away_team_id","home_avg_scored","home_avg_conceded","home_goal_diff","home_win_rate","away_avg_scored","away_avg_conceded","away_goal_diff","away_win_rate"],"feature_types":["int","int","float","float","float","float","float","float","float","float"],"gradient_booster":{"model":{"cats":{"enc":[],"feature_segments":[],"sorted_idx":[]},"gbtree_model_param":{"num_parallel_tree":"1","num_trees":"900"},"iteration_indptr":[0,3,6,9,12,15,18,21,24,27,30,33,36,39,42,45,48,51,54,57,60,63,66,69,72,75,78,81,84,87,90,93,96,99,102,105,108,111,114,117,120,123,126,129,132,135,138,141,144,147,150,153,156,159,162,165,168,171,174,177,180,183,186,189,192,195,198,201,204,207,210,213,216,219,222,225,228,231,234,237,240,243,246,249,252,255,258,261,264,267,270,273,276,279,282,285,288,291,294,297,300,303,306,309,312,315,318,321,324,327,330,333,336,339,342,345,348,351,354,357,360,363,366,369,372,375,378,381,384,387,390,393,396,399,402,405,408,411,414,417,420,423,426,429,432,435,438,441,444,447,450,453,456,459,462,465,468,471,474,477,480,483,486,489,492,495,498,501,504,507,510,513,516,519,522,525,528,531,534,537,540,543,546,549,552,555,558,561,564,567,570,573,576,579,582,585,588,591,594,597,600,603,606,609,612,615,618,621,624,627,630,633,636,639,642,645,648,651,654,657,660,663,666,669,672,675,678,681,684,687,690,693,696,699,702,705,708,711,714,717,720,723,726,729,732,735,738,741,744,747,750,753,756,759,762,765,768,771,774,777,780,783,786,789,792,795,798,801,804,807,810,813,816,819,822,825,828,831,834,837,840,843,846,849,852,855,858,861,864,867,870,873,876,879,882,885,888,891,894,897,900],"tree_info":[0,1,2,0,1,2,0,1,2,0,1,2,0,1,2,0,1,2,0,1,2,0,1,2,0,1,2,0,1,2,0,1,2,0,1,2,0,1,2,0,1,2,0,1,2,0,1,2,0,1,2,0,1,2,0,1,2,0,1,2,0,1,2,0,1,2,0,1,2,0,1,2,0,1,2,0,1,2,0,1,2,0,1,2,0,1,2,0,1,2,0,1,2,0,1,2,0,1,2,0,1,2,0,1,2,0,1,2,0,1,2,0,1,2,0,1,2,0,1,2,0,1,2,0,1,2,0,1,2,0,1,2,0,1,2,0,1,2,0,1,2,0,1,2,0,1,2,0,1,2,0,1,2,0,1,2,0,1,2,0,1,2,0,1,2,0,1,2,0,1,2,0,1,2,0,1,2,0,1,2,0,1,2,0,1,2,0,1,2,0,1,2,0,1,2,0,1,2,0,1,2,0,1,2,0,1,2,0,1,2,0,1,2,0,1,2,0,1,2,0,1,2,0,1,2,0,1,2,0,1,2,0,1,2,0,1,2,0,1,2,0,1,2,0,1,2,0,1,2,0,1,2,0,1,2,0,1,2,0,1,2,0,1,2,0,1,2,0,1,2,0,1,2,0,1,2,0,1,2,0,1,2,0,1,2,0,1,2,0,1,2,0,1,2,0,1,2,0,1,2,0,1,2,0,1,2,0,1,2,0,1,2,0,1,2,0,1,2,0,1,2,0,1,2,0,1,2,0,1,2,0,1,2,0,1,2,0,1,2,0,1,2,0,1,2,0,1,2,0,1,2,0,1,2,0,1,2,0,1,2,0,1,2,0,1,2,0,1,2,0,1,2,0,1,2,0,1,2,0,1,2,0,1,2,0,1,2,0,1,2,0,1,2,0,1,2,0,1,2,0,1,2,0,1,2,0,1,2,0,1,2,0,1,2,0,1,2,0,1,2,0,1,2,0,1,2,0,1,2,0,1,2,0,1,2,0,1,2,0,1,2,0,1,2,0,1,2,0,1,2,0,1,2,0,1,2,0,1,2,0,1,2,0,1,2,0,1,2,0,1,2,0,1,2,0,1,2,0,1,2,0,1,2,0,1,2,0,1,2,0,1,2,0,1,2,0,1,2,0,1,2,0,1,2,0,1,2,0,1,2,0,1,2,0,1,2,0,1,2,0,1,2,0,1,2,0,1,2,0,1,2,0,1,2,0,1,2,0,1,2,0,1,2,0,1,2,0,1,2,0,1,2,0,1,2,0,1,2,0,1,2,0,1,2,0,1,2,0,1,2,0,1,2,0,1,2,0,1,2,0,1,2,0,1,2,0,1,2,0,1,2,0,1,2,0,1,2,0,1,2,0,1,2,0,1,2,0,1,2,0,1,2,0,1,2,0,1,2,0,1,2,0,1,2,0,1,2,0,1,2,0,1,2,0,1,2,0,1,2,0,1,2,0,1,2,0,1,2,0,1,2,0,1,2,0,1,2,0,1,2,0,1,2,0,1,2,0,1,2,0,1,2,0,1,2,0,1,2,0,1,2,0,1,2,0,1,2,0,1,2,0,1,2,0,1,2,0,1,2,0,1,2,0,1,2,0,1,2,0,1,2,0,1,2,0,1,2,0,1,2,0,1,2,0,1,2,0,1,2,0,1,2,0,1,2,0,1,2,0,1,2,0,1,2,0,1,2,0,1,2,0,1,2,0,1,2,0,1,2,0,1,2,0,1,2,0,1,2,0,1,2,0,1,2,0,1,2,0,1,2,0,1,2,0,1,2,0,1,2,0,1,2,0,1,2,0,1,2,0,1,2,0,1,2,0,1,2,0,1,2,0,1,2,0,1,2,0,1,2,0,1,2,0,1,2,0,1,2,0,1,2,0,1,2,0,1,2,0,1,2,0,1,2,0,1,2,0,1,2,0,1,2,0,1,2,0,1,2,0,1,2,0,1,2,0,1,2,0,1,2,0,1,2,0,1,2,0,1,2,0,1,2,0,1,2,0,1,2,0,1,2,0,1,2,0,1,2,0,1,2],"trees":[{"base_weights":[1.939418E-4,-2.1584912E-1,3.8769898E-1,9.969868E-2,-4.1677082E-1,5.988984E-1,-1.565363E-1,4.7984233E-1,5.7397257E-3,-2.2607249E-1,-5.4001063E-1,9.391178E-1,4.8094386E-1,-2.721001E-1,2.514056E-1,-2.8923342E-3,3.6064398E-2,-4.3814457E-3,1.2307302E-2,-2.3904985E-2,-2.5967285E-3,-2.9861508E-2,-1.407754E-2,3.8558945E-2,6.0832944E-2,1.6917396E-2,4.0228434E-2,-1.8142482E-2,-6.905184E-3,2.4606416E-2,-1.2657851E-2],"categories":[],"categories_nodes":[],"categories_segments":[],"categories_sizes":[],"default_left":[0,0,0,0,0,0,0,0,0,0,0,0,0,0,0,0,0,0,0,0,0,0,0,0,0,0,0,0,0,0,0],"id":0,"left_children":[1,3,5,7,9,11,13,15,17,19,21,23,25,27,29,-1,-1,-1,-1,-1,-1,-1,-1,-1,-1,-1,-1,-1,-1,-1,-1],"loss_changes":[1.541023E2,7.497041E1,7.582922E1,1.6448038E1,1.6852219E1,1.8606125E1,8.7901E0,1.189012E1,8.333689E0,1.2494126E1,6.309555E0,4.7113266E0,1.609571E1,1.7087822E0,5.148077E0,0E0,0E0,0E0,0E0,0E0,0E0,0E0,0E0,0E0,0E0,0E0,0E0,0E0,0E0,0E0,0E0],"parents":[2147483647,0,0,1,1,2,2,3,3,4,4,5,5,6,6,7,7,8,8,9,9,10,10,11,11,12,12,13,13,14,14],"right_children":[2,4,6,8,10,12,14,16,18,20,22,24,26,28,30,-1,-1,-1,-1,-1,-1,-1,-1,-1,-1,-1,-1,-1,-1,-1,-1],"split_conditions":[4.057971E-1,3.0769232E-1,3.529412E-1,-8.9166665E-1,1.1170213E-1,-5.8687943E-1,6.625E-1,2.5503355E-1,3.3684212E-1,2.631579E-1,-7.8947365E-2,7.941176E-1,1.1413044E0,6.481481E-1,6.315789E-1,-2.8923342E-3,3.6064398E-2,-4.3814457E-3,1.2307302E-2,-2.3904985E-2,-2.5967285E-3,-2.9861508E-2,-1.407754E-2,3.8558945E-2,6.0832944E-2,1.6917396E-2,4.0228434E-2,-1.8142482E-2,-6.905184E-3,2.4606416E-2,-1.2657851E-2],"split_indices":[9,5,4,4,4,4,9,9,9,9,8,8,8,8,5,0,0,0,0,0,0,0,0,0,0,0,0,0,0,0,0],"split_type":[0,0,0,0,0,0,0,0,0,0,0,0,0,0,0,0,0,0,0,0,0,0,0,0,0,0,0,0,0,0,0],"sum_hessian":[1.8387362E3,1.1808358E3,6.5790045E2,4.5957556E2,7.2126025E2,4.738966E2,1.8400381E2,9.026602E1,3.6930954E2,2.8425116E2,4.3700906E2,1.2021004E2,3.5368658E2,1.4364449E2,4.0359325E1,2.8208132E1,6.2057888E1,2.6645834E2,1.0285119E2,1.15436356E2,1.6881482E2,3.5672437E2,8.028468E1,7.724689E1,4.2963154E1,2.4692964E2,1.0675693E2,8.46244E1,5.9020092E1,2.7340189E1,1.3019137E1],"tree_param":{"num_deleted":"0","num_feature":"10","num_nodes":"31","size_leaf_vector":"1"}},{"base_weights":[2.886523E-3,6.522476E-2,-2.5239795E-1,1.3930398E-1,-5.577317E-2,8.653592E-2,-3.3675686E-1,-1.1934071E-1,1.9756086E-1,3.0702323E-2,-2.7213037E-1,-2.2178866E-2,7.184961E-1,-2.4030262E-1,-5.0112724E-1,-1.3264373E-2,4.9954467E-3,1.710089E-2,6.864045E-3,3.8013512E-3,-1.1305541E-2,-2.0256273E-2,-4.2189597E-3,-4.348151E-3,4.5540802E-2,5.8374297E-2,-2.4807784E-3,-2.8258994E-2,-9.985677E-3,-2.7404694E-2,-1.2617524E-2],"categories":[],"categories_nodes":[],"categories_segments":[],"categories_sizes":[],"default_left":[0,0,0,0,0,0,0,0,0,0,0,0,0,0,0,0,0,0,0,0,0,0,0,0,0,0,0,0,0,0,0],"id":1,"left_children":[1,3,5,7,9,11,13,15,17,19,21,23,25,27,29,-1,-1,-1,-1,-1,-1,-1,-1,-1,-1,-1,-1,-1,-1,-1,-1],"loss_changes":[2.4996939E1,1.1323495E1,8.843689E0,1.1826482E1,8.991096E0,4.291663E0,3.7963886E0,4.6542606E0,5.5234222E0,4.020337E0,3.3917131E0,3.3473737E0,3.218565E0,1.9654732E0,9.184036E-1,0E0,0E0,0E0,0E0,0E0,0E0,0E0,0E0,0E0,0E0,0E0,0E0,0E0,0E0,0E0,0E0],"parents":[2147483647,0,0,1,1,2,2,3,3,4,4,5,5,6,6,7,7,8,8,9,9,10,10,11,11,12,12,13,13,14,14],"right_children":[2,4,6,8,10,12,14,16,18,20,22,24,26,28,30,-1,-1,-1,-1,-1,-1,-1,-1,-1,-1,-1,-1,-1,-1,-1,-1],"split_conditions":[5.263158E-1,1.5E0,1.1578947E0,-7.631579E-1,1.7105263E0,2.4594595E0,6.9902915E-1,1.5294118E0,2.6666668E-1,1.53E2,1.14E2,1.25E0,1.1388888E0,9.117647E-1,1.1170213E-1,-1.3264373E-2,4.9954467E-3,1.710089E-2,6.864045E-3,3.8013512E-3,-1.1305541E-2,-2.0256273E-2,-4.2189597E-3,-4.348151E-3,4.5540802E-2,5.8374297E-2,-2.4807784E-3,-2.8258994E-2,-9.985677E-3,-2.7404694E-2,-1.2617524E-2],"split_indices":[5,6,7,8,3,6,5,3,9,0,0,3,3,6,8,0,0,0,0,0,0,0,0,0,0,0,0,0,0,0,0],"split_type":[0,0,0,0,0,0,0,0,0,0,0,0,0,0,0,0,0,0,0,0,0,0,0,0,0,0,0,0,0,0,0],"sum_hessian":[1.5687185E3,1.2614323E3,3.0728622E2,7.8231805E2,4.7911417E2,6.1234573E1,2.4605165E2,1.4362291E2,6.386952E2,3.429136E2,1.3620055E2,5.3069965E1,8.16461E0,1.5661206E2,8.943959E1,8.6099525E1,5.7523388E1,1.8667267E2,4.520225E2,2.9207037E2,5.0843254E1,7.904827E1,5.715227E1,5.0472134E1,2.5978305E0,4.824542E0,3.3400676E0,1.5958101E1,1.4065396E2,7.4223724E1,1.5215864E1],"tree_param":{"num_deleted":"0","num_feature":"10","num_nodes":"31","size_leaf_vector":"1"}},{"base_weights":[4.26136E-3,-2.2152148E-1,4.588429E-1,1.9775566E-2,-4.2814487E-1,6.1797816E-1,-4.1133996E-2,-2.2349887E-1,1.652243E-1,-5.5073327E-1,-2.7604732E-1,4.7712228E-1,8.144385E-1,1.2968919E-1,-2.5355598E-1,-2.8509954E-2,-7.634993E-3,2.4520643E-2,3.523763E-3,-2.4523685E-2,-3.7863012E-2,-6.15788E-3,-2.1149116E-2,3.144989E-2,1.3333176E-2,5.30064E-2,3.7135497E-2,-1.8536704E-2,1.2699123E-2,-1.7586019E-2,1.1703173E-2],"categories":[],"categories_nodes":[],"categories_segments":[],"categories_sizes":[],"default_left":[0,0,0,0,0,0,0,0,0,0,0,0,0,0,0,0,0,0,0,0,0,0,0,0,0,0,0,0,0,0,0],"id":2,"left_children":[1,3,5,7,9,11,13,15,17,19,21,23,25,27,29,-1,-1,-1,-1,-1,-1,-1,-1,-1,-1,-1,-1,-1,-1,-1,-1],"loss_changes":[2.1549095E2,6.99495E1,5.546118E1,2.2968117E1,1.3939178E1,1.4238785E1,6.171082E0,5.875473E0,1.247959E1,4.824005E0,7.5698814E0,9.749733E0,3.0775452E0,5.96711E0,3.7076297E0,0E0,0E0,0E0,0E0,0E0,0E0,0E0,0E0,0E0,0E0,0E0,0E0,0E0,0E0,0E0,0E0],"parents":[2147483647,0,0,1,1,2,2,3,3,4,4,5,5,6,6,7,7,8,8,9,9,10,10,11,11,12,12,13,13,14,14],"right_children":[2,4,6,8,10,12,14,16,18,20,22,24,26,28,30,-1,-1,-1,-1,-1,-1,-1,-1,-1,-1,-1,-1,-1,-1,-1,-1],"split_conditions":[4.25E-1,3.263158E-1,4.3103448E-1,2.6666668E-1,2.9473683E-1,5.981308E-1,6.179775E-1,1.25E-1,-7.941176E-1,8.7664586E-1,4.814815E-1,-2E-1,-5.8687943E-1,1.5434783E0,7.119565E-1,-2.8509954E-2,-7.634993E-3,2.4520643E-2,3.523763E-3,-2.4523685E-2,-3.7863012E-2,-6.15788E-3,-2.1149116E-2,3.144989E-2,1.3333176E-2,5.30064E-2,3.7135497E-2,-1.8536704E-2,1.2699123E-2,-1.7586019E-2,1.1703173E-2],"split_indices":[5,9,8,5,5,5,9,5,8,8,9,8,8,2,5,0,0,0,0,0,0,0,0,0,0,0,0,0,0,0,0],"split_type":[0,0,0,0,0,0,0,0,0,0,0,0,0,0,0,0,0,0,0,0,0,0,0,0,0,0,0,0,0,0,0],"sum_hessian":[2.09756E3,1.4018153E3,6.957449E2,6.470673E2,7.54748E2,5.2758606E2,1.6815883E2,2.419127E2,4.051546E2,4.1646353E2,3.3828442E2,3.0927457E2,2.1831146E2,9.342157E1,7.473726E1,3.982709E1,2.0208562E2,9.047142E1,3.146832E2,3.2500873E2,9.14548E1,1.6668375E2,1.7160068E2,1.7848438E2,1.307902E2,4.6219093E1,1.7209238E2,1.8192621E1,7.522895E1,6.2444946E1,1.2292312E1],"tree_param":{"num_deleted":"0","num_feature":"10","num_nodes":"31","size_leaf_vector":"1"}},{"base_weights":[1.0620264E-2,-1.3615337E-1,4.9465162E-1,-3.4910333E-1,1.01005316E-1,1.73343E-1,7.9166526E-1,-1.1589671E-1,-4.7404543E-1,-2.0140274E-1,2.2421171E-1,4.483916E-1,-4.6013135E-2,6.376487E-1,9.8218036E-1,-1.1129796E-2,2.0262958E-2,-2.852337E-2,-1.4538203E-2,3.5707483E-3,-1.8218074E-2,3.256807E-3,2.3505416E-2,9.136302E-3,3.5473686E-2,-1.702821E-2,1.6333964E-3,2.7809566E-2,5.993546E-2,4.0151205E-2,5.7194915E-2],"categories":[],"categories_nodes":[],"categories_segments":[],"categories_sizes":[],"default_left":[0,0,0,0,0,0,0,0,0,0,0,0,0,0,0,0,0,0,0,0,0,0,0,0,0,0,0,0,0,0,0],"id":3,"left_children":[1,3,5,7,9,11,13,15,17,19,21,23,25,27,29,-1,-1,-1,-1,-1,-1,-1,-1,-1,-1,-1,-1,-1,-1,-1,-1],"loss_changes":[1.3223933E2,7.2171135E1,4.1194725E1,2.1879974E1,2.5252073E1,1.2649735E1,5.9692535E0,1.4767418E1,8.49118E0,8.756273E0,1.8790844E1,6.3184032E0,2.7309456E0,5.1441765E0,1.939064E0,0E0,0E0,0E0,0E0,0E0,0E0,0E0,0E0,0E0,0E0,0E0,0E0,0E0,0E0,0E0,0E0],"parents":[2147483647,0,0,1,1,2,2,3,3,4,4,5,5,6,6,7,7,8,8,9,9,10,10,11,11,12,12,13,13,14,14],"right_children":[2,4,6,8,10,12,14,16,18,20,22,24,26,28,30,-1,-1,-1,-1,-1,-1,-1,-1,-1,-1,-1,-1,-1,-1,-1,-1],"split_conditions":[5.034965E-1,1.4208999E0,1.3919355E0,1.2945479E0,2.5503355E-1,1.4854167E0,2.1034484E0,3.9473686E-1,-9.8182626E-2,1.1029412E0,1.6764706E0,1.0862069E0,1.0172414E0,2.0789473E0,1.6315789E0,-1.1129796E-2,2.0262958E-2,-2.852337E-2,-1.4538203E-2,3.5707483E-3,-1.8218074E-2,3.256807E-3,2.3505416E-2,9.136302E-3,3.5473686E-2,-1.702821E-2,1.6333964E-3,2.7809566E-2,5.993546E-2,4.0151205E-2,5.7194915E-2],"split_indices":[9,3,3,2,9,2,6,9,8,2,3,8,3,3,3,0,0,0,0,0,0,0,0,0,0,0,0,0,0,0,0],"split_type":[0,0,0,0,0,0,0,0,0,0,0,0,0,0,0,0,0,0,0,0,0,0,0,0,0,0,0,0,0,0,0],"sum_hessian":[1.8594495E3,1.4273503E3,4.320991E2,7.518109E2,6.755394E2,2.0832126E2,2.2377783E2,2.6294574E2,4.8886514E2,1.9537067E2,4.801688E2,9.196416E1,1.1635711E2,1.2614581E2,9.763201E1,2.1873563E2,4.421011E1,3.1895468E2,1.6991048E2,7.3269E1,1.2210168E2,2.9232358E2,1.8784521E2,4.642451E1,4.5539642E1,2.382758E1,9.252953E1,1.1189211E2,1.42537E1,4.9148895E1,4.8483116E1],"tree_param":{"num_deleted":"0","num_feature":"10","num_nodes":"31","size_leaf_vector":"1"}},{"base_weights":[4.7529107E-3,7.280516E-2,-2.4533169E-1,1.2267675E-1,-1.5517138E-1,4.7825806E-2,-3.24092E-1,1.5544848E-1,-8.332305E-2,-3.1435555E-1,-6.686372E-2,-2.7402654E-2,6.503187E-1,-2.4468878E-1,-4.8100176E-1,-2.8909264E-2,8.098622E-3,-8.94222E-3,1.3048485E-2,-2.1165313E-2,-8.4539745E-3,2.5522444E-2,-5.4202657E-3,2.2732487E-2,-6.757623E-3,4.2897772E-2,-1.7381035E-2,-2.4946732E-2,-9.049392E-3,-2.6090998E-2,-7.559643E-3],"categories":[],"categories_nodes":[],"categories_segments":[],"categories_sizes":[],"default_left":[0,0,0,0,0,0,0,0,0,0,0,0,0,0,0,0,0,0,0,0,0,0,0,0,0,0,0,0,0,0,0],"id":4,"left_children":[1,3,5,7,9,11,13,15,17,19,21,23,25,27,29,-1,-1,-1,-1,-1,-1,-1,-1,-1,-1,-1,-1,-1,-1,-1,-1],"loss_changes":[2.6963057E1,1.417819E1,7.8404636E0,6.9150352E0,3.1274185E0,3.310199E0,3.2121525E0,4.317028E0,4.6829495E0,1.1890569E0,3.5406528E0,3.4654741E0,1.9773846E0,2.8167448E0,1.1161003E0,0E0,0E0,0E0,0E0,0E0,0E0,0E0,0E0,0E0,0E0,0E0,0E0,0E0,0E0,0E0,0E0],"parents":[2147483647,0,0,1,1,2,2,3,3,4,4,5,5,6,6,7,7,8,8,9,9,10,10,11,11,12,12,13,13,14,14],"right_children":[2,4,6,8,10,12,14,16,18,20,22,24,26,28,30,-1,-1,-1,-1,-1,-1,-1,-1,-1,-1,-1,-1,-1,-1,-1,-1],"split_conditions":[5.5263156E-1,1.9042553E0,1.1718488E0,1.8703704E0,-4.0669325E-1,1.62E2,6.9902915E-1,7.8947365E-2,1.5E2,1.15E2,1.1E1,5.37037E-1,2.4355848E0,-6.7688173E-1,1.71E2,-2.8909264E-2,8.098622E-3,-8.94222E-3,1.3048485E-2,-2.1165313E-2,-8.4539745E-3,2.5522444E-2,-5.4202657E-3,2.2732487E-2,-6.757623E-3,4.2897772E-2,-1.7381035E-2,-2.4946732E-2,-9.049392E-3,-2.6090998E-2,-7.559643E-3],"split_indices":[4,6,7,7,4,1,5,5,0,1,0,5,2,8,0,0,0,0,0,0,0,0,0,0,0,0,0,0,0,0,0],"split_type":[0,0,0,0,0,0,0,0,0,0,0,0,0,0,0,0,0,0,0,0,0,0,0,0,0,0,0,0,0,0,0],"sum_hessian":[1.5822589E3,1.2443572E3,3.3790176E2,1.02138367E3,2.2297354E2,7.163997E1,2.6626178E2,8.81409E2,1.3997466E2,7.864591E1,1.4432762E2,6.4536354E1,7.103619E0,1.7849495E2,8.776684E1,6.9966307E0,8.744124E2,1.09950325E2,3.0024323E1,4.3848015E1,3.4797897E1,8.930523E0,1.353971E2,1.1201857E1,5.3334496E1,5.9962745E0,1.1073444E0,3.439275E1,1.441022E2,7.758276E1,1.0184073E1],"tree_param":{"num_deleted":"0","num_feature":"10","num_nodes":"31","size_leaf_vector":"1"}},{"base_weights":[-1.2641901E-2,-2.1969895E-1,4.254094E-1,-3.27279E-2,-4.3776807E-1,-2.9131401E-2,5.714871E-1,-2.7938494E-1,1.2304946E-1,-5.5988365E-1,-2.9788092E-1,-3.1700903E-1,3.6326995E-1,4.6037441E-1,7.336017E-1,3.0140355E-2,-1.5350583E-2,2.8941602E-2,3.557108E-3,-2.3566501E-2,-3.368701E-2,-3.9051443E-3,-2.1194682E-2,-5.5110245E-3,-2.2025544E-2,3.5856053E-2,8.010774E-3,1.8501636E-2,3.618371E-2,3.7732866E-2,-8.8972915E-3],"categories":[],"categories_nodes":[],"categories_segments":[],"categories_sizes":[],"default_left":[0,0,0,0,0,0,0,0,0,0,0,0,0,0,0,0,0,0,0,0,0,0,0,0,0,0,0,0,0,0,0],"id":5,"left_children":[1,3,5,7,9,11,13,15,17,19,21,23,25,27,29,-1,-1,-1,-1,-1,-1,-1,-1,-1,-1,-1,-1,-1,-1,-1,-1],"loss_changes":[1.8973721E2,5.79E1,4.4598495E1,2.9459944E1,1.1032494E1,1.8669607E1,8.816086E0,7.41737E0,1.1080065E1,3.2001877E0,8.488678E0,2.384738E0,4.9127617E0,6.9683E0,4.068428E0,0E0,0E0,0E0,0E0,0E0,0E0,0E0,0E0,0E0,0E0,0E0,0E0,0E0,0E0,0E0,0E0],"parents":[2147483647,0,0,1,1,2,2,3,3,4,4,5,5,6,6,7,7,8,8,9,9,10,10,11,11,12,12,13,13,14,14],"right_children":[2,4,6,8,10,12,14,16,18,20,22,24,26,28,30,-1,-1,-1,-1,-1,-1,-1,-1,-1,-1,-1,-1,-1,-1,-1,-1],"split_conditions":[4.3137255E-1,3.6666667E-1,1.1979166E0,2.6666668E-1,2.9473683E-1,5.981308E-1,5.981308E-1,7.0430106E-1,1.3636364E-1,1.8125E0,1.6818181E0,5.3333336E-1,5.034965E-1,1.75E0,5.5789477E-1,3.0140355E-2,-1.5350583E-2,2.8941602E-2,3.557108E-3,-2.3566501E-2,-3.368701E-2,-3.9051443E-3,-2.1194682E-2,-5.5110245E-3,-2.2025544E-2,3.5856053E-2,8.010774E-3,1.8501636E-2,3.618371E-2,3.7732866E-2,-8.8972915E-3],"split_indices":[5,9,7,5,5,5,5,6,9,6,6,9,9,7,9,0,0,0,0,0,0,0,0,0,0,0,0,0,0,0,0],"split_type":[0,0,0,0,0,0,0,0,0,0,0,0,0,0,0,0,0,0,0,0,0,0,0,0,0,0,0,0,0,0,0],"sum_hessian":[2.0898533E3,1.4194224E3,6.704307E2,7.6482043E2,6.54602E2,1.6325162E2,5.0717914E2,2.9574536E2,4.6907507E2,3.4789868E2,3.0670328E2,9.4278305E1,6.897331E1,3.03204E2,2.0397513E2,8.348143E0,2.8739722E2,4.6921352E1,4.2215375E2,1.9858548E2,1.493132E2,1.1235878E2,1.943445E2,3.5960075E1,5.8318226E1,2.4225422E1,4.474789E1,2.2753802E2,7.5665985E1,1.9953813E2,4.4369845E0],"tree_param":{"num_deleted":"0","num_feature":"10","num_nodes":"31","size_leaf_vector":"1"}},{"base_weights":[-9.3858605E-3,1.9129094E-1,-3.6160114E-1,6.2733423E-3,6.5189475E-1,-5.7074827E-1,-1.3383612E-1,3.875682E-1,-9.67868E-2,3.8130456E-1,7.656625E-1,-3.369413E-2,-5.4344535E-1,-2.1386516E-1,2.9574367E-1,-3.497128E-3,2.865884E-2,-1.0179236E-2,3.2051937E-3,5.566862E-2,1.7324328E-2,4.201849E-2,1.8412055E-2,-2.3668049E-2,-2.9445989E-2,-4.537568E-3,-2.0443872E-2,1.0145829E-2,5.1297843E-2],"categories":[],"categories_nodes":[],"categories_segments":[],"categories_sizes":[],"default_left":[0,0,0,0,0,0,0,0,0,0,0,0,0,0,0,0,0,0,0,0,0,0,0,0,0,0,0,0,0],"id":6,"left_children":[1,3,5,7,9,11,13,15,17,19,21,-1,23,25,27,-1,-1,-1,-1,-1,-1,-1,-1,-1,-1,-1,-1,-1,-1],"loss_changes":[1.2982343E2,9.9712494E1,3.1680466E1,3.2881283E1,1.0030457E1,6.1151123E-1,1.1079198E1,1.5158825E1,1.1332361E1,2.1948147E0,6.669815E0,0E0,6.126709E-1,6.4617653E0,3.2311354E0,0E0,0E0,0E0,0E0,0E0,0E0,0E0,0E0,0E0,0E0,0E0,0E0,0E0,0E0],"parents":[2147483647,0,0,1,1,2,2,3,3,4,4,5,5,6,6,7,7,8,8,9,9,10,10,12,12,13,13,14,14],"right_children":[2,4,6,8,10,12,14,16,18,20,22,-1,24,26,28,-1,-1,-1,-1,-1,-1,-1,-1,-1,-1,-1,-1,-1,-1],"split_conditions":[1.1170213E-1,4.7058824E-1,-9.8182626E-2,-6.7688173E-1,1.421123E0,9.411765E-1,6.625E-1,2.5503355E-1,3.2352942E-1,1.0543479E0,3.6666667E-1,-3.369413E-2,1.1077127E0,5.882353E-1,1.3919355E0,-3.497128E-3,2.865884E-2,-1.0179236E-2,3.2051937E-3,5.566862E-2,1.7324328E-2,4.201849E-2,1.8412055E-2,-2.3668049E-2,-2.9445989E-2,-4.537568E-3,-2.0443872E-2,1.0145829E-2,5.1297843E-2],"split_indices":[4,9,8,4,3,6,9,9,9,3,5,0,6,5,3,0,0,0,0,0,0,0,0,0,0,0,0,0,0],"split_type":[0,0,0,0,0,0,0,0,0,0,0,0,0,0,0,0,0,0,0,0,0,0,0,0,0,0,0,0,0],"sum_hessian":[1.8347611E3,1.1691102E3,6.656508E2,8.347981E2,3.343122E2,3.462229E2,3.1942795E2,1.7703935E2,6.577587E2,1.0024252E2,2.3406966E2,6.7513855E1,2.7870905E2,2.6968823E2,4.973971E1,5.1274612E1,1.2576474E2,3.9517767E2,2.6258105E2,3.144782E0,9.709774E1,1.9609341E2,3.7976242E1,1.1416673E2,1.6454231E2,1.6621799E2,1.0347023E2,4.526355E1,4.476164E0],"tree_param":{"num_deleted":"0","num_feature":"10","num_nodes":"29","size_leaf_vector":"1"}},{"base_weights":[3.8294974E-3,5.8293585E-2,-2.2117035E-1,1.3755792E-1,-7.314863E-2,-2.5044286E-1,6.684535E-1,-4.7294775E-1,1.5708727E-1,-3.0237652E-4,-2.680023E-1,-3.8469365E-1,-1.4532514E-1,8.321217E-1,-1.7488232E-2,-2.7282936E-2,2.0483961E-2,8.414908E-3,-1.0547883E-2,6.8978296E-4,-2.4651924E-2,-1.9053314E-2,1.6474033E-3,-1.5855977E-2,-2.9891936E-2,8.136794E-3,-8.74215E-3,4.929934E-2,1.6706523E-2],"categories":[],"categories_nodes":[],"categories_segments":[],"categories_sizes":[],"default_left":[0,0,0,0,0,0,0,0,0,0,0,0,0,0,0,0,0,0,0,0,0,0,0,0,0,0,0,0,0],"id":7,"left_children":[1,3,5,7,9,11,13,15,17,19,21,23,25,27,-1,-1,-1,-1,-1,-1,-1,-1,-1,-1,-1,-1,-1,-1,-1],"loss_changes":[1.956581E1,1.340238E1,8.270693E0,9.638857E0,6.872891E0,4.2057133E0,1.9884019E0,1.8353796E0,3.2460022E0,2.4620419E0,4.4959116E0,1.711729E0,1.5831838E0,3.6557674E-1,0E0,0E0,0E0,0E0,0E0,0E0,0E0,0E0,0E0,0E0,0E0,0E0,0E0,0E0,0E0],"parents":[2147483647,0,0,1,1,2,2,3,3,4,4,5,5,6,6,7,7,8,8,9,9,10,10,11,11,12,12,13,13],"right_children":[2,4,6,8,10,12,14,16,18,20,22,24,26,28,-1,-1,-1,-1,-1,-1,-1,-1,-1,-1,-1,-1,-1,-1,-1],"split_conditions":[5.263158E-1,1.5E0,1.5301418E0,-1.5789474E0,1.7105263E0,1.2352941E0,1.2894737E0,1.48E2,2.264706E0,1.72E2,1.41E2,2.4594595E0,1.3333334E0,1.71E2,-1.7488232E-2,-2.7282936E-2,2.0483961E-2,8.414908E-3,-1.0547883E-2,6.8978296E-4,-2.4651924E-2,-1.9053314E-2,1.6474033E-3,-1.5855977E-2,-2.9891936E-2,8.136794E-3,-8.74215E-3,4.929934E-2,1.6706523E-2],"split_indices":[5,6,8,8,3,6,3,0,3,0,1,2,6,1,0,0,0,0,0,0,0,0,0,0,0,0,0,0,0],"split_type":[0,0,0,0,0,0,0,0,0,0,0,0,0,0,0,0,0,0,0,0,0,0,0,0,0,0,0,0,0],"sum_hessian":[1.5945819E3,1.284414E3,3.101679E2,8.0120953E2,4.8320447E2,3.0098273E2,9.185158E0,2.4115602E1,7.7709393E2,3.524443E2,1.3076015E2,1.3100739E2,1.6997536E2,8.07065E0,1.1145076E0,2.2632881E1,1.4827211E0,7.5464954E2,2.2444376E1,3.4358572E2,8.8585825E0,9.485709E1,3.590305E1,1.0136052E2,2.9646864E1,1.4468E1,1.5550735E2,5.417018E0,2.6536324E0],"tree_param":{"num_deleted":"0","num_feature":"10","num_nodes":"29","size_leaf_vector":"1"}},{"base_weights":[-6.065918E-3,-1.9103627E-1,4.705743E-1,-3.426191E-2,-4.4668302E-1,6.0333157E-1,5.7387162E-2,-3.6623466E-1,5.6397203E-2,-3.7207234E-1,-6.410065E-1,4.8535657E-1,7.8985953E-1,1.0639182E-1,-6.630341E-1,2.7743652E-2,-1.9492032E-2,2.1668807E-2,-2.0580292E-4,-2.3835048E-2,-9.773941E-3,-3.3516023E-2,-1.4099853E-2,4.2515E-2,2.0233274E-2,4.498806E-2,3.1010497E-2,1.745516E-2,-2.2013702E-4,-6.0410486E-3,-3.7487924E-2],"categories":[],"categories_nodes":[],"categories_segments":[],"categories_sizes":[],"default_left":[0,0,0,0,0,0,0,0,0,0,0,0,0,0,0,0,0,0,0,0,0,0,0,0,0,0,0,0,0,0,0],"id":8,"left_children":[1,3,5,7,9,11,13,15,17,19,21,23,25,27,29,-1,-1,-1,-1,-1,-1,-1,-1,-1,-1,-1,-1,-1,-1,-1,-1],"loss_changes":[1.8482094E2,6.0512543E1,3.2114243E1,2.8227556E1,8.083687E0,9.37529E0,5.141021E0,4.590637E0,1.6815365E1,7.614155E0,1.4722977E0,7.7317505E0,2.6156387E0,3.6409187E0,3.4605312E-1,0E0,0E0,0E0,0E0,0E0,0E0,0E0,0E0,0E0,0E0,0E0,0E0,0E0,0E0,0E0,0E0],"parents":[2147483647,0,0,1,1,2,2,3,3,4,4,5,5,6,6,7,7,8,8,9,9,10,10,11,11,12,12,13,13,14,14],"right_children":[2,4,6,8,10,12,14,16,18,20,22,24,26,28,30,-1,-1,-1,-1,-1,-1,-1,-1,-1,-1,-1,-1,-1,-1,-1,-1],"split_conditions":[3.6031452E-1,3.9473686E-1,4.169601E-1,-5.8687943E-1,1.1413044E0,1.1413044E0,1.3919355E0,7.0430106E-1,-8.8235295E-1,1.3E0,1.2278369E-1,-6.9503546E-1,1.25E0,3.5E1,8.1440496E-1,2.7743652E-2,-1.9492032E-2,2.1668807E-2,-2.0580292E-4,-2.3835048E-2,-9.773941E-3,-3.3516023E-2,-1.4099853E-2,4.2515E-2,2.0233274E-2,4.498806E-2,3.1010497E-2,1.745516E-2,-2.2013702E-4,-6.0410486E-3,-3.7487924E-2],"split_indices":[4,9,8,4,8,4,3,6,8,2,4,8,6,0,8,0,0,0,0,0,0,0,0,0,0,0,0,0,0,0,0],"split_type":[0,0,0,0,0,0,0,0,0,0,0,0,0,0,0,0,0,0,0,0,0,0,0,0,0,0,0,0,0,0,0],"sum_hessian":[2.0943042E3,1.5092189E3,5.850852E2,9.3621985E2,5.729991E2,4.4246182E2,1.426234E2,2.0017725E2,7.360426E2,4.1613748E2,1.5686162E2,2.7324332E2,1.6921849E2,1.3433775E2,8.285633E0,4.439558E0,1.9573769E2,1.00956024E2,6.3508655E2,2.602465E2,1.5589096E2,1.442187E2,1.2642913E1,4.7749214E1,2.2549411E2,1.00080925E2,6.913757E1,4.1429523E1,9.290823E1,1.4725024E0,6.8131304E0],"tree_param":{"num_deleted":"0","num_feature":"10","num_nodes":"31","size_leaf_vector":"1"}},{"base_weights":[4.5941286E-3,-1.5728489E-1,3.9538342E-1,-3.6946288E-1,2.8971544E-2,8.973392E-2,6.735357E-1,-1.6430232E-1,-4.843725E-1,-2.1910517E-2,7.4512565E-1,3.9795688E-1,-9.183462E-2,8.876239E-1,5.475463E-1,-1.472643E-2,2.3873502E-3,-2.6821638E-2,-1.6744183E-2,-1.3770334E-2,4.603981E-3,1.0029633E-2,4.49066E-2,1.2927097E-2,3.2382034E-2,-1.1656045E-2,-1.2353881E-3,4.0894274E-2,5.276035E-2,1.702251E-2,4.1674312E-2],"categories":[],"categories_nodes":[],"categories_segments":[],"categories_sizes":[],"default_left":[0,0,0,0,0,0,0,0,0,0,0,0,0,0,0,0,0,0,0,0,0,0,0,0,0,0,0,0,0,0,0],"id":9,"left_children":[1,3,5,7,9,11,13,15,17,19,21,23,25,27,29,-1,-1,-1,-1,-1,-1,-1,-1,-1,-1,-1,-1,-1,-1,-1,-1],"loss_changes":[1.1720147E2,5.1782864E1,4.6074425E1,1.4359535E1,2.5471506E1,1.4570356E1,7.1730194E0,6.1279316E0,2.8716736E0,1.8900085E1,3.683113E0,3.1903057E0,1.5519189E0,3.4757233E-1,1.0456219E1,0E0,0E0,0E0,0E0,0E0,0E0,0E0,0E0,0E0,0E0,0E0,0E0,0E0,0E0,0E0,0E0],"parents":[2147483647,0,0,1,1,2,2,3,3,4,4,5,5,6,6,7,7,8,8,9,9,10,10,11,11,12,12,13,13,14,14],"right_children":[2,4,6,8,10,12,14,16,18,20,22,24,26,28,30,-1,-1,-1,-1,-1,-1,-1,-1,-1,-1,-1,-1,-1,-1,-1,-1],"split_conditions":[4.6875E-1,1.382353E0,1.3919355E0,1.25E0,2.1578948E0,1.3461539E0,1.1029412E0,3.1782946E-1,-7.8947365E-2,2.5503355E-1,2.5503355E-1,8.9E1,5.1724136E-1,2.0882354E0,1.0666667E0,-1.472643E-2,2.3873502E-3,-2.6821638E-2,-1.6744183E-2,-1.3770334E-2,4.603981E-3,1.0029633E-2,4.49066E-2,1.2927097E-2,3.2382034E-2,-1.1656045E-2,-1.2353881E-3,4.0894274E-2,5.276035E-2,1.702251E-2,4.1674312E-2],"split_indices":[9,3,3,2,3,2,2,9,8,9,9,1,9,3,8,0,0,0,0,0,0,0,0,0,0,0,0,0,0,0,0],"split_type":[0,0,0,0,0,0,0,0,0,0,0,0,0,0,0,0,0,0,0,0,0,0,0,0,0,0,0,0,0,0,0],"sum_hessian":[1.8506945E3,1.3090403E3,5.416542E2,6.114782E2,6.97562E2,2.587012E2,2.8295297E2,2.204015E2,3.9107672E2,6.521937E2,4.536833E1,9.5460236E1,1.6324097E2,1.0258666E2,1.8036629E2,1.3630392E2,8.409757E1,2.8814154E2,1.0293518E2,2.0186394E2,4.5032977E2,1.045854E1,3.490979E1,6.256279E1,3.2897446E1,5.1781086E1,1.1145987E2,7.659337E1,2.5993298E1,1.0587523E2,7.4491066E1],"tree_param":{"num_deleted":"0","num_feature":"10","num_nodes":"31","size_leaf_vector":"1"}},{"base_weights":[-4.8111103E-4,5.659239E-2,-2.4475843E-1,1.3095857E-1,-6.718453E-2,-3.938134E-1,-8.309864E-2,2.040923E-1,-1.3435095E-2,1.1336049E-2,-2.833963E-1,-4.0502614E-1,3.1050166E-2,-1.1724672E-1,6.6007054E-1,2.6086241E-2,8.854726E-3,-1.6225353E-2,1.223162E-3,-2.3539562E-2,1.9298269E-3,-2.0349145E-2,1.3238546E-3,-2.134117E-2,9.5863326E-4,-8.780511E-3,7.239926E-3,4.2869944E-2,1.01487E-4],"categories":[],"categories_nodes":[],"categories_segments":[],"categories_sizes":[],"default_left":[0,0,0,0,0,0,0,0,0,0,0,0,0,0,0,0,0,0,0,0,0,0,0,0,0,0,0,0,0],"id":10,"left_children":[1,3,5,7,9,11,13,15,17,19,21,23,-1,25,27,-1,-1,-1,-1,-1,-1,-1,-1,-1,-1,-1,-1,-1,-1],"loss_changes":[2.1873312E1,1.171525E1,7.1271763E0,8.395832E0,8.117873E0,2.0076103E0,3.7269602E0,4.4323483E0,3.169218E0,4.639253E0,4.8888674E0,1.4251614E0,0E0,2.141199E0,8.381934E-1,0E0,0E0,0E0,0E0,0E0,0E0,0E0,0E0,0E0,0E0,0E0,0E0,0E0,0E0],"parents":[2147483647,0,0,1,1,2,2,3,3,4,4,5,5,6,6,7,7,8,8,9,9,10,10,11,11,13,13,14,14],"right_children":[2,4,6,8,10,12,14,16,18,20,22,24,-1,26,28,-1,-1,-1,-1,-1,-1,-1,-1,-1,-1,-1,-1,-1,-1],"split_conditions":[5.263158E-1,1.5E0,-9.8182626E-2,1.5833334E0,1.7105263E0,1.71875E0,2.6852355E0,2.2950819E-1,7.0430106E-1,1.5159575E0,1.41E2,1.71E2,3.1050166E-2,1.42E2,1.1388888E0,2.6086241E-2,8.854726E-3,-1.6225353E-2,1.223162E-3,-2.3539562E-2,1.9298269E-3,-2.0349145E-2,1.3238546E-3,-2.134117E-2,9.5863326E-4,-8.780511E-3,7.239926E-3,4.2869944E-2,1.01487E-4],"split_indices":[5,6,8,7,3,6,6,9,6,6,1,0,0,1,3,0,0,0,0,0,0,0,0,0,0,0,0,0,0],"split_type":[0,0,0,0,0,0,0,0,0,0,0,0,0,0,0,0,0,0,0,0,0,0,0,0,0,0,0,0,0],"sum_hessian":[1.5669125E3,1.2707743E3,2.961382E2,7.9379663E2,4.7697757E2,1.5332869E2,1.4280952E2,5.266441E2,2.6715256E2,3.5059958E2,1.2637798E2,1.5224739E2,1.0813011E0,1.3734105E2,5.468486E0,3.9820896E1,4.868232E2,2.8191591E1,2.3896095E2,1.7892038E1,3.3270755E2,9.0121506E1,3.6256477E1,1.448007E2,7.446688E0,1.1259369E2,2.4747353E1,3.9738734E0,1.4946123E0],"tree_param":{"num_deleted":"0","num_feature":"10","num_nodes":"29","size_leaf_vector":"1"}},{"base_weights":[4.444186E-3,-2.118308E-1,3.907262E-1,-1.7487839E-2,-4.030322E-1,5.345358E-1,-4.8115347E-2,-4.1419327E-1,5.76424E-2,-5.125487E-1,-2.2533786E-1,4.2047203E-1,7.4026597E-1,-4.24919E-1,5.8440585E-2,2.9136434E-2,-2.2436032E-2,-2.1561173E-4,1.8839834E-2,-2.1145498E-2,-3.1668086E-2,-3.1256161E-3,-2.0670954E-2,3.2344267E-2,1.50734885E-2,2.0548379E-2,3.7772585E-2,-2.9095212E-2,6.614543E-3,1.3889759E-2,-5.8558728E-3],"categories":[],"categories_nodes":[],"categories_segments":[],"categories_sizes":[],"default_left":[0,0,0,0,0,0,0,0,0,0,0,0,0,0,0,0,0,0,0,0,0,0,0,0,0,0,0,0,0,0,0],"id":11,"left_children":[1,3,5,7,9,11,13,15,17,19,21,23,25,27,29,-1,-1,-1,-1,-1,-1,-1,-1,-1,-1,-1,-1,-1,-1,-1,-1],"loss_changes":[1.736602E2,4.951062E1,4.7111626E1,1.975202E1,1.295578E1,1.2877487E1,7.4554615E0,3.8935585E0,1.1023099E1,4.2240067E0,7.87234E0,9.609245E0,6.8540955E-1,3.6563187E0,5.6221676E0,0E0,0E0,0E0,0E0,0E0,0E0,0E0,0E0,0E0,0E0,0E0,0E0,0E0,0E0,0E0,0E0],"parents":[2147483647,0,0,1,1,2,2,3,3,4,4,5,5,6,6,7,7,8,8,9,9,10,10,11,11,12,12,13,13,14,14],"right_children":[2,4,6,8,10,12,14,16,18,20,22,24,26,28,30,-1,-1,-1,-1,-1,-1,-1,-1,-1,-1,-1,-1,-1,-1,-1,-1],"split_conditions":[4.2028984E-1,-1.1764706E-1,4.169601E-1,2.0588236E-1,-2.4090375E-1,6E-1,3.529412E-1,7.0430106E-1,1.9541667E0,1.8125E0,1.7592592E0,-4.2105263E-1,2E1,1.25E0,8.0050504E-1,2.9136434E-2,-2.2436032E-2,-2.1561173E-4,1.8839834E-2,-2.1145498E-2,-3.1668086E-2,-3.1256161E-3,-2.0670954E-2,3.2344267E-2,1.50734885E-2,2.0548379E-2,3.7772585E-2,-2.9095212E-2,6.614543E-3,1.3889759E-2,-5.8558728E-3],"split_indices":[5,8,8,5,4,5,4,6,7,6,6,8,0,7,8,0,0,0,0,0,0,0,0,0,0,0,0,0,0,0,0],"split_type":[0,0,0,0,0,0,0,0,0,0,0,0,0,0,0,0,0,0,0,0,0,0,0,0,0,0,0,0,0,0,0],"sum_hessian":[2.076698E3,1.3316011E3,7.450969E2,6.609167E2,6.706844E2,5.610283E2,1.8406862E2,1.0451894E2,5.5639777E2,4.1377966E2,2.5690475E2,3.628794E2,1.9814893E2,3.9919018E1,1.4414961E2,2.9672427E0,1.015517E2,4.6677356E2,8.962419E1,2.4012015E2,1.7365952E2,1.3841156E2,1.18493195E2,1.234906E2,2.3938878E2,9.971984E0,1.8817694E2,3.1109955E1,8.809065E0,6.3822685E1,8.032692E1],"tree_param":{"num_deleted":"0","num_feature":"10","num_nodes":"31","size_leaf_vector":"1"}},{"base_weights":[-3.9203004E-3,1.8497482E-1,-3.4436747E-1,-4.707286E-3,5.3780025E-1,-5.1653063E-1,-5.259428E-2,3.6670983E-1,-7.829756E-2,4.1345268E-1,7.837428E-1,-5.535382E-1,-3.4327886E-1,8.495423E-2,-2.9382637E-1,2.3355454E-2,-2.5532262E-3,-9.8437555E-3,5.443951E-3,2.92757E-2,8.373871E-3,2.6285177E-2,4.355089E-2,-1.4733056E-2,-2.8050413E-2,-1.0639369E-2,-3.1417906E-2,-2.5764268E-3,2.0143745E-2,-3.6263203E-3,-2.0523317E-2],"categories":[],"categories_nodes":[],"categories_segments":[],"categories_sizes":[],"default_left":[0,0,0,0,0,0,0,0,0,0,0,0,0,0,0,0,0,0,0,0,0,0,0,0,0,0,0,0,0,0,0],"id":12,"left_children":[1,3,5,7,9,11,13,15,17,19,21,23,25,27,29,-1,-1,-1,-1,-1,-1,-1,-1,-1,-1,-1,-1,-1,-1,-1,-1],"loss_changes":[1.1831917E2,7.919592E1,3.2952904E1,2.1090645E1,1.23292465E1,2.4566727E0,8.146139E0,5.376156E0,1.4314346E1,1.1622017E1,2.645935E0,4.893036E-1,2.6670494E0,6.817926E0,2.270187E0,0E0,0E0,0E0,0E0,0E0,0E0,0E0,0E0,0E0,0E0,0E0,0E0,0E0,0E0,0E0,0E0],"parents":[2147483647,0,0,1,1,2,2,3,3,4,4,5,5,6,6,7,7,8,8,9,9,10,10,11,11,12,12,13,13,14,14],"right_children":[2,4,6,8,10,12,14,16,18,20,22,24,26,28,30,-1,-1,-1,-1,-1,-1,-1,-1,-1,-1,-1,-1,-1,-1,-1,-1],"split_conditions":[1.1170213E-1,1.5263158E0,5.882353E-2,-8.181818E-1,1.0862069E0,-9.8182626E-2,5.981308E-1,1.61E2,-2.3684211E-1,-2.9209E-1,1.4208999E0,7E0,8.0050504E-1,1.0862069E0,4.4E1,2.3355454E-2,-2.5532262E-3,-9.8437555E-3,5.443951E-3,2.92757E-2,8.373871E-3,2.6285177E-2,4.355089E-2,-1.4733056E-2,-2.8050413E-2,-1.0639369E-2,-3.1417906E-2,-2.5764268E-3,2.0143745E-2,-3.6263203E-3,-2.0523317E-2],"split_indices":[4,6,8,4,8,8,5,1,8,4,3,1,4,8,1,0,0,0,0,0,0,0,0,0,0,0,0,0,0,0,0],"split_type":[0,0,0,0,0,0,0,0,0,0,0,0,0,0,0,0,0,0,0,0,0,0,0,0,0,0,0,0,0,0,0],"sum_hessian":[1.8378688E3,1.1823214E3,6.555474E2,7.695767E2,4.1274466E2,4.1179443E2,2.43753E2,1.2660519E2,6.4297156E2,2.759211E2,1.3682353E2,3.3750613E2,7.428828E1,1.5565033E2,8.810268E1,1.0197946E2,2.462573E1,3.9358264E2,2.493889E2,1.6154144E2,1.1437968E2,3.6356014E1,1.0046752E2,1.0600137E1,3.26906E2,5.215938E1,2.2128893E1,1.0948607E2,4.6164253E1,3.0968403E1,5.7134277E1],"tree_param":{"num_deleted":"0","num_feature":"10","num_nodes":"31","size_leaf_vector":"1"}},{"base_weights":[1.2205449E-2,7.2497234E-2,-1.9775057E-1,1.4295208E-1,-4.6878804E-2,8.0184266E-2,-2.6851198E-1,-4.8692295E-1,1.5630046E-1,-2.8149822E-1,3.1019257E-2,3.285197E-1,-5.6237936E-2,-2.3012422E-1,-5.1651573E-1,-5.5650393E-3,-2.9851362E-2,1.0066398E-2,2.5641213E-3,-2.1503849E-2,-8.585587E-3,5.471216E-3,-3.393337E-3,4.2415526E-2,7.6770945E-4,-6.919808E-3,3.4531116E-2,-2.250888E-2,-9.374621E-3,-2.7011747E-2,6.8926336E-3],"categories":[],"categories_nodes":[],"categories_segments":[],"categories_sizes":[],"default_left":[0,0,0,0,0,0,0,0,0,0,0,0,0,0,0,0,0,0,0,0,0,0,0,0,0,0,0,0,0,0,0],"id":13,"left_children":[1,3,5,7,9,11,13,15,17,19,21,23,25,27,29,-1,-1,-1,-1,-1,-1,-1,-1,-1,-1,-1,-1,-1,-1,-1,-1],"loss_changes":[1.9990702E1,1.0324411E1,6.9509373E0,6.564353E0,8.34377E0,2.4668727E0,2.5569668E0,6.0591793E-1,3.5666313E0,1.7820482E0,2.668927E0,4.181944E0,3.0101714E0,2.2158413E0,6.4674187E-1,0E0,0E0,0E0,0E0,0E0,0E0,0E0,0E0,0E0,0E0,0E0,0E0,0E0,0E0,0E0,0E0],"parents":[2147483647,0,0,1,1,2,2,3,3,4,4,5,5,6,6,7,7,8,8,9,9,10,10,11,11,12,12,13,13,14,14],"right_children":[2,4,6,8,10,12,14,16,18,20,22,24,26,28,30,-1,-1,-1,-1,-1,-1,-1,-1,-1,-1,-1,-1,-1,-1,-1,-1],"split_conditions":[1.7592592E0,1.5E0,1.1578947E0,-1.6470588E0,-5.5263156E-1,8.0050504E-1,2.5788767E0,6.764706E-1,1.6052631E0,6.8E1,1.9436275E0,1.8888888E0,2.4594595E0,-8.1578946E-1,7.659575E-1,-5.5650393E-3,-2.9851362E-2,1.0066398E-2,2.5641213E-3,-2.1503849E-2,-8.585587E-3,5.471216E-3,-3.393337E-3,4.2415526E-2,7.6770945E-4,-6.919808E-3,3.4531116E-2,-2.250888E-2,-9.374621E-3,-2.7011747E-2,6.8926336E-3],"split_indices":[2,6,7,8,4,4,2,6,7,1,6,6,6,8,8,0,0,0,0,0,0,0,0,0,0,0,0,0,0,0,0],"split_type":[0,0,0,0,0,0,0,0,0,0,0,0,0,0,0,0,0,0,0,0,0,0,0,0,0,0,0,0,0,0,0],"sum_hessian":[1.5770835E3,1.2257477E3,3.5133575E2,7.7069293E2,4.5505475E2,7.127002E1,2.8006573E2,1.5257406E1,7.5543555E2,1.1277539E2,3.4227936E2,2.4770699E1,4.649932E1,2.4419539E2,3.5870358E1,3.9143658E0,1.134304E1,5.280933E2,2.2734222E2,4.6681686E1,6.609371E1,1.9085056E2,1.514288E2,8.670542E0,1.6100155E1,4.2625057E1,3.8742652E0,3.807958E1,2.0611581E2,3.4783943E1,1.0864124E0],"tree_param":{"num_deleted":"0","num_feature":"10","num_nodes":"31","size_leaf_vector":"1"}},{"base_weights":[-8.728925E-3,-1.7922184E-1,4.1705018E-1,-1.472918E-2,-4.146925E-1,5.2967113E-1,-6.517516E-2,-3.6194414E-1,6.910805E-2,-3.4584486E-1,-5.697583E-1,3.6452633E-1,6.549628E-1,-9.421086E-3,-3.7103068E-2,2.8597614E-2,-1.965795E-2,2.6233146E-2,1.0039146E-3,-2.1762101E-2,-1.12819625E-2,-3.212576E-2,-2.2177285E-2,-1.6760139E-2,2.1230597E-2,4.3918625E-2,3.0134708E-2,1.0191956E-2,-7.93936E-3],"categories":[],"categories_nodes":[],"categories_segments":[],"categories_sizes":[],"default_left":[0,0,0,0,0,0,0,0,0,0,0,0,0,0,0,0,0,0,0,0,0,0,0,0,0,0,0,0,0],"id":14,"left_children":[1,3,5,7,9,11,13,15,17,19,21,23,25,27,-1,-1,-1,-1,-1,-1,-1,-1,-1,-1,-1,-1,-1,-1,-1],"loss_changes":[1.5223055E2,5.7993355E1,3.259919E1,2.5717321E1,6.3771973E0,9.821472E0,4.3109555E0,5.2337456E0,1.5887718E1,4.511879E0,1.4395409E0,9.055588E0,2.6842728E0,3.4318528E0,0E0,0E0,0E0,0E0,0E0,0E0,0E0,0E0,0E0,0E0,0E0,0E0,0E0,0E0,0E0],"parents":[2147483647,0,0,1,1,2,2,3,3,4,4,5,5,6,6,7,7,8,8,9,9,10,10,11,11,12,12,13,13],"right_children":[2,4,6,8,10,12,14,16,18,20,22,24,26,28,-1,-1,-1,-1,-1,-1,-1,-1,-1,-1,-1,-1,-1,-1,-1],"split_conditions":[3.6031452E-1,-2.1008404E-3,6.5789473E-1,-6.315789E-1,8.7664586E-1,7.8457445E-1,1.3919355E0,7.0430106E-1,-9.7083336E-1,1.2129875E0,-1.9565217E-1,1.1558081E0,-6.315789E-1,5.4E1,-3.7103068E-2,2.8597614E-2,-1.965795E-2,2.6233146E-2,1.0039146E-3,-2.1762101E-2,-1.12819625E-2,-3.212576E-2,-2.2177285E-2,-1.6760139E-2,2.1230597E-2,4.3918625E-2,3.0134708E-2,1.0191956E-2,-7.93936E-3],"split_indices":[4,8,8,4,8,4,3,6,8,2,4,7,8,0,0,0,0,0,0,0,0,0,0,0,0,0,0,0,0],"split_type":[0,0,0,0,0,0,0,0,0,0,0,0,0,0,0,0,0,0,0,0,0,0,0,0,0,0,0,0,0],"sum_hessian":[2.0950317E3,1.4964098E3,5.986219E2,8.816078E2,6.1480194E2,4.8520636E2,1.1341554E2,1.7082259E2,7.107852E2,4.280033E2,1.8679865E2,2.1100015E2,2.742062E2,1.0572135E2,7.694188E0,4.9646773E0,1.6585791E2,6.8123344E1,6.4266187E2,2.4395367E2,1.840496E2,1.1589741E2,7.0901245E1,1.6323648E1,1.946765E2,4.8992886E1,2.2521333E2,4.3396507E1,6.2324844E1],"tree_param":{"num_deleted":"0","num_feature":"10","num_nodes":"29","size_leaf_vector":"1"}},{"base_weights":[-1.6890135E-2,-1.7313954E-1,3.362939E-1,1.1142432E-1,-3.599383E-1,5.1544297E-1,-5.8921088E-2,4.267558E-1,-7.620081E-3,-2.1694902E-1,-4.869465E-1,3.0368543E-1,5.9926075E-1,-2.3029922E-1,1.811526E-1,1.4335123E-3,2.8409246E-2,-2.6312465E-2,1.9209747E-3,-2.2965882E-2,-4.2845584E-3,-2.9183274E-2,-2.036969E-2,2.4058742E-2,1.3178401E-3,2.704292E-2,5.1325537E-2,-9.377667E-3,-1.9937083E-2,2.4490366E-2,-2.9445288E-3],"categories":[],"categories_nodes":[],"categories_segments":[],"categories_sizes":[],"default_left":[0,0,0,0,0,0,0,0,0,0,0,0,0,0,0,0,0,0,0,0,0,0,0,0,0,0,0,0,0,0,0],"id":15,"left_children":[1,3,5,7,9,11,13,15,17,19,21,23,25,27,29,-1,-1,-1,-1,-1,-1,-1,-1,-1,-1,-1,-1,-1,-1,-1,-1],"loss_changes":[1.0137773E2,6.773657E1,3.9925E1,1.8977478E1,1.386145E1,6.701416E0,7.309565E0,7.7838326E0,8.805161E0,1.1527191E1,2.8899078E0,5.5004206E0,6.352005E0,6.705098E-1,5.5216703E0,0E0,0E0,0E0,0E0,0E0,0E0,0E0,0E0,0E0,0E0,0E0,0E0,0E0,0E0,0E0,0E0],"parents":[2147483647,0,0,1,1,2,2,3,3,4,4,5,5,6,6,7,7,8,8,9,9,10,10,11,11,12,12,13,13,14,14],"right_children":[2,4,6,8,10,12,14,16,18,20,22,24,26,28,30,-1,-1,-1,-1,-1,-1,-1,-1,-1,-1,-1,-1,-1,-1,-1,-1],"split_conditions":[4.6666667E-1,3.0769232E-1,1.8421052E-1,-8.181818E-1,4.2592594E-1,1.82277E0,6E-1,2.3684211E-1,1.4705883E-1,2.631579E-1,2.857143E-1,8.7E1,2.0789473E0,1.382353E0,5.37037E-1,1.4335123E-3,2.8409246E-2,-2.6312465E-2,1.9209747E-3,-2.2965882E-2,-4.2845584E-3,-2.9183274E-2,-2.036969E-2,2.4058742E-2,1.3178401E-3,2.704292E-2,5.1325537E-2,-9.377667E-3,-1.9937083E-2,2.4490366E-2,-2.9445288E-3],"split_indices":[9,5,4,4,5,6,9,9,9,9,9,0,3,3,5,0,0,0,0,0,0,0,0,0,0,0,0,0,0,0,0],"split_type":[0,0,0,0,0,0,0,0,0,0,0,0,0,0,0,0,0,0,0,0,0,0,0,0,0,0,0,0,0,0,0],"sum_hessian":[1.8350038E3,1.2725393E3,5.624645E2,5.0446115E2,7.680782E2,3.8681766E2,1.7564679E2,1.3754347E2,3.6691766E2,3.6258185E2,4.054963E2,1.1100282E2,2.7581482E2,1.02510056E2,7.313674E1,3.637111E1,1.01172356E2,2.9065754E1,3.3785193E2,1.26499756E2,2.3608209E2,1.8014359E2,2.2535274E2,6.7236595E1,4.3766228E1,2.4463998E2,3.1174843E1,8.344704E1,1.9063019E1,3.154051E1,4.1596233E1],"tree_param":{"num_deleted":"0","num_feature":"10","num_nodes":"31","size_leaf_vector":"1"}},{"base_weights":[1.3085579E-3,4.967866E-2,-2.2187923E-1,8.543855E-2,-1.3876942E-1,2.5815547E-1,-2.623734E-1,1.0606286E-1,-1.9934773E-1,3.6545455E-2,-2.4000612E-1,-2.6727486E-2,4.8057348E-1,2.3039798E-1,-2.9495162E-1,-5.8386805E-3,6.5105767E-3,-1.9392356E-2,1.4287316E-3,2.8268537E-2,-2.6157778E-3,-1.3888294E-3,-1.6076164E-2,1.1236982E-2,3.8407296E-2,-6.832325E-3,2.2747738E-2,-1.7040687E-2,-4.153975E-3],"categories":[],"categories_nodes":[],"categories_segments":[],"categories_sizes":[],"default_left":[0,0,0,0,0,0,0,0,0,0,0,0,0,0,0,0,0,0,0,0,0,0,0,0,0,0,0,0,0],"id":16,"left_children":[1,3,5,7,9,11,13,15,17,19,21,-1,23,25,27,-1,-1,-1,-1,-1,-1,-1,-1,-1,-1,-1,-1,-1,-1],"loss_changes":[1.6998783E1,8.732707E0,5.519682E0,6.4134464E0,3.6788375E0,4.192705E0,4.228203E0,5.4797306E0,3.183559E0,3.627512E0,2.261207E0,0E0,1.1485906E0,1.4329984E0,2.3378983E0,0E0,0E0,0E0,0E0,0E0,0E0,0E0,0E0,0E0,0E0,0E0,0E0,0E0,0E0],"parents":[2147483647,0,0,1,1,2,2,3,3,4,4,5,5,6,6,7,7,8,8,9,9,10,10,12,12,13,13,14,14],"right_children":[2,4,6,8,10,12,14,16,18,20,22,-1,24,26,28,-1,-1,-1,-1,-1,-1,-1,-1,-1,-1,-1,-1,-1,-1],"split_conditions":[5.37037E-1,1.9436275E0,1.0201379E0,2.0789473E0,1.4208999E0,2.1E1,1.3E1,-8.9166665E-1,1.5263158E0,9.736842E-1,5.638298E-1,-2.6727486E-2,1.9563131E0,1.2324911E0,5.034965E-1,-5.8386805E-3,6.5105767E-3,-1.9392356E-2,1.4287316E-3,2.8268537E-2,-2.6157778E-3,-1.3888294E-3,-1.6076164E-2,1.1236982E-2,3.8407296E-2,-6.832325E-3,2.2747738E-2,-1.7040687E-2,-4.153975E-3],"split_indices":[5,6,7,7,3,1,1,4,3,2,9,0,6,7,9,0,0,0,0,0,0,0,0,0,0,0,0,0,0],"split_type":[0,0,0,0,0,0,0,0,0,0,0,0,0,0,0,0,0,0,0,0,0,0,0,0,0,0,0,0,0],"sum_hessian":[1.5725796E3,1.2931094E3,2.7947015E2,1.0873253E3,2.0578412E2,2.132302E1,2.5814713E2,1.01448364E3,7.284166E1,7.556491E1,1.302192E2,4.3644876E0,1.6958534E1,1.563179E1,2.4251535E2,9.881487E1,9.1566876E2,3.948477E1,3.3356888E1,1.0099406E1,6.546551E1,3.6508984E1,9.371021E1,9.917293E0,7.041241E0,6.0820265E0,9.549765E0,1.9886105E2,4.36543E1],"tree_param":{"num_deleted":"0","num_feature":"10","num_nodes":"29","size_leaf_vector":"1"}},{"base_weights":[2.2696478E-3,-2.0561746E-1,3.4366167E-1,-8.104574E-2,-4.634238E-1,-1.3058538E-2,4.6405783E-1,-4.1193473E-1,2.9846334E-3,-3.7491223E-1,-6.069618E-1,-1.9938332E-1,2.640681E-1,3.5647646E-1,6.441648E-1,2.0389458E-2,-2.1904401E-2,2.1880029E-2,-2.82274E-3,-2.3396958E-2,-8.94026E-3,-3.3268627E-2,-2.3948083E-2,-3.7155475E-3,-2.5560884E-2,2.750465E-2,4.5975926E-3,3.5778686E-2,1.5190698E-2,3.3324834E-2,-1.3093053E-2],"categories":[],"categories_nodes":[],"categories_segments":[],"categories_sizes":[],"default_left":[0,0,0,0,0,0,0,0,0,0,0,0,0,0,0,0,0,0,0,0,0,0,0,0,0,0,0,0,0,0,0],"id":17,"left_children":[1,3,5,7,9,11,13,15,17,19,21,23,25,27,29,-1,-1,-1,-1,-1,-1,-1,-1,-1,-1,-1,-1,-1,-1,-1,-1],"loss_changes":[1.4688626E2,4.1274414E1,3.364743E1,2.414964E1,5.0939636E0,1.0309227E1,1.11185E1,3.949627E0,1.7942762E1,4.6907387E0,8.637543E-1,4.6167064E0,3.9019833E0,6.7588577E0,4.580841E0,0E0,0E0,0E0,0E0,0E0,0E0,0E0,0E0,0E0,0E0,0E0,0E0,0E0,0E0,0E0,0E0],"parents":[2147483647,0,0,1,1,2,2,3,3,4,4,5,5,6,6,7,7,8,8,9,9,10,10,11,11,12,12,13,13,14,14],"right_children":[2,4,6,8,10,12,14,16,18,20,22,24,26,28,30,-1,-1,-1,-1,-1,-1,-1,-1,-1,-1,-1,-1,-1,-1,-1,-1],"split_conditions":[1.1170213E-1,2.3625886E-1,1.2037038E0,-6.7688173E-1,8.7664586E-1,8.0050504E-1,8.1440496E-1,-1.2368422E0,-8.8235295E-1,1.3E0,-1.9565217E-1,1.82277E0,5.034965E-1,9.117647E-1,5.483871E-1,2.0389458E-2,-2.1904401E-2,2.1880029E-2,-2.82274E-3,-2.3396958E-2,-8.94026E-3,-3.3268627E-2,-2.3948083E-2,-3.7155475E-3,-2.5560884E-2,2.750465E-2,4.5975926E-3,3.5778686E-2,1.5190698E-2,3.3324834E-2,-1.3093053E-2],"split_indices":[4,8,7,4,8,4,4,8,8,2,4,2,9,6,9,0,0,0,0,0,0,0,0,0,0,0,0,0,0,0,0],"split_type":[0,0,0,0,0,0,0,0,0,0,0,0,0,0,0,0,0,0,0,0,0,0,0,0,0,0,0,0,0,0,0],"sum_hessian":[2.0676702E3,1.2853608E3,7.823094E2,8.675002E2,4.178607E2,1.9763397E2,5.846754E2,1.7489774E2,6.926024E2,2.607087E2,1.57152E2,1.1834548E2,7.928849E1,3.679005E2,2.1677492E2,4.9564114E0,1.6994133E2,8.2561066E1,6.100414E2,1.7588728E2,8.482143E1,1.05026665E2,5.212532E1,8.5350784E1,3.2994698E1,2.8962385E1,5.0326107E1,4.5443123E1,3.224574E2,2.1181834E2,4.9565616E0],"tree_param":{"num_deleted":"0","num_feature":"10","num_nodes":"31","size_leaf_vector":"1"}},{"base_weights":[-7.5880475E-3,3.1264004E-1,-1.7624821E-1,1.23974696E-1,5.8846426E-1,-3.0028662E-1,1.6345102E-1,5.311566E-1,5.978712E-2,4.0167654E-1,7.0158917E-1,-1.3633135E-1,-4.384297E-1,3.5503817E-1,-2.7146969E-2,3.0788882E-2,1.7262528E-3,-1.445054E-2,6.142604E-3,2.48741E-2,-2.489872E-2,3.178191E-2,4.9018815E-2,-1.4058309E-2,4.0171435E-3,-2.5337545E-2,-1.6257536E-2,2.3938617E-2,5.3465012E-3,-4.237136E-3,2.0494534E-2],"categories":[],"categories_nodes":[],"categories_segments":[],"categories_sizes":[],"default_left":[0,0,0,0,0,0,0,0,0,0,0,0,0,0,0,0,0,0,0,0,0,0,0,0,0,0,0,0,0,0,0],"id":18,"left_children":[1,3,5,7,9,11,13,15,17,19,21,23,25,27,29,-1,-1,-1,-1,-1,-1,-1,-1,-1,-1,-1,-1,-1,-1,-1,-1],"loss_changes":[9.981476E1,3.3105495E1,5.105411E1,9.89662E0,5.1846466E0,2.00317E1,1.1856364E1,2.147318E0,7.278475E0,8.859974E0,2.3146439E0,1.2797834E1,3.557701E0,4.9179306E0,4.1518154E0,0E0,0E0,0E0,0E0,0E0,0E0,0E0,0E0,0E0,0E0,0E0,0E0,0E0,0E0,0E0,0E0],"parents":[2147483647,0,0,1,1,2,2,3,3,4,4,5,5,6,6,7,7,8,8,9,9,10,10,11,11,12,12,13,13,14,14],"right_children":[2,4,6,8,10,12,14,16,18,20,22,24,26,28,30,-1,-1,-1,-1,-1,-1,-1,-1,-1,-1,-1,-1,-1,-1,-1,-1],"split_conditions":[-3.107765E-1,4.057971E-1,4.814815E-1,1.25E-1,5.034965E-1,1.1170213E-1,1.6563861E-1,1.61E2,1.9117647E-1,3.1782946E-1,2.0882354E0,3.2352942E-1,3.3684212E-1,1.1842105E0,1.3919355E0,3.0788882E-2,1.7262528E-3,-1.445054E-2,6.142604E-3,2.48741E-2,-2.489872E-2,3.178191E-2,4.9018815E-2,-1.4058309E-2,4.0171435E-3,-2.5337545E-2,-1.6257536E-2,2.3938617E-2,5.3465012E-3,-4.237136E-3,2.0494534E-2],"split_indices":[4,9,9,5,9,4,4,1,9,5,3,9,9,7,3,0,0,0,0,0,0,0,0,0,0,0,0,0,0,0,0],"split_type":[0,0,0,0,0,0,0,0,0,0,0,0,0,0,0,0,0,0,0,0,0,0,0,0,0,0,0,0,0,0,0],"sum_hessian":[1.8460685E3,6.3657544E2,1.2094932E3,3.7887335E2,2.5770206E2,8.860685E2,3.2342462E2,5.060148E1,3.2827188E2,9.891987E1,1.587822E2,4.0608868E2,4.799798E2,1.6086353E2,1.6256111E2,4.3029736E1,7.5717435E0,4.9716812E1,2.7855508E2,8.980355E1,9.116317E0,1.310585E2,2.7723686E1,2.432151E2,1.6287358E2,2.9723627E2,1.8274355E2,1.0671427E2,5.4149242E1,1.4434453E2,1.821659E1],"tree_param":{"num_deleted":"0","num_feature":"10","num_nodes":"31","size_leaf_vector":"1"}},{"base_weights":[-1.2446442E-4,5.0712984E-2,-2.19393E-1,7.752439E-2,-2.6328564E-1,-2.9393965E-1,7.885243E-2,1.6182449E-2,1.6265528E-1,-1.5467018E-1,-3.9486176E-1,-5.7427156E-1,-2.574536E-1,-1.0029113E-1,3.8613245E-1,-1.2458055E-2,2.3783979E-3,-4.0700277E-3,9.0622E-3,-1.2258442E-2,2.1789998E-2,1.0293886E-2,-2.1458838E-2,-3.0402029E-2,-1.5367314E-2,-8.880269E-3,-2.1101622E-2,8.26473E-3,-1.8431123E-2,-9.954016E-3,2.3647983E-2],"categories":[],"categories_nodes":[],"categories_segments":[],"categories_sizes":[],"default_left":[0,0,0,0,0,0,0,0,0,0,0,0,0,0,0,0,0,0,0,0,0,0,0,0,0,0,0,0,0,0,0],"id":19,"left_children":[1,3,5,7,9,11,13,15,17,19,21,23,25,27,29,-1,-1,-1,-1,-1,-1,-1,-1,-1,-1,-1,-1,-1,-1,-1,-1],"loss_changes":[1.7554354E1,1.0782953E1,6.613038E0,6.152146E0,1.3794641E0,2.2797012E0,3.3447847E0,5.7258353E0,2.2535248E0,3.1453252E0,1.014719E0,5.2168846E-2,2.70862E0,2.82128E0,1.2285426E0,0E0,0E0,0E0,0E0,0E0,0E0,0E0,0E0,0E0,0E0,0E0,0E0,0E0,0E0,0E0,0E0],"parents":[2147483647,0,0,1,1,2,2,3,3,4,4,5,5,6,6,7,7,8,8,9,9,10,10,11,11,12,12,13,13,14,14],"right_children":[2,4,6,8,10,12,14,16,18,20,22,24,26,28,30,-1,-1,-1,-1,-1,-1,-1,-1,-1,-1,-1,-1,-1,-1,-1,-1],"split_conditions":[5.263158E-1,6.486486E-1,6.7391306E-1,1.27E2,1.5E2,9.347826E-1,1.15E2,-8.9166665E-1,-8.9166665E-1,1.39E2,-1E0,1.55E2,7.119565E-1,6.625E-1,7.659575E-1,-1.2458055E-2,2.3783979E-3,-4.0700277E-3,9.0622E-3,-1.2258442E-2,2.1789998E-2,1.0293886E-2,-2.1458838E-2,-3.0402029E-2,-1.5367314E-2,-8.880269E-3,-2.1101622E-2,8.26473E-3,-1.8431123E-2,-9.954016E-3,2.3647983E-2],"split_indices":[5,9,8,0,0,6,1,4,8,0,4,0,5,9,4,0,0,0,0,0,0,0,0,0,0,0,0,0,0,0,0],"split_type":[0,0,0,0,0,0,0,0,0,0,0,0,0,0,0,0,0,0,0,0,0,0,0,0,0,0,0,0,0,0,0],"sum_hessian":[1.5727996E3,1.2774023E3,2.9539725E2,1.1776034E3,9.9798935E1,2.3633867E2,5.9058586E1,6.851219E2,4.924815E2,5.586126E1,4.393767E1,2.5520283E1,2.1081839E2,3.7733597E1,2.1324986E1,7.173252E1,6.133894E2,3.461633E1,4.5786517E2,4.8944546E1,6.916715E0,2.1040056E0,4.1833668E1,2.1519842E1,4.000441E0,1.4334923E2,6.7469154E1,1.9156801E1,1.8576796E1,2.5881433E0,1.8736843E1],"tree_param":{"num_deleted":"0","num_feature":"10","num_nodes":"31","size_leaf_vector":"1"}},{"base_weights":[1.9922806E-2,-1.4068042E-1,3.8397104E-1,5.936655E-2,-3.1931344E-1,5.860926E-1,1.6477616E-1,-2.44241E-1,1.555521E-1,-4.2879266E-1,-1.7029981E-1,3.6751664E-1,6.6176695E-1,2.7602243E-1,-1.1378288E-1,2.9663285E-2,-1.3840057E-2,4.455751E-3,2.0199122E-2,-1.7510444E-2,-2.7393913E-2,-4.0567596E-4,-1.585993E-2,5.854041E-3,2.7004326E-2,3.381618E-2,-4.706738E-3,5.5663544E-3,2.2679007E-2,-1.1902108E-2,1.1737634E-2],"categories":[],"categories_nodes":[],"categories_segments":[],"categories_sizes":[],"default_left":[0,0,0,0,0,0,0,0,0,0,0,0,0,0,0,0,0,0,0,0,0,0,0,0,0,0,0,0,0,0,0],"id":20,"left_children":[1,3,5,7,9,11,13,15,17,19,21,23,25,27,29,-1,-1,-1,-1,-1,-1,-1,-1,-1,-1,-1,-1,-1,-1,-1,-1],"loss_changes":[1.2160118E2,5.15933E1,2.8109406E1,1.9944239E1,1.2367729E1,5.2289352E0,9.539176E0,4.6469736E0,8.518045E0,3.9159012E0,7.7318726E0,3.7110186E0,2.7539978E0,6.3696346E0,3.878732E0,0E0,0E0,0E0,0E0,0E0,0E0,0E0,0E0,0E0,0E0,0E0,0E0,0E0,0E0,0E0,0E0],"parents":[2147483647,0,0,1,1,2,2,3,3,4,4,5,5,6,6,7,7,8,8,9,9,10,10,11,11,12,12,13,13,14,14],"right_children":[2,4,6,8,10,12,14,16,18,20,22,24,26,28,30,-1,-1,-1,-1,-1,-1,-1,-1,-1,-1,-1,-1,-1,-1,-1,-1],"split_conditions":[3.501367E-1,3.3333334E-1,-9.8182626E-2,-5.3846157E-1,-2.631579E-1,5.5263156E-1,8.0050504E-1,-1.5789474E0,1.8846154E0,1.8125E0,4.7826087E-1,7.9E1,1.6818181E0,8.0050504E-1,1.1600177E0,2.9663285E-2,-1.3840057E-2,4.455751E-3,2.0199122E-2,-1.7510444E-2,-2.7393913E-2,-4.0567596E-4,-1.585993E-2,5.854041E-3,2.7004326E-2,3.381618E-2,-4.706738E-3,5.5663544E-3,2.2679007E-2,-1.1902108E-2,1.1737634E-2],"split_indices":[4,9,8,4,4,4,8,8,7,6,9,1,6,4,4,0,0,0,0,0,0,0,0,0,0,0,0,0,0,0,0],"split_type":[0,0,0,0,0,0,0,0,0,0,0,0,0,0,0,0,0,0,0,0,0,0,0,0,0,0,0,0,0,0,0],"sum_hessian":[2.0778909E3,1.4422449E3,6.35646E2,6.806587E2,7.615862E2,3.2983154E2,3.0581442E2,1.633882E2,5.1727045E2,4.3794998E2,3.236362E2,8.633123E1,2.4350032E2,2.1854475E2,8.726966E1,5.4699674E0,1.5791824E2,4.091983E2,1.0807216E2,2.6621643E2,1.7173352E2,1.5431601E2,1.6932019E2,3.5904526E1,5.0426704E1,2.3900304E2,4.497281E0,1.1422305E2,1.0432171E2,6.4567276E1,2.2702387E1],"tree_param":{"num_deleted":"0","num_feature":"10","num_nodes":"31","size_leaf_vector":"1"}},{"base_weights":[-1.0222241E-3,3.0436087E-1,-1.6467842E-1,1.1605569E-1,5.881481E-1,-2.9531315E-1,1.622223E-1,4.835747E-1,3.0628197E-2,6.6390646E-1,4.1761094E-1,-2.1206236E-1,-4.9076107E-1,3.2369936E-1,-7.259255E-2,1.120156E-3,3.3371013E-2,-1.304357E-2,4.1847355E-3,3.865057E-2,2.9444918E-2,3.2314885E-2,9.732343E-3,-1.9867463E-2,-4.5868503E-3,-3.1303048E-2,-2.2168191E-2,1.3038317E-2,2.872096E-2,-9.948055E-3,9.596771E-3],"categories":[],"categories_nodes":[],"categories_segments":[],"categories_sizes":[],"default_left":[0,0,0,0,0,0,0,0,0,0,0,0,0,0,0,0,0,0,0,0,0,0,0,0,0,0,0,0,0,0,0],"id":21,"left_children":[1,3,5,7,9,11,13,15,17,19,21,23,25,27,29,-1,-1,-1,-1,-1,-1,-1,-1,-1,-1,-1,-1,-1,-1,-1,-1],"loss_changes":[9.0694626E1,3.3768066E1,5.05039E1,1.19744E1,2.982544E0,1.3637337E1,1.2839088E1,6.085636E0,4.831316E0,9.606323E-1,3.9688625E0,1.3206938E1,1.3353157E0,3.01305E0,4.669208E0,0E0,0E0,0E0,0E0,0E0,0E0,0E0,0E0,0E0,0E0,0E0,0E0,0E0,0E0,0E0,0E0],"parents":[2147483647,0,0,1,1,2,2,3,3,4,4,5,5,6,6,7,7,8,8,9,9,10,10,11,11,12,12,13,13,14,14],"right_children":[2,4,6,8,10,12,14,16,18,20,22,24,26,28,30,-1,-1,-1,-1,-1,-1,-1,-1,-1,-1,-1,-1,-1,-1,-1,-1],"split_conditions":[-3.107765E-1,4.117647E-1,4.7826087E-1,-9.705882E-1,1.2826087E0,5.588235E-1,3.529412E-1,2.5503355E-1,1.9117647E-1,8.1E1,-6.703297E-1,2.736842E-1,-5.5263156E-1,1.48E2,6.625E-1,1.120156E-3,3.3371013E-2,-1.304357E-2,4.1847355E-3,3.865057E-2,2.9444918E-2,3.2314885E-2,9.732343E-3,-1.9867463E-2,-4.5868503E-3,-3.1303048E-2,-2.2168191E-2,1.3038317E-2,2.872096E-2,-9.948055E-3,9.596771E-3],"split_indices":[4,9,9,4,7,4,4,9,9,0,4,9,8,0,9,0,0,0,0,0,0,0,0,0,0,0,0,0,0,0,0],"split_type":[0,0,0,0,0,0,0,0,0,0,0,0,0,0,0,0,0,0,0,0,0,0,0,0,0,0,0,0,0,0,0],"sum_hessian":[1.8126937E3,6.321813E2,1.1805125E3,3.8086786E2,2.5131343E2,8.435237E2,3.369888E2,7.095416E1,3.099137E2,1.7200848E2,7.930495E1,5.9301483E2,2.5050885E2,1.9945169E2,1.3753711E2,2.0543419E1,5.0410744E1,4.7126614E1,2.627871E2,6.628555E1,1.0572293E2,3.8212753E1,4.1092194E1,2.3257474E2,3.604401E2,6.182236E1,1.8868648E2,1.6106335E2,3.8388336E1,9.324201E1,4.4295097E1],"tree_param":{"num_deleted":"0","num_feature":"10","num_nodes":"31","size_leaf_vector":"1"}},{"base_weights":[-4.2627635E-3,4.4353463E-2,-1.9585092E-1,8.0588505E-2,-1.2766893E-1,1.5424208E-1,-2.9026923E-1,1.3075966E-1,-2.8724862E-2,1.0508384E-1,-2.7892116E-1,8.10731E-2,7.3947805E-1,-4.7681388E-1,-2.4346153E-1,4.9800007E-3,1.8593935E-2,-1.8472735E-2,1.3819992E-4,4.071074E-2,2.9683341E-3,-2.2275511E-2,-6.5447697E-3,1.0319164E-2,-6.246756E-3,4.377281E-2,1.1579349E-2,-2.659694E-2,-1.4915629E-2,-1.3309063E-2,1.9899474E-2],"categories":[],"categories_nodes":[],"categories_segments":[],"categories_sizes":[],"default_left":[0,0,0,0,0,0,0,0,0,0,0,0,0,0,0,0,0,0,0,0,0,0,0,0,0,0,0,0,0,0,0],"id":22,"left_children":[1,3,5,7,9,11,13,15,17,19,21,23,25,27,29,-1,-1,-1,-1,-1,-1,-1,-1,-1,-1,-1,-1,-1,-1,-1,-1],"loss_changes":[1.4608507E1,7.808272E0,1.0537544E1,5.674472E0,7.7058372E0,2.8552456E0,2.069931E0,5.288945E0,3.4997196E0,2.7596562E0,3.2076235E0,1.6169134E0,3.1124783E-1,3.2518673E-1,3.052411E0,0E0,0E0,0E0,0E0,0E0,0E0,0E0,0E0,0E0,0E0,0E0,0E0,0E0,0E0,0E0,0E0],"parents":[2147483647,0,0,1,1,2,2,3,3,4,4,5,5,6,6,7,7,8,8,9,9,10,10,11,11,12,12,13,13,14,14],"right_children":[2,4,6,8,10,12,14,16,18,20,22,24,26,28,30,-1,-1,-1,-1,-1,-1,-1,-1,-1,-1,-1,-1,-1,-1,-1,-1],"split_conditions":[5.5263156E-1,7.409131E-1,1.1722833E0,1.5833334E0,1.4210526E0,1.62E2,-6.7688173E-1,1.5144061E0,7.0430106E-1,9E0,1.15E2,6.486486E-1,1.62E2,1.41E2,1.882353E0,4.9800007E-3,1.8593935E-2,-1.8472735E-2,1.3819992E-4,4.071074E-2,2.9683341E-3,-2.2275511E-2,-6.5447697E-3,1.0319164E-2,-6.246756E-3,4.377281E-2,1.1579349E-2,-2.659694E-2,-1.4915629E-2,-1.3309063E-2,1.9899474E-2],"split_indices":[4,8,7,7,3,1,8,7,6,0,1,5,0,0,7,0,0,0,0,0,0,0,0,0,0,0,0,0,0,0,0],"split_type":[0,0,0,0,0,0,0,0,0,0,0,0,0,0,0,0,0,0,0,0,0,0,0,0,0,0,0,0,0,0,0],"sum_hessian":[1.5664642E3,1.2500322E3,3.1643195E2,1.0329762E3,2.1705606E2,6.707848E1,2.4935347E2,7.078847E2,3.250915E2,8.5614456E1,1.314416E2,6.063601E1,6.4424725E0,4.8174583E1,2.011789E2,6.2812555E2,7.975917E1,2.659403E1,2.9849744E2,4.1671324E0,8.144733E1,6.089751E1,7.05441E1,3.770132E1,2.2934689E1,4.5110245E0,1.9314483E0,3.5294792E1,1.2879793E1,1.9486205E2,6.316842E0],"tree_param":{"num_deleted":"0","num_feature":"10","num_nodes":"31","size_leaf_vector":"1"}},{"base_weights":[7.521117E-3,-2.2329591E-1,2.9580566E-1,-8.261642E-2,-4.3749237E-1,4.1612467E-1,-6.928626E-2,-4.3196714E-1,-1.2346375E-2,-5.093748E-1,-3.3768E-1,3.0082545E-1,6.5004915E-1,-3.3070865E-1,5.5157755E-2,-1.9643191E-2,-3.187817E-2,2.401248E-2,-2.9303208E-3,-2.2923158E-2,-3.1441774E-2,-8.636966E-3,-2.1566859E-2,2.6934033E-2,1.2084688E-2,4.2514715E-2,2.9929573E-2,3.7623002E-4,-1.9803751E-2,6.1344593E-3,-1.8607318E-2],"categories":[],"categories_nodes":[],"categories_segments":[],"categories_sizes":[],"default_left":[0,0,0,0,0,0,0,0,0,0,0,0,0,0,0,0,0,0,0,0,0,0,0,0,0,0,0,0,0,0,0],"id":23,"left_children":[1,3,5,7,9,11,13,15,17,19,21,23,25,27,29,-1,-1,-1,-1,-1,-1,-1,-1,-1,-1,-1,-1,-1,-1,-1,-1],"loss_changes":[1.375797E2,3.4564514E1,4.041308E1,1.7039024E1,3.0922165E0,1.8457924E1,7.45952E0,6.840267E-1,1.322356E1,1.3083191E0,2.9137592E0,6.411701E0,1.8349838E0,1.6370821E0,4.5421624E0,0E0,0E0,0E0,0E0,0E0,0E0,0E0,0E0,0E0,0E0,0E0,0E0,0E0,0E0,0E0,0E0],"parents":[2147483647,0,0,1,1,2,2,3,3,4,4,5,5,6,6,7,7,8,8,9,9,10,10,11,11,12,12,13,13,14,14],"right_children":[2,4,6,8,10,12,14,16,18,20,22,24,26,28,30,-1,-1,-1,-1,-1,-1,-1,-1,-1,-1,-1,-1,-1,-1,-1,-1],"split_conditions":[3.7142858E-1,3.8947368E-1,4.169601E-1,-8.181818E-1,1.1816217E0,5.869565E-1,3.1578946E-1,-5.1612902E-2,1.3157895E-1,1.8202571E0,3.7037036E-1,-6.770833E-1,-5.8687943E-1,2.2E1,1.41E2,-1.9643191E-2,-3.187817E-2,2.401248E-2,-2.9303208E-3,-2.2923158E-2,-3.1441774E-2,-8.636966E-3,-2.1566859E-2,2.6934033E-2,1.2084688E-2,4.2514715E-2,2.9929573E-2,3.7623002E-4,-1.9803751E-2,6.1344593E-3,-1.8607318E-2],"split_indices":[5,9,8,4,2,5,4,8,9,3,8,8,8,0,0,0,0,0,0,0,0,0,0,0,0,0,0,0,0,0,0],"split_type":[0,0,0,0,0,0,0,0,0,0,0,0,0,0,0,0,0,0,0,0,0,0,0,0,0,0,0,0,0,0,0],"sum_hessian":[2.0656008E3,1.1472626E3,9.183383E2,6.9330255E2,4.5396E2,6.9060425E2,2.2773405E2,1.1523907E2,5.780635E2,2.6151794E2,1.9244205E2,4.6412653E2,2.2647772E2,7.291092E1,1.5482314E2,9.926941E1,1.5969663E1,4.882056E1,5.292429E2,1.8676183E2,7.475612E1,7.072748E1,1.2171458E2,9.079534E1,3.733312E2,4.3126976E1,1.8335075E2,1.1951851E1,6.0959064E1,1.3430963E2,2.051351E1],"tree_param":{"num_deleted":"0","num_feature":"10","num_nodes":"31","size_leaf_vector":"1"}},{"base_weights":[4.959531E-4,1.544926E-1,-2.933706E-1,-9.032052E-2,3.5622647E-1,-4.974756E-1,-9.0618886E-2,4.519009E-1,-1.3515681E-1,2.3182738E-1,5.6110805E-1,-4.5222482E-1,-5.77103E-1,2.2062235E-2,-3.2187223E-1,1.1678365E-2,4.0204253E-2,-1.6109375E-2,-3.0970506E-3,2.9703576E-2,7.2505134E-3,3.4351677E-2,1.9526267E-2,-1.7618038E-2,-2.6119908E-2,-4.2307153E-3,-2.9244019E-2,-2.5363627E-3,2.3243932E-2,-2.4621272E-2,-7.277777E-3],"categories":[],"categories_nodes":[],"categories_segments":[],"categories_sizes":[],"default_left":[0,0,0,0,0,0,0,0,0,0,0,0,0,0,0,0,0,0,0,0,0,0,0,0,0,0,0,0,0,0,0],"id":24,"left_children":[1,3,5,7,9,11,13,15,17,19,21,23,25,27,29,-1,-1,-1,-1,-1,-1,-1,-1,-1,-1,-1,-1,-1,-1,-1,-1],"loss_changes":[8.231864E1,5.8978172E1,2.5838322E1,1.3189143E1,1.6552475E1,8.6130524E-1,8.215216E0,3.0011683E0,6.820383E0,1.2775579E1,5.0283737E0,1.2401047E0,3.6893463E-1,6.8804183E0,3.0336208E0,0E0,0E0,0E0,0E0,0E0,0E0,0E0,0E0,0E0,0E0,0E0,0E0,0E0,0E0,0E0,0E0],"parents":[2147483647,0,0,1,1,2,2,3,3,4,4,5,5,6,6,7,7,8,8,9,9,10,10,11,11,12,12,13,13,14,14],"right_children":[2,4,6,8,10,12,14,16,18,20,22,24,26,28,30,-1,-1,-1,-1,-1,-1,-1,-1,-1,-1,-1,-1,-1,-1,-1,-1],"split_conditions":[1.1170213E-1,3.3684212E-1,-9.8182626E-2,1.25E-1,1.8873874E0,1.6758242E0,5.981308E-1,1.6083333E0,2.2105263E-1,-7.8571427E-1,1.1388888E0,-3.6666667E-1,1.1875E-1,6.9902915E-1,1.8125E0,1.1678365E-2,4.0204253E-2,-1.6109375E-2,-3.0970506E-3,2.9703576E-2,7.2505134E-3,3.4351677E-2,1.9526267E-2,-1.7618038E-2,-2.6119908E-2,-4.2307153E-3,-2.9244019E-2,-2.5363627E-3,2.3243932E-2,-2.4621272E-2,-7.277777E-3],"split_indices":[4,9,8,5,6,7,5,7,9,4,7,8,4,9,6,0,0,0,0,0,0,0,0,0,0,0,0,0,0,0,0],"split_type":[0,0,0,0,0,0,0,0,0,0,0,0,0,0,0,0,0,0,0,0,0,0,0,0,0,0,0,0,0,0,0],"sum_hessian":[1.8170155E3,1.1925504E3,6.24465E2,5.3900085E2,6.5354956E2,3.104696E2,3.1399545E2,4.047257E1,4.985283E2,4.07971E2,2.4557854E2,2.02227E2,1.0824259E2,2.117313E2,1.0226416E2,2.6010672E1,1.4461897E1,1.3929555E2,3.5923273E2,7.774353E1,3.3022748E2,1.3954082E2,1.0603772E2,8.594276E1,1.1628425E2,1.8674611E0,1.0637513E2,1.8260106E2,2.913024E1,5.1070354E1,5.1193806E1],"tree_param":{"num_deleted":"0","num_feature":"10","num_nodes":"31","size_leaf_vector":"1"}},{"base_weights":[-6.0930266E-3,4.8286933E-2,-1.8044446E-1,8.515566E-2,-1.3670482E-1,1.5601772E-1,-2.70069E-1,1.301218E-1,-1.2345767E-2,7.1227625E-2,-2.525232E-1,2.08987E-2,5.272959E-1,-2.1017812E-1,-4.316484E-1,5.2209194E-3,1.8772285E-2,-4.3143127E-3,6.18166E-3,-1.9845014E-2,7.2354786E-3,-9.703488E-3,-2.7872557E-2,1.1501869E-2,-1.2681429E-2,3.4219593E-2,1.1012058E-2,-2.1409743E-2,-8.228184E-3,1.7811596E-2,-2.2649756E-2],"categories":[],"categories_nodes":[],"categories_segments":[],"categories_sizes":[],"default_left":[0,0,0,0,0,0,0,0,0,0,0,0,0,0,0,0,0,0,0,0,0,0,0,0,0,0,0,0,0,0,0],"id":25,"left_children":[1,3,5,7,9,11,13,15,17,19,21,23,25,27,29,-1,-1,-1,-1,-1,-1,-1,-1,-1,-1,-1,-1,-1,-1,-1,-1],"loss_changes":[1.50355625E1,8.256767E0,1.1411154E1,4.4236293E0,4.8652177E0,3.9991431E0,2.7938328E0,4.313957E0,3.2205746E0,2.5611508E0,2.1998978E0,3.4830427E0,8.7612915E-1,2.1116095E0,1.5011282E0,0E0,0E0,0E0,0E0,0E0,0E0,0E0,0E0,0E0,0E0,0E0,0E0,0E0,0E0,0E0,0E0],"parents":[2147483647,0,0,1,1,2,2,3,3,4,4,5,5,6,6,7,7,8,8,9,9,10,10,11,11,12,12,13,13,14,14],"right_children":[2,4,6,8,10,12,14,16,18,20,22,24,26,28,30,-1,-1,-1,-1,-1,-1,-1,-1,-1,-1,-1,-1,-1,-1,-1,-1],"split_conditions":[4.814815E-1,7.409131E-1,1.1578947E0,1.5882353E0,1.4210526E0,1.31E2,6.9902915E-1,1.5263158E0,1.47E2,1.1382979E0,2E0,1.1413044E0,2.3003104E0,-7.631579E-1,2.2E1,5.2209194E-3,1.8772285E-2,-4.3143127E-3,6.18166E-3,-1.9845014E-2,7.2354786E-3,-9.703488E-3,-2.7872557E-2,1.1501869E-2,-1.2681429E-2,3.4219593E-2,1.1012058E-2,-2.1409743E-2,-8.228184E-3,1.7811596E-2,-2.2649756E-2],"split_indices":[5,8,7,7,3,1,5,7,0,3,3,8,2,8,1,0,0,0,0,0,0,0,0,0,0,0,0,0,0,0,0],"split_type":[0,0,0,0,0,0,0,0,0,0,0,0,0,0,0,0,0,0,0,0,0,0,0,0,0,0,0,0,0,0,0],"sum_hessian":[1.583906E3,1.20789E3,3.7601608E2,1.00761304E3,2.002769E2,7.893668E1,2.970794E2,6.893576E2,3.182555E2,7.1784645E1,1.2849226E2,5.8648914E1,2.0287773E1,2.184206E2,7.865879E1,6.252714E2,6.4086136E1,2.0639223E2,1.1186325E2,9.142111E0,6.2642536E1,1.0919623E2,1.9296032E1,3.3380924E1,2.5267988E1,1.2608231E1,7.679542E0,3.634076E1,1.8207983E2,1.6611172E0,7.699767E1],"tree_param":{"num_deleted":"0","num_feature":"10","num_nodes":"31","size_leaf_vector":"1"}},{"base_weights":[6.880582E-3,-1.5074304E-1,3.2692575E-1,4.2245343E-2,-3.2933587E-1,4.3485627E-1,-2.1322465E-2,-2.7707642E-1,1.1891205E-1,-4.225046E-1,-1.9132586E-1,3.5757694E-1,6.5222925E-1,-6.887259E-2,3.091864E-1,1.3310149E-2,-1.8043559E-2,1.9180031E-2,3.0110825E-3,-1.8526614E-2,-2.9174585E-2,-1.0474169E-3,-1.7495496E-2,3.120642E-2,1.4147877E-2,3.935079E-2,3.0460974E-2,-2.4409786E-2,-7.5959385E-4,6.4116917E-3,2.8872347E-2],"categories":[],"categories_nodes":[],"categories_segments":[],"categories_sizes":[],"default_left":[0,0,0,0,0,0,0,0,0,0,0,0,0,0,0,0,0,0,0,0,0,0,0,0,0,0,0,0,0,0,0],"id":26,"left_children":[1,3,5,7,9,11,13,15,17,19,21,23,25,27,29,-1,-1,-1,-1,-1,-1,-1,-1,-1,-1,-1,-1,-1,-1,-1,-1],"loss_changes":[1.0334912E2,4.7325043E1,2.5418839E1,1.6206175E1,9.087601E0,8.436943E0,2.549945E0,5.932452E0,8.263562E0,3.3384323E0,7.806469E0,7.4407387E0,2.9823303E-1,3.1772387E0,9.1714823E-1,0E0,0E0,0E0,0E0,0E0,0E0,0E0,0E0,0E0,0E0,0E0,0E0,0E0,0E0,0E0,0E0],"parents":[2147483647,0,0,1,1,2,2,3,3,4,4,5,5,6,6,7,7,8,8,9,9,10,10,11,11,12,12,13,13,14,14],"right_children":[2,4,6,8,10,12,14,16,18,20,22,24,26,28,30,-1,-1,-1,-1,-1,-1,-1,-1,-1,-1,-1,-1,-1,-1,-1,-1],"split_conditions":[2.3625886E-1,3.3333334E-1,4.169601E-1,9.7278666E-1,-2.4090375E-1,2.1956522E0,1.3529412E0,1.5384616E-1,-8.8235295E-1,8.7664586E-1,4.7727272E-1,-6.703297E-1,2.3157895E-1,1.5434783E0,1.1979166E0,1.3310149E-2,-1.8043559E-2,1.9180031E-2,3.0110825E-3,-1.8526614E-2,-2.9174585E-2,-1.0474169E-3,-1.7495496E-2,3.120642E-2,1.4147877E-2,3.935079E-2,3.0460974E-2,-2.4409786E-2,-7.5959385E-4,6.4116917E-3,2.8872347E-2],"split_indices":[4,9,8,2,4,2,7,9,8,8,9,8,9,2,3,0,0,0,0,0,0,0,0,0,0,0,0,0,0,0,0],"split_type":[0,0,0,0,0,0,0,0,0,0,0,0,0,0,0,0,0,0,0,0,0,0,0,0,0,0,0,0,0,0,0],"sum_hessian":[2.0467035E3,1.3716761E3,6.7502734E2,6.596347E2,7.120414E2,5.151281E2,1.5989928E2,1.2720474E2,5.3243E2,4.238467E2,2.881947E2,3.819752E2,1.3315288E2,1.404801E2,1.9419178E1,1.6707241E1,1.104975E2,9.562656E1,4.3680344E2,3.229036E2,1.00943115E2,1.3947714E2,1.4871754E2,8.193329E1,3.000419E2,2.8025717E1,1.0512717E2,1.5024312E1,1.25455795E2,1.24793625E1,6.9398146E0],"tree_param":{"num_deleted":"0","num_feature":"10","num_nodes":"31","size_leaf_vector":"1"}},{"base_weights":[1.766135E-2,-1.623389E-1,2.8065163E-1,-3.0744082E-4,-4.0620434E-1,4.5528024E-1,-5.113986E-2,3.4162977E-1,-6.783226E-2,-4.70593E-1,-2.0024806E-1,6.155613E-1,3.161806E-1,-2.4098518E-1,1.4186113E-1,-2.5051082E-2,1.9995308E-2,-6.846856E-3,7.2850804E-3,-2.0888986E-2,-2.7738297E-2,-1.8401025E-2,1.3908068E-2,2.6764462E-2,3.8363133E-2,1.0183773E-2,2.6827654E-2,-7.868498E-3,-2.0931875E-2,2.0831402E-3,3.1570066E-2],"categories":[],"categories_nodes":[],"categories_segments":[],"categories_sizes":[],"default_left":[0,0,0,0,0,0,0,0,0,0,0,0,0,0,0,0,0,0,0,0,0,0,0,0,0,0,0,0,0,0,0],"id":27,"left_children":[1,3,5,7,9,11,13,15,17,19,21,23,25,27,29,-1,-1,-1,-1,-1,-1,-1,-1,-1,-1,-1,-1,-1,-1,-1,-1],"loss_changes":[8.722193E1,4.3224617E1,4.340013E1,1.5221227E1,5.6967087E0,1.0743156E1,9.526041E0,5.539007E0,8.143483E0,1.2438431E0,8.589983E0,2.3521652E0,6.4536114E0,1.8795395E0,6.305661E0,0E0,0E0,0E0,0E0,0E0,0E0,0E0,0E0,0E0,0E0,0E0,0E0,0E0,0E0,0E0,0E0],"parents":[2147483647,0,0,1,1,2,2,3,3,4,4,5,5,6,6,7,7,8,8,9,9,10,10,11,11,12,12,13,13,14,14],"right_children":[2,4,6,8,10,12,14,16,18,20,22,24,26,28,30,-1,-1,-1,-1,-1,-1,-1,-1,-1,-1,-1,-1,-1,-1,-1,-1],"split_conditions":[4E-1,3.75E-1,4.057971E-1,-8.4210527E-1,-1.2167553E-1,-3.7083334E-1,6.5789473E-1,1.5384616E-1,3.3684212E-1,1.6758242E0,1.360849E0,8.7664586E-1,1.0862069E0,7.6E1,1.3919355E0,-2.5051082E-2,1.9995308E-2,-6.846856E-3,7.2850804E-3,-2.0888986E-2,-2.7738297E-2,-1.8401025E-2,1.3908068E-2,2.6764462E-2,3.8363133E-2,1.0183773E-2,2.6827654E-2,-7.868498E-3,-2.0931875E-2,2.0831402E-3,3.1570066E-2],"split_indices":[9,5,5,4,8,4,8,9,9,7,3,8,8,0,3,0,0,0,0,0,0,0,0,0,0,0,0,0,0,0,0],"split_type":[0,0,0,0,0,0,0,0,0,0,0,0,0,0,0,0,0,0,0,0,0,0,0,0,0,0,0,0,0,0,0],"sum_hessian":[1.8405604E3,1.0929131E3,7.4764734E2,6.572308E2,4.3568237E2,4.895926E2,2.5805478E2,1.077152E2,5.4951556E2,3.3093607E2,1.0474632E2,2.2588531E2,2.6370728E2,1.2996558E2,1.280892E2,6.476113E0,1.0123909E2,4.154306E2,1.3408493E2,2.0701215E2,1.23923904E2,7.772118E1,2.7025143E1,1.5068147E2,7.520384E1,1.7585405E2,8.785321E1,8.965409E1,4.031148E1,1.0722721E2,2.0861992E1],"tree_param":{"num_deleted":"0","num_feature":"10","num_nodes":"31","size_leaf_vector":"1"}},{"base_weights":[-1.5168959E-2,1.3471264E-2,-2.4720125E-1,4.5126915E-2,-9.774366E-2,-3.4863842E-1,-4.0066887E-2,3.0653644E-2,3.873613E-1,1.1632177E-1,-2.2736916E-1,-2.510655E-1,-4.6585503E-1,-7.7943906E-2,4.34531E-2,-7.4819487E-4,6.326134E-3,-2.7847743E-2,2.672506E-2,1.4330509E-2,-1.1033523E-3,-1.4664742E-2,-3.005288E-3,-1.7195875E-2,5.1326468E-3,-4.6172896E-3,-2.5457093E-2,1.5045749E-2,-8.78313E-3],"categories":[],"categories_nodes":[],"categories_segments":[],"categories_sizes":[],"default_left":[0,0,0,0,0,0,0,0,0,0,0,0,0,0,0,0,0,0,0,0,0,0,0,0,0,0,0,0,0],"id":28,"left_children":[1,3,5,7,9,11,13,15,17,19,21,23,25,27,-1,-1,-1,-1,-1,-1,-1,-1,-1,-1,-1,-1,-1,-1,-1],"loss_changes":[1.04774475E1,4.9469905E0,3.6256237E0,5.404663E0,8.666682E0,1.2114506E0,2.0675013E0,4.5949526E0,6.45076E0,2.789474E0,2.1246681E0,2.1883397E0,7.871618E-1,2.1508129E0,0E0,0E0,0E0,0E0,0E0,0E0,0E0,0E0,0E0,0E0,0E0,0E0,0E0,0E0,0E0],"parents":[2147483647,0,0,1,1,2,2,3,3,4,4,5,5,6,6,7,7,8,8,9,9,10,10,11,11,12,12,13,13],"right_children":[2,4,6,8,10,12,14,16,18,20,22,24,26,28,-1,-1,-1,-1,-1,-1,-1,-1,-1,-1,-1,-1,-1,-1,-1],"split_conditions":[2.0704787E0,5.034965E-1,1.6470588E0,1.7592592E0,1.3684211E0,3E-1,1.8395833E0,1.38E2,6.2E1,1.239659E0,1.2105263E0,1.2352941E0,2.3E1,1.0201379E0,4.34531E-2,-7.4819487E-4,6.326134E-3,-2.7847743E-2,2.672506E-2,1.4330509E-2,-1.1033523E-3,-1.4664742E-2,-3.005288E-3,-1.7195875E-2,5.1326468E-3,-4.6172896E-3,-2.5457093E-2,1.5045749E-2,-8.78313E-3],"split_indices":[2,9,6,6,3,9,7,0,0,2,7,6,1,7,0,0,0,0,0,0,0,0,0,0,0,0,0,0,0],"split_type":[0,0,0,0,0,0,0,0,0,0,0,0,0,0,0,0,0,0,0,0,0,0,0,0,0,0,0,0,0],"sum_hessian":[1.5751322E3,1.40291E3,1.7222214E2,1.0925316E3,3.1037842E2,1.1514872E2,5.7073414E1,1.0492479E3,4.328368E1,1.1710016E2,1.9327827E2,6.455447E1,5.0594257E1,5.566837E1,1.405045E0,7.1152545E2,3.3772253E2,5.4596257E0,3.7824055E1,5.2019165E1,6.508099E1,1.3809544E2,5.5182835E1,5.1154095E1,1.3400372E1,5.579943E0,4.5014313E1,1.098802E1,4.4680347E1],"tree_param":{"num_deleted":"0","num_feature":"10","num_nodes":"29","size_leaf_vector":"1"}},{"base_weights":[-1.7456302E-2,-1.8810028E-1,2.8461882E-1,-3.1986613E-2,-3.453318E-1,3.8049796E-1,-1.2945087E-1,-3.8605124E-1,3.475332E-2,-4.429776E-1,-1.9283167E-1,2.4688347E-1,4.8407325E-1,-7.1234435E-2,-5.265936E-1,2.8238937E-2,-2.096936E-2,2.10331E-2,-5.005057E-4,-1.75075E-2,-2.8847415E-2,-6.597683E-3,-2.2101777E-2,3.379017E-2,1.0232598E-2,2.8003845E-2,1.682227E-2,-1.9264897E-2,-8.0803125E-5,-3.6013387E-3,-3.650209E-2],"categories":[],"categories_nodes":[],"categories_segments":[],"categories_sizes":[],"default_left":[0,0,0,0,0,0,0,0,0,0,0,0,0,0,0,0,0,0,0,0,0,0,0,0,0,0,0,0,0,0,0],"id":29,"left_children":[1,3,5,7,9,11,13,15,17,19,21,23,25,27,29,-1,-1,-1,-1,-1,-1,-1,-1,-1,-1,-1,-1,-1,-1,-1,-1],"loss_changes":[1.0595354E2,3.2227947E1,2.9507603E1,1.5612945E1,9.657181E0,8.222107E0,3.2052655E0,3.5581493E0,9.61524E0,4.7487793E0,3.8431349E0,4.666416E0,3.6096725E0,2.6992614E0,1.5912676E0,0E0,0E0,0E0,0E0,0E0,0E0,0E0,0E0,0E0,0E0,0E0,0E0,0E0,0E0,0E0,0E0],"parents":[2147483647,0,0,1,1,2,2,3,3,4,4,5,5,6,6,7,7,8,8,9,9,10,10,11,11,12,12,13,13,14,14],"right_children":[2,4,6,8,10,12,14,16,18,20,22,24,26,28,30,-1,-1,-1,-1,-1,-1,-1,-1,-1,-1,-1,-1,-1,-1,-1,-1],"split_conditions":[4.1666666E-1,-1.1764706E-1,6.5789473E-1,2.0588236E-1,-2.4090375E-1,5.263158E-1,1.3919355E0,7.0430106E-1,1.3636364E-1,1.8125E0,1.1413044E0,-1.0789474E0,-9.8182626E-2,1.5526316E0,4.25E-1,2.8238937E-2,-2.096936E-2,2.10331E-2,-5.005057E-4,-1.75075E-2,-2.8847415E-2,-6.597683E-3,-2.2101777E-2,3.379017E-2,1.0232598E-2,2.8003845E-2,1.682227E-2,-1.9264897E-2,-8.0803125E-5,-3.6013387E-3,-3.650209E-2],"split_indices":[5,8,8,5,4,5,3,6,9,6,8,8,8,2,5,0,0,0,0,0,0,0,0,0,0,0,0,0,0,0,0],"split_type":[0,0,0,0,0,0,0,0,0,0,0,0,0,0,0,0,0,0,0,0,0,0,0,0,0,0,0,0,0,0,0],"sum_hessian":[2.0534236E3,1.3124119E3,7.410117E2,6.591508E2,6.532611E2,6.0175464E2,1.392571E2,1.0378302E2,5.553678E2,3.970959E2,2.5616525E2,2.6424985E2,3.375048E2,1.2248204E2,1.6775051E1,2.9753747E0,1.0080765E2,5.68513E1,4.9851648E2,2.3670073E2,1.6039516E2,2.0710184E2,4.9063404E1,2.2341223E1,2.4190862E2,2.2095575E2,1.1654904E2,2.1401379E1,1.0108066E2,5.6052327E0,1.1169818E1],"tree_param":{"num_deleted":"0","num_feature":"10","num_nodes":"31","size_leaf_vector":"1"}},{"base_weights":[-3.0068113E-3,1.3911735E-1,-2.8094164E-1,-2.6675375E-2,3.9934272E-1,-4.754215E-1,-7.48516E-2,3.6685663E-1,-9.244965E-2,6.3051164E-1,3.0700713E-1,-5.810992E-1,-4.4582883E-1,4.194197E-2,-3.0839625E-1,-2.2197142E-2,2.1981195E-2,-1.24736335E-2,-7.6174113E-4,2.5946314E-2,3.866994E-2,9.446676E-3,2.7495265E-2,-2.9624296E-2,-1.601138E-2,-2.963962E-2,-2.0572845E-2,-1.19555E-3,1.939503E-2,-1.8344041E-2,6.7557553E-3],"categories":[],"categories_nodes":[],"categories_segments":[],"categories_sizes":[],"default_left":[0,0,0,0,0,0,0,0,0,0,0,0,0,0,0,0,0,0,0,0,0,0,0,0,0,0,0,0,0,0,0],"id":30,"left_children":[1,3,5,7,9,11,13,15,17,19,21,23,25,27,29,-1,-1,-1,-1,-1,-1,-1,-1,-1,-1,-1,-1,-1,-1,-1,-1],"loss_changes":[7.244246E1,5.236288E1,2.483403E1,1.9243885E1,9.887657E0,7.3870087E-1,8.2624855E0,6.477419E0,7.7154903E0,1.732872E0,9.631239E0,7.8105927E-3,1.0368843E0,4.6226134E0,2.6679583E0,0E0,0E0,0E0,0E0,0E0,0E0,0E0,0E0,0E0,0E0,0E0,0E0,0E0,0E0,0E0,0E0],"parents":[2147483647,0,0,1,1,2,2,3,3,4,4,5,5,6,6,7,7,8,8,9,9,10,10,11,11,12,12,13,13,14,14],"right_children":[2,4,6,8,10,12,14,16,18,20,22,24,26,28,30,-1,-1,-1,-1,-1,-1,-1,-1,-1,-1,-1,-1,-1,-1,-1,-1],"split_conditions":[1.1170213E-1,4.117647E-1,-7.8947365E-2,-8.9166665E-1,-5.8687943E-1,1.0172414E0,5.981308E-1,1.8032786E-1,2.5E-1,7.659575E-1,1.1413044E0,-1.1764706E-1,1.8421052E-1,6.9902915E-1,1.4065934E0,-2.2197142E-2,2.1981195E-2,-1.24736335E-2,-7.6174113E-4,2.5946314E-2,3.866994E-2,9.446676E-3,2.7495265E-2,-2.9624296E-2,-1.601138E-2,-2.963962E-2,-2.0572845E-2,-1.19555E-3,1.939503E-2,-1.8344041E-2,6.7557553E-3],"split_indices":[4,9,8,4,4,3,5,9,9,8,8,8,9,9,8,0,0,0,0,0,0,0,0,0,0,0,0,0,0,0,0],"split_type":[0,0,0,0,0,0,0,0,0,0,0,0,0,0,0,0,0,0,0,0,0,0,0,0,0,0,0,0,0,0,0],"sum_hessian":[1.8319387E3,1.212445E3,6.194938E2,7.411481E2,4.7129684E2,3.1805228E2,3.014415E2,1.0547949E2,6.356686E2,1.3285533E2,3.3844153E2,6.550221E1,2.5255005E2,2.0149571E2,9.994578E1,8.266807E0,9.7212685E1,2.088082E2,4.2686038E2,7.719941E1,5.5655914E1,2.2893385E2,1.09507675E2,6.1544693E1,3.9575183E0,4.4791096E1,2.0775896E2,1.7005647E2,3.1439243E1,8.8454346E1,1.1491433E1],"tree_param":{"num_deleted":"0","num_feature":"10","num_nodes":"31","size_leaf_vector":"1"}},{"base_weights":[1.4298749E-3,4.690817E-2,-2.0276049E-1,1.067682E-1,-5.5516094E-2,-2.1883674E-1,5.6197383E-2,-2.67375E-1,1.2124133E-1,-3.1598008E-1,-4.574203E-3,-3.5681653E-1,-1.1132414E-1,-2.1312498E-2,6.210324E-3,8.144331E-3,2.3472377E-3,-2.638191E-2,-1.1506033E-2,1.8034397E-3,-7.570909E-3,-9.864851E-3,-2.169146E-2,1.686065E-2,-7.6359757E-3],"categories":[],"categories_nodes":[],"categories_segments":[],"categories_sizes":[],"default_left":[0,0,0,0,0,0,0,0,0,0,0,0,0,0,0,0,0,0,0,0,0,0,0,0,0],"id":31,"left_children":[1,3,5,7,9,11,-1,13,15,17,19,21,23,-1,-1,-1,-1,-1,-1,-1,-1,-1,-1,-1,-1],"loss_changes":[1.4717897E1,7.9530296E0,6.4035187E0,4.4641876E0,6.3511243E0,4.204178E0,0E0,1.9686046E0,2.4324532E0,1.3016162E0,2.4014704E0,1.4480057E0,3.0639908E0,0E0,0E0,0E0,0E0,0E0,0E0,0E0,0E0,0E0,0E0,0E0,0E0],"parents":[2147483647,0,0,1,1,2,2,3,3,4,4,5,5,7,7,8,8,9,9,10,10,11,11,12,12],"right_children":[2,4,6,8,10,12,-1,14,16,18,20,22,24,-1,-1,-1,-1,-1,-1,-1,-1,-1,-1,-1,-1],"split_conditions":[5.263158E-1,1.5E0,7.8723407E-1,7.0430106E-1,-7.8571427E-1,1.25E0,5.6197383E-2,-1.117647E0,3.4285715E-1,1.6470588E0,6.486486E-1,8.1440496E-1,1.3441932E0,-2.1312498E-2,6.210324E-3,8.144331E-3,2.3472377E-3,-2.638191E-2,-1.1506033E-2,1.8034397E-3,-7.570909E-3,-9.864851E-3,-2.169146E-2,1.686065E-2,-7.6359757E-3],"split_indices":[5,6,9,6,4,6,0,8,5,6,9,4,6,0,0,0,0,0,0,0,0,0,0,0,0],"split_type":[0,0,0,0,0,0,0,0,0,0,0,0,0,0,0,0,0,0,0,0,0,0,0,0,0],"sum_hessian":[1.5828922E3,1.2951912E3,2.8770114E2,8.174214E2,4.777697E2,2.8508176E2,2.619395E0,2.9792223E1,7.8762915E2,7.730572E1,4.0046402E2,1.238351E2,1.6124664E2,2.1130487E1,8.661734E0,5.0395563E2,2.8367352E2,2.0824474E1,5.6481243E1,3.142432E2,8.6220825E1,4.1479263E1,8.235584E1,1.3020255E1,1.482264E2],"tree_param":{"num_deleted":"0","num_feature":"10","num_nodes":"25","size_leaf_vector":"1"}},{"base_weights":[8.025736E-3,-1.3137752E-1,3.3822092E-1,3.0814368E-2,-2.929911E-1,4.2468095E-1,-9.483489E-2,-3.502508E-1,8.715276E-2,-2.2966756E-1,-4.823604E-1,3.036883E-1,5.571805E-1,-4.0933065E-2,-3.4559704E-2,9.176483E-3,-1.9897705E-2,1.1873375E-2,-8.05363E-4,-1.923284E-2,-6.722487E-3,-2.7512873E-2,-1.8479204E-2,-1.7340085E-2,1.6900476E-2,2.223759E-2,3.2385528E-2,2.4444114E-2,-3.9314106E-3],"categories":[],"categories_nodes":[],"categories_segments":[],"categories_sizes":[],"default_left":[0,0,0,0,0,0,0,0,0,0,0,0,0,0,0,0,0,0,0,0,0,0,0,0,0,0,0,0,0],"id":32,"left_children":[1,3,5,7,9,11,13,15,17,19,21,23,25,27,-1,-1,-1,-1,-1,-1,-1,-1,-1,-1,-1,-1,-1,-1,-1],"loss_changes":[9.422517E1,3.773903E1,2.2792503E1,1.5473247E1,8.536049E0,7.9542313E0,3.2488017E0,2.4372454E0,9.743074E0,7.951231E0,1.1733131E0,6.0794506E0,2.1614075E0,1.9269414E0,0E0,0E0,0E0,0E0,0E0,0E0,0E0,0E0,0E0,0E0,0E0,0E0,0E0,0E0,0E0],"parents":[2147483647,0,0,1,1,2,2,3,3,4,4,5,5,6,6,7,7,8,8,9,9,10,10,11,11,12,12,13,13],"right_children":[2,4,6,8,10,12,14,16,18,20,22,24,26,28,-1,-1,-1,-1,-1,-1,-1,-1,-1,-1,-1,-1,-1,-1,-1],"split_conditions":[3.529412E-1,-1.1764706E-1,6.7391306E-1,-8.181818E-1,8.7664586E-1,8.1440496E-1,1.3919355E0,8.684211E-1,-4.5985577E-1,-3.8235295E-1,-1.5789473E-1,1.1441176E0,1.04E2,3.7645137E-1,-3.4559704E-2,9.176483E-3,-1.9897705E-2,1.1873375E-2,-8.05363E-4,-1.923284E-2,-6.722487E-3,-2.7512873E-2,-1.8479204E-2,-1.7340085E-2,1.6900476E-2,2.223759E-2,3.2385528E-2,2.4444114E-2,-3.9314106E-3],"split_indices":[4,8,8,4,8,4,3,6,8,4,4,7,1,4,0,0,0,0,0,0,0,0,0,0,0,0,0,0,0],"split_type":[0,0,0,0,0,0,0,0,0,0,0,0,0,0,0,0,0,0,0,0,0,0,0,0,0,0,0,0,0],"sum_hessian":[2.0450602E3,1.4383945E3,6.066656E2,7.183167E2,7.200778E2,5.0571786E2,1.0094774E2,9.184857E1,6.2646814E2,5.4128827E2,1.7878954E2,2.6605783E2,2.3966005E2,9.3559975E1,7.3877645E0,7.301407E0,8.4547165E1,2.5457936E2,3.7188876E2,2.0483377E2,3.364545E2,1.0917905E2,6.96105E1,1.2877925E1,2.531799E2,1.0953809E2,1.3012195E2,5.419406E0,8.814057E1],"tree_param":{"num_deleted":"0","num_feature":"10","num_nodes":"29","size_leaf_vector":"1"}},{"base_weights":[1.6470555E-3,1.4111024E-1,-2.806395E-1,-8.1249736E-2,3.1306505E-1,-3.885355E-1,3.3693954E-2,1.2966308E-1,-1.4763895E-1,2.4851705E-1,6.1430365E-1,-4.704211E-1,-2.3847668E-1,1.7992684E-1,-2.375379E-1,-3.6804562E-3,1.6070675E-2,-1.3254474E-2,-2.643287E-3,2.5963236E-2,7.7376724E-3,-1.2172598E-3,3.1668767E-2,-3.0266345E-2,-2.134294E-2,-2.8061415E-3,-1.8380834E-2,1.7706044E-3,2.287357E-2,-3.078956E-3,-1.9127702E-2],"categories":[],"categories_nodes":[],"categories_segments":[],"categories_sizes":[],"default_left":[0,0,0,0,0,0,0,0,0,0,0,0,0,0,0,0,0,0,0,0,0,0,0,0,0,0,0,0,0,0,0],"id":33,"left_children":[1,3,5,7,9,11,13,15,17,19,21,23,25,27,29,-1,-1,-1,-1,-1,-1,-1,-1,-1,-1,-1,-1,-1,-1,-1,-1],"loss_changes":[7.1468735E1,4.6484444E1,2.0372662E1,7.449693E0,1.3174454E1,5.3801956E0,6.163601E0,4.996394E0,4.483927E0,1.4291569E1,1.4803047E0,1.4350395E0,3.7432652E0,4.0281634E0,1.3668063E0,0E0,0E0,0E0,0E0,0E0,0E0,0E0,0E0,0E0,0E0,0E0,0E0,0E0,0E0,0E0,0E0],"parents":[2147483647,0,0,1,1,2,2,3,3,4,4,5,5,6,6,7,7,8,8,9,9,10,10,11,11,12,12,13,13,14,14],"right_children":[2,4,6,8,10,12,14,16,18,20,22,24,26,28,30,-1,-1,-1,-1,-1,-1,-1,-1,-1,-1,-1,-1,-1,-1,-1,-1],"split_conditions":[1.1170213E-1,3.3684212E-1,5.034965E-1,9.7278666E-1,6.486486E-1,-9.8182626E-2,5.981308E-1,1.0625E0,2.5E-1,-6.703297E-1,2.5E1,2.1052632E-1,5.185185E-1,6.9902915E-1,5.7E1,-3.6804562E-3,1.6070675E-2,-1.3254474E-2,-2.643287E-3,2.5963236E-2,7.7376724E-3,-1.2172598E-3,3.1668767E-2,-3.0266345E-2,-2.134294E-2,-2.8061415E-3,-1.8380834E-2,1.7706044E-3,2.287357E-2,-3.078956E-3,-1.9127702E-2],"split_indices":[4,9,9,2,9,8,5,6,9,4,0,9,4,9,1,0,0,0,0,0,0,0,0,0,0,0,0,0,0,0,0],"split_type":[0,0,0,0,0,0,0,0,0,0,0,0,0,0,0,0,0,0,0,0,0,0,0,0,0,0,0,0,0,0,0],"sum_hessian":[1.8133691E3,1.2140634E3,5.993058E2,5.29665E2,6.843983E2,4.4598416E2,1.5332161E2,1.2657956E2,4.0308545E2,5.651299E2,1.1926842E2,2.871528E2,1.5883136E2,9.983361E1,5.3488007E1,6.1742855E1,6.483671E1,1.792042E2,2.2388124E2,1.4420163E2,4.2092828E2,3.4503746E0,1.1581804E2,6.6943474E1,2.2020932E2,6.644351E1,9.238785E1,6.6391685E1,3.344192E1,2.4809477E1,2.867853E1],"tree_param":{"num_deleted":"0","num_feature":"10","num_nodes":"31","size_leaf_vector":"1"}},{"base_weights":[4.2997273E-3,5.1370785E-2,-1.6583589E-1,6.0756706E-2,-4.7360578E-1,8.998179E-2,-2.3639661E-1,-2.9390574E-2,6.84694E-2,2.6377777E-3,-5.1180625E-1,1.7319249E-2,6.2830114E-1,-1.7284733E-1,-4.0946266E-1,6.045799E-3,-1.1296695E-3,-2.9834995E-2,-8.46254E-3,1.9913977E-2,-5.8805416E-3,3.8102362E-2,1.303257E-2,-1.8909512E-2,-6.676826E-3,-2.3134284E-2,1.8318037E-4],"categories":[],"categories_nodes":[],"categories_segments":[],"categories_sizes":[],"default_left":[0,0,0,0,0,0,0,0,0,0,0,0,0,0,0,0,0,0,0,0,0,0,0,0,0,0,0],"id":34,"left_children":[1,3,5,7,9,11,13,-1,15,-1,17,19,21,23,25,-1,-1,-1,-1,-1,-1,-1,-1,-1,-1,-1,-1],"loss_changes":[1.2486397E1,6.0460796E0,6.120431E0,6.046059E0,4.6058607E-1,2.8748336E0,2.8450384E0,0E0,5.6737547E0,0E0,4.8638153E-1,3.4409068E0,2.3139763E-1,1.5287681E0,1.5512571E0,0E0,0E0,0E0,0E0,0E0,0E0,0E0,0E0,0E0,0E0,0E0,0E0],"parents":[2147483647,0,0,1,1,2,2,3,3,4,4,5,5,6,6,8,8,10,10,11,11,12,12,13,13,14,14],"right_children":[2,4,6,8,10,12,14,-1,16,-1,18,20,22,24,26,-1,-1,-1,-1,-1,-1,-1,-1,-1,-1,-1,-1],"split_conditions":[1.7592592E0,2.5294118E0,1.1578947E0,-1.6470588E0,9.350508E-1,1.62E2,6.9902915E-1,-2.9390574E-2,1.5E0,2.6377777E-3,1.41E2,5.37037E-1,1.71E2,-7.631579E-1,1.71E2,6.045799E-3,-1.1296695E-3,-2.9834995E-2,-8.46254E-3,1.9913977E-2,-5.8805416E-3,3.8102362E-2,1.303257E-2,-1.8909512E-2,-6.676826E-3,-2.3134284E-2,1.8318037E-4],"split_indices":[2,3,7,8,6,1,5,0,6,0,1,5,1,8,0,0,0,0,0,0,0,0,0,0,0,0,0],"split_type":[0,0,0,0,0,0,0,0,0,0,0,0,0,0,0,0,0,0,0,0,0,0,0,0,0,0,0],"sum_hessian":[1.5570863E3,1.2201956E3,3.368908E2,1.1996318E3,2.0563639E1,7.2773926E1,2.6411688E2,1.3214309E1,1.1864176E3,1.3656353E0,1.9198004E1,6.502853E1,7.745401E0,1.9464326E2,6.947363E1,7.526244E2,4.3379318E2,1.479062E1,4.407385E0,1.6497604E1,4.8530926E1,4.892735E0,2.8526657E0,2.989003E1,1.6475323E2,6.1438545E1,8.035086E0],"tree_param":{"num_deleted":"0","num_feature":"10","num_nodes":"27","size_leaf_vector":"1"}},{"base_weights":[1.296164E-3,-1.8801863E-1,2.65673E-1,-7.099002E-2,-3.6979812E-1,3.543928E-1,-9.8336525E-2,-3.9703748E-1,-9.497105E-3,-2.8020498E-1,-4.7965634E-1,2.1688636E-1,4.9923164E-1,-2.1536507E-1,1.0264755E-1,2.4017477E-2,-2.1819608E-2,2.2019228E-2,-2.502841E-3,-2.2402322E-2,-9.946003E-3,-2.8204171E-2,-1.4175293E-2,1.9452421E-2,6.495374E-3,3.1152083E-2,1.9749638E-2,-7.180456E-3,-3.1128263E-2,2.2026643E-2,9.6698926E-4],"categories":[],"categories_nodes":[],"categories_segments":[],"categories_sizes":[],"default_left":[0,0,0,0,0,0,0,0,0,0,0,0,0,0,0,0,0,0,0,0,0,0,0,0,0,0,0,0,0,0,0],"id":35,"left_children":[1,3,5,7,9,11,13,15,17,19,21,23,25,27,29,-1,-1,-1,-1,-1,-1,-1,-1,-1,-1,-1,-1,-1,-1,-1,-1],"loss_changes":[1.0367461E2,2.5651997E1,2.7948746E1,1.4743723E1,4.516281E0,1.3737122E1,4.0245476E0,4.238802E0,1.13327E1,3.4943886E0,3.3317642E0,5.316078E0,4.1134186E0,3.062376E0,1.7732239E0,0E0,0E0,0E0,0E0,0E0,0E0,0E0,0E0,0E0,0E0,0E0,0E0,0E0,0E0,0E0,0E0],"parents":[2147483647,0,0,1,1,2,2,3,3,4,4,5,5,6,6,7,7,8,8,9,9,10,10,11,11,12,12,13,13,14,14],"right_children":[2,4,6,8,10,12,14,16,18,20,22,24,26,28,30,-1,-1,-1,-1,-1,-1,-1,-1,-1,-1,-1,-1,-1,-1,-1,-1],"split_conditions":[3.8947368E-1,1.4137931E0,5.1724136E-1,-8.181818E-1,1.8873874E0,5.263158E-1,5.869565E-1,7.0430106E-1,1.3157895E-1,2.3529412E-1,-2.265071E-1,2.6666668E-1,1.1875E0,1.52E2,5.5789477E-1,2.4017477E-2,-2.1819608E-2,2.2019228E-2,-2.502841E-3,-2.2402322E-2,-9.946003E-3,-2.8204171E-2,-1.4175293E-2,1.9452421E-2,6.495374E-3,3.1152083E-2,1.9749638E-2,-7.180456E-3,-3.1128263E-2,2.2026643E-2,9.6698926E-4],"split_indices":[5,6,9,4,6,5,5,6,9,5,4,9,6,0,9,0,0,0,0,0,0,0,0,0,0,0,0,0,0,0,0],"split_type":[0,0,0,0,0,0,0,0,0,0,0,0,0,0,0,0,0,0,0,0,0,0,0,0,0,0,0,0,0,0,0],"sum_hessian":[2.069404E3,1.206059E3,8.633451E2,7.345502E2,4.715088E2,6.941796E2,1.6916548E2,1.15688805E2,6.188613E2,2.616637E2,2.098451E2,3.5738477E2,3.3679483E2,1.0686742E2,6.2298065E1,4.4853425E0,1.1120346E2,5.0364864E1,5.6849646E2,8.390342E1,1.7776027E2,1.453904E2,6.44547E1,1.1878809E2,2.3859668E2,1.5167065E2,1.8512418E2,9.200684E1,1.4860575E1,1.1473805E1,5.082426E1],"tree_param":{"num_deleted":"0","num_feature":"10","num_nodes":"31","size_leaf_vector":"1"}},{"base_weights":[-6.3776956E-3,2.3102593E-1,-1.4391772E-1,1.3136882E-1,5.619691E-1,-2.4888109E-1,1.3563086E-1,1.669809E-1,-3.520269E-1,3.9955655E-1,6.604052E-1,-1.4022781E-1,-3.8793227E-1,2.0882419E-1,-1.835174E-1,2.045431E-3,1.5694374E-2,-2.2258777E-2,2.3805209E-2,2.6753524E-2,1.0743791E-2,3.711584E-2,2.622898E-2,-1.0748167E-2,5.6899297E-3,-1.6749222E-2,-2.7994577E-2,1.5498568E-2,2.5893836E-3,-1.697073E-2,-1.768879E-3],"categories":[],"categories_nodes":[],"categories_segments":[],"categories_sizes":[],"default_left":[0,0,0,0,0,0,0,0,0,0,0,0,0,0,0,0,0,0,0,0,0,0,0,0,0,0,0,0,0,0,0],"id":36,"left_children":[1,3,5,7,9,11,13,15,17,19,21,23,25,27,29,-1,-1,-1,-1,-1,-1,-1,-1,-1,-1,-1,-1,-1,-1,-1,-1],"loss_changes":[5.906875E1,2.18125E1,3.3642086E1,8.861167E0,2.1866379E0,1.2531975E1,7.3571553E0,8.820156E0,2.9432135E0,1.3960018E0,6.553421E-1,8.932499E0,3.1343956E0,4.039563E0,1.3501637E0,0E0,0E0,0E0,0E0,0E0,0E0,0E0,0E0,0E0,0E0,0E0,0E0,0E0,0E0,0E0,0E0],"parents":[2147483647,0,0,1,1,2,2,3,3,4,4,5,5,6,6,7,7,8,8,9,9,10,10,11,11,12,12,13,13,14,14],"right_children":[2,4,6,8,10,12,14,16,18,20,22,24,26,28,30,-1,-1,-1,-1,-1,-1,-1,-1,-1,-1,-1,-1,-1,-1,-1,-1],"split_conditions":[-3.107765E-1,1.82277E0,1.7368422E0,3.1782946E-1,1.6196809E0,4.4210526E-1,5.981308E-1,1.2941177E0,2.3529413E0,1.0458333E0,1.15E2,1.4040337E0,1.7354167E0,1.1842105E0,1.1388888E0,2.045431E-3,1.5694374E-2,-2.2258777E-2,2.3805209E-2,2.6753524E-2,1.0743791E-2,3.711584E-2,2.622898E-2,-1.0748167E-2,5.6899297E-3,-1.6749222E-2,-2.7994577E-2,1.5498568E-2,2.5893836E-3,-1.697073E-2,-1.768879E-3],"split_indices":[4,6,6,5,3,5,5,6,7,2,1,6,7,7,7,0,0,0,0,0,0,0,0,0,0,0,0,0,0,0,0],"split_type":[0,0,0,0,0,0,0,0,0,0,0,0,0,0,0,0,0,0,0,0,0,0,0,0,0,0,0,0,0,0,0],"sum_hessian":[1.8069932E3,6.626073E2,1.1443859E3,5.1032867E2,1.5227863E2,8.3207324E2,3.123126E2,4.7592175E2,3.440691E1,5.937431E1,9.290432E1,4.6821948E2,3.638538E2,2.5433028E2,5.7982315E1,2.5681055E2,2.191112E2,3.1343779E1,3.063131E0,3.31514E1,2.6222908E1,5.5168793E1,3.773553E1,3.619007E2,1.0631876E2,2.8044897E2,8.3404816E1,1.5410037E2,1.00229904E2,2.7622347E1,3.035997E1],"tree_param":{"num_deleted":"0","num_feature":"10","num_nodes":"31","size_leaf_vector":"1"}},{"base_weights":[-1.3360691E-3,3.5284523E-2,-2.530943E-1,5.4318517E-2,-1.8688515E-1,-3.570178E-1,4.57307E-2,6.167706E-2,-4.8535416E-1,2.7026588E-2,-3.4959626E-1,1.5132108E-1,-3.901279E-1,-9.598237E-2,5.215993E-1,-1.9418778E-2,3.5110258E-3,-6.077801E-3,-2.9342696E-2,1.8558478E-2,-2.773836E-3,-1.0725936E-2,-2.5097793E-2,-7.007149E-3,3.7186477E-2,-1.6147105E-2,-2.8297806E-2,1.893976E-4,-2.7842415E-2,3.0718246E-2,-2.4165206E-3],"categories":[],"categories_nodes":[],"categories_segments":[],"categories_sizes":[],"default_left":[0,0,0,0,0,0,0,0,0,0,0,0,0,0,0,0,0,0,0,0,0,0,0,0,0,0,0,0,0,0,0],"id":37,"left_children":[1,3,5,7,9,11,13,15,17,19,21,23,25,27,29,-1,-1,-1,-1,-1,-1,-1,-1,-1,-1,-1,-1,-1,-1,-1,-1],"loss_changes":[1.4366448E1,5.7630343E0,6.1614637E0,5.0091715E0,3.7538185E0,2.5320892E0,3.5531669E0,4.786831E0,5.5562353E-1,1.3665632E0,1.1512976E0,1.7800567E0,1.4501305E0,1.8813958E0,6.681111E-1,0E0,0E0,0E0,0E0,0E0,0E0,0E0,0E0,0E0,0E0,0E0,0E0,0E0,0E0,0E0,0E0],"parents":[2147483647,0,0,1,1,2,2,3,3,4,4,5,5,6,6,7,7,8,8,9,9,10,10,11,11,12,12,13,13,14,14],"right_children":[2,4,6,8,10,12,14,16,18,20,22,24,26,28,30,-1,-1,-1,-1,-1,-1,-1,-1,-1,-1,-1,-1,-1,-1,-1,-1],"split_conditions":[8.0050504E-1,6.486486E-1,5.034965E-1,2.5294118E0,1.3888888E0,1.3E1,1.35E2,-1.5789474E0,3E-1,9.736842E-1,1.6315789E0,1E1,2.5788767E0,1.4065934E0,1.71E2,-1.9418778E-2,3.5110258E-3,-6.077801E-3,-2.9342696E-2,1.8558478E-2,-2.773836E-3,-1.0725936E-2,-2.5097793E-2,-7.007149E-3,3.7186477E-2,-1.6147105E-2,-2.8297806E-2,1.893976E-4,-2.7842415E-2,3.0718246E-2,-2.4165206E-3],"split_indices":[4,9,9,3,3,1,1,8,9,2,3,1,2,8,1,0,0,0,0,0,0,0,0,0,0,0,0,0,0,0,0],"split_type":[0,0,0,0,0,0,0,0,0,0,0,0,0,0,0,0,0,0,0,0,0,0,0,0,0,0,0,0,0,0,0],"sum_hessian":[1.556293E3,1.3594135E3,1.9687956E2,1.2528346E3,1.0657887E2,1.4593312E2,5.094645E1,1.2368555E3,1.5979063E1,4.640518E1,6.017369E1,8.70562E0,1.372275E2,3.9871166E1,1.1075282E1,2.2213856E1,1.2146416E3,3.965045E0,1.2014018E1,8.297072E0,3.810811E1,3.3172184E1,2.7001507E1,6.346558E0,2.3590617E0,1.0134081E2,3.5886692E1,3.359101E1,6.2801533E0,9.457887E0,1.6173961E0],"tree_param":{"num_deleted":"0","num_feature":"10","num_nodes":"31","size_leaf_vector":"1"}},{"base_weights":[3.1072174E-3,-1.2578034E-1,3.3604604E-1,-2.5462326E-2,-3.2083648E-1,4.19877E-1,-9.42425E-2,-2.9504102E-1,3.4445956E-2,-2.5559244E-1,-4.7166E-1,2.9259458E-1,5.486182E-1,-3.745325E-2,-3.374381E-2,2.4575422E-2,-1.6040547E-2,1.947618E-2,1.0657834E-4,-2.1103665E-2,-9.881846E-3,-2.4645323E-2,-1.1539762E-2,-1.6728066E-2,1.7208643E-2,8.012858E-3,2.8336525E-2,3.634336E-3,-1.9334627E-2],"categories":[],"categories_nodes":[],"categories_segments":[],"categories_sizes":[],"default_left":[0,0,0,0,0,0,0,0,0,0,0,0,0,0,0,0,0,0,0,0,0,0,0,0,0,0,0,0,0],"id":38,"left_children":[1,3,5,7,9,11,13,15,17,19,21,23,25,27,-1,-1,-1,-1,-1,-1,-1,-1,-1,-1,-1,-1,-1,-1,-1],"loss_changes":[8.722103E1,2.8664967E1,2.0501198E1,1.5655447E1,4.77586E0,7.6220856E0,3.051547E0,3.7300472E0,9.10392E0,3.2888908E0,6.4909744E-1,7.9098377E0,1.5620193E0,3.3382978E0,0E0,0E0,0E0,0E0,0E0,0E0,0E0,0E0,0E0,0E0,0E0,0E0,0E0,0E0,0E0],"parents":[2147483647,0,0,1,1,2,2,3,3,4,4,5,5,6,6,7,7,8,8,9,9,10,10,11,11,12,12,13,13],"right_children":[2,4,6,8,10,12,14,16,18,20,22,24,26,28,-1,-1,-1,-1,-1,-1,-1,-1,-1,-1,-1,-1,-1,-1,-1],"split_conditions":[3.6031452E-1,1.6563861E-1,7.409131E-1,-6.703297E-1,1.0862069E0,8.0050504E-1,1.3919355E0,7.0430106E-1,1.3636364E-1,-5.3846157E-1,1.1875E-1,1.1541667E0,1.2E1,1.41E2,-3.374381E-2,2.4575422E-2,-1.6040547E-2,1.947618E-2,1.0657834E-4,-2.1103665E-2,-9.881846E-3,-2.4645323E-2,-1.1539762E-2,-1.6728066E-2,1.7208643E-2,8.012858E-3,2.8336525E-2,3.634336E-3,-1.9334627E-2],"split_indices":[4,8,8,4,8,4,3,6,9,4,4,7,1,0,0,0,0,0,0,0,0,0,0,0,0,0,0,0,0],"split_type":[0,0,0,0,0,0,0,0,0,0,0,0,0,0,0,0,0,0,0,0,0,0,0,0,0,0,0,0,0],"sum_hessian":[2.0305862E3,1.4643341E3,5.662521E2,9.6774835E2,4.9658572E2,4.7394077E2,9.231128E1,1.752452E2,7.925032E2,3.48517E2,1.480687E2,2.3996634E2,2.3397443E2,8.5056755E1,7.254525E0,4.9861064E0,1.702591E2,6.518473E1,7.273184E2,8.837413E1,2.6014288E2,1.3510483E2,1.2963878E1,1.7818565E1,2.2214777E2,1.0864628E1,2.231098E2,6.526571E1,1.9791046E1],"tree_param":{"num_deleted":"0","num_feature":"10","num_nodes":"29","size_leaf_vector":"1"}},{"base_weights":[-1.2623692E-2,-2.1906224E-1,1.4937899E-1,-1.0158717E-1,-4.571584E-1,-5.6002066E-2,3.1696764E-1,5.647671E-2,-2.0228E-1,-3.0219182E-2,-4.1517377E-1,3.233219E-2,-3.1052494E-1,2.248691E-1,5.390975E-1,-2.7173609E-2,6.648171E-3,-1.51951825E-2,-5.861449E-3,-1.5733082E-2,-2.2852732E-2,-2.826794E-3,7.722164E-3,-2.154746E-2,-5.713321E-3,2.8324028E-2,8.581641E-3,3.5103347E-2,2.1186015E-2],"categories":[],"categories_nodes":[],"categories_segments":[],"categories_sizes":[],"default_left":[0,0,0,0,0,0,0,0,0,0,0,0,0,0,0,0,0,0,0,0,0,0,0,0,0,0,0,0,0],"id":39,"left_children":[1,3,5,7,9,11,13,15,17,-1,19,21,23,25,27,-1,-1,-1,-1,-1,-1,-1,-1,-1,-1,-1,-1,-1,-1],"loss_changes":[5.8643307E1,2.1518269E1,3.383619E1,8.248682E0,1.3217888E0,9.955178E0,1.0950504E1,9.3499775E0,2.698801E0,0E0,7.03022E-1,3.581999E0,2.6464643E0,6.8915405E0,2.671627E0,0E0,0E0,0E0,0E0,0E0,0E0,0E0,0E0,0E0,0E0,0E0,0E0,0E0,0E0],"parents":[2147483647,0,0,1,1,2,2,3,3,4,4,5,5,6,6,7,7,8,8,10,10,11,11,12,12,13,13,14,14],"right_children":[2,4,6,8,10,12,14,16,18,-1,20,22,24,26,28,-1,-1,-1,-1,-1,-1,-1,-1,-1,-1,-1,-1,-1,-1],"split_conditions":[3.3684212E-1,1.1170213E-1,1.3863636E0,2.5925925E-1,9.435642E-1,5.981308E-1,7.941176E-1,1.5789473E-1,2.5E-1,-3.0219182E-2,4.7826087E-1,5.185185E-1,7.352941E-1,-9.7083336E-1,9.9E1,-2.7173609E-2,6.648171E-3,-1.51951825E-2,-5.861449E-3,-1.5733082E-2,-2.2852732E-2,-2.826794E-3,7.722164E-3,-2.154746E-2,-5.713321E-3,2.8324028E-2,8.581641E-3,3.5103347E-2,2.1186015E-2],"split_indices":[9,4,3,5,6,5,8,9,9,0,5,8,8,4,0,0,0,0,0,0,0,0,0,0,0,0,0,0,0],"split_type":[0,0,0,0,0,0,0,0,0,0,0,0,0,0,0,0,0,0,0,0,0,0,0,0,0,0,0,0,0],"sum_hessian":[1.7515205E3,7.6998425E2,9.815362E2,5.16549E2,2.5343523E2,4.413386E2,5.4019763E2,2.0118124E2,3.1536777E2,5.3263474E1,2.0017175E2,3.2827948E2,1.1305912E2,3.8329132E2,1.569063E2,2.2057835E1,1.7912341E2,1.4251263E2,1.7285513E2,6.1378773E1,1.3879298E2,1.903133E2,1.3796619E2,6.932529E1,4.373383E1,5.0378292E1,3.3291302E2,6.2931313E1,9.3974976E1],"tree_param":{"num_deleted":"0","num_feature":"10","num_nodes":"29","size_leaf_vector":"1"}},{"base_weights":[-4.1245966E-4,8.983027E-2,-1.09166965E-1,1.273964E-1,-1.4165613E-1,-6.711701E-2,-3.4064364E-1,1.473317E-1,-2.8341463E-1,2.4849665E-1,-2.5179297E-1,2.0262772E-1,-8.785434E-2,-3.7071452E-1,4.571002E-2,-2.0040378E-2,7.977494E-3,2.6531959E-2,-1.8789547E-2,1.7470611E-2,-2.4345292E-2,1.3641882E-2,-1.4295337E-2,2.4591256E-2,-2.6507901E-3,-1.167299E-2,-2.8622176E-3,-2.1564644E-2,-8.061721E-3],"categories":[],"categories_nodes":[],"categories_segments":[],"categories_sizes":[],"default_left":[0,0,0,0,0,0,0,0,0,0,0,0,0,0,0,0,0,0,0,0,0,0,0,0,0,0,0,0,0],"id":40,"left_children":[1,3,5,7,9,11,13,15,17,19,21,23,25,27,-1,-1,-1,-1,-1,-1,-1,-1,-1,-1,-1,-1,-1,-1,-1],"loss_changes":[1.531226E1,7.4329143E0,6.863925E0,6.0541296E0,5.1986513E0,3.3740928E0,4.4340086E0,4.757555E0,2.7801595E0,2.1602879E0,1.755146E0,3.215205E0,2.47304E0,1.2844353E0,0E0,0E0,0E0,0E0,0E0,0E0,0E0,0E0,0E0,0E0,0E0,0E0,0E0,0E0,0E0],"parents":[2147483647,0,0,1,1,2,2,3,3,4,4,5,5,6,6,7,7,8,8,9,9,10,10,11,11,12,12,13,13],"right_children":[2,4,6,8,10,12,14,16,18,20,22,24,26,28,-1,-1,-1,-1,-1,-1,-1,-1,-1,-1,-1,-1,-1,-1,-1],"split_conditions":[3.5849056E-1,5.638298E-1,6.625E-1,2.3529413E0,1.3453014E0,1.0172414E0,2.6852355E0,-1.2368422E0,2.2105263E-1,1.2352941E0,1.0526316E-1,6E-1,1.3529412E0,4.3103448E-1,4.571002E-2,-2.0040378E-2,7.977494E-3,2.6531959E-2,-1.8789547E-2,1.7470611E-2,-2.4345292E-2,1.3641882E-2,-1.4295337E-2,2.4591256E-2,-2.6507901E-3,-1.167299E-2,-2.8622176E-3,-2.1564644E-2,-8.061721E-3],"split_indices":[5,9,5,3,3,7,6,8,9,2,5,9,2,8,0,0,0,0,0,0,0,0,0,0,0,0,0,0,0],"split_type":[0,0,0,0,0,0,0,0,0,0,0,0,0,0,0,0,0,0,0,0,0,0,0,0,0,0,0,0,0],"sum_hessian":[1.5581991E3,8.516706E2,7.065285E2,7.33144E2,1.1852663E2,5.9900366E2,1.075248E2,6.9982513E2,3.331882E1,2.5816622E1,9.271001E1,4.2136322E1,5.568674E2,1.0569649E2,1.8283194E0,1.4565688E1,6.8525946E2,2.9120903E0,3.040673E1,2.3162956E1,2.653666E0,5.233097E0,8.7476906E1,1.9337196E1,2.2799126E1,9.558103E1,4.6128632E2,8.116575E1,2.4530735E1],"tree_param":{"num_deleted":"0","num_feature":"10","num_nodes":"29","size_leaf_vector":"1"}},{"base_weights":[-1.26569765E-2,-1.4103791E-1,2.7149805E-1,-1.883309E-2,-3.2935193E-1,3.449569E-1,-8.386648E-2,-1.7799583E-1,1.1887612E-1,-2.6626384E-1,-4.7997567E-1,2.2067994E-1,4.578072E-1,-4.0738367E-2,-3.2638952E-2,-1.8648818E-2,-4.7552017E-3,1.798614E-2,2.8933021E-3,-1.7914865E-2,-6.9086845E-3,-3.3032946E-2,-2.1238014E-2,3.9458524E-2,9.498416E-3,3.260193E-2,1.9933393E-2,1.1231513E-2,-6.150683E-3],"categories":[],"categories_nodes":[],"categories_segments":[],"categories_sizes":[],"default_left":[0,0,0,0,0,0,0,0,0,0,0,0,0,0,0,0,0,0,0,0,0,0,0,0,0,0,0,0,0],"id":41,"left_children":[1,3,5,7,9,11,13,15,17,19,21,23,25,27,-1,-1,-1,-1,-1,-1,-1,-1,-1,-1,-1,-1,-1,-1,-1],"loss_changes":[7.4543E1,3.2382645E1,1.6629314E1,1.8752245E1,5.13501E0,7.292473E0,2.665976E0,6.378006E0,6.720441E0,4.578514E0,1.3380241E0,4.2640934E0,2.9030342E0,2.278047E0,0E0,0E0,0E0,0E0,0E0,0E0,0E0,0E0,0E0,0E0,0E0,0E0,0E0,0E0,0E0],"parents":[2147483647,0,0,1,1,2,2,3,3,4,4,5,5,6,6,7,7,8,8,9,9,10,10,11,11,12,12,13,13],"right_children":[2,4,6,8,10,12,14,16,18,20,22,24,26,28,-1,-1,-1,-1,-1,-1,-1,-1,-1,-1,-1,-1,-1,-1,-1],"split_conditions":[3.1578946E-1,-2.1008404E-3,6.7391306E-1,-3.107765E-1,8.7664586E-1,7.8457445E-1,1.3919355E0,-8.181818E-1,-6.770833E-1,-2.4090375E-1,1E0,7.368421E-1,-5.3846157E-1,5.2394956E-1,-3.2638952E-2,-1.8648818E-2,-4.7552017E-3,1.798614E-2,2.8933021E-3,-1.7914865E-2,-6.9086845E-3,-3.3032946E-2,-2.1238014E-2,3.9458524E-2,9.498416E-3,3.260193E-2,1.9933393E-2,1.1231513E-2,-6.150683E-3],"split_indices":[4,8,8,4,8,4,3,4,8,4,2,6,8,4,0,0,0,0,0,0,0,0,0,0,0,0,0,0,0],"split_type":[0,0,0,0,0,0,0,0,0,0,0,0,0,0,0,0,0,0,0,0,0,0,0,0,0,0,0,0,0],"sum_hessian":[2.0413389E3,1.4064225E3,6.3491644E2,8.535914E2,5.5283105E2,5.261775E2,1.0873898E2,3.958175E2,4.577739E2,3.9158514E2,1.6124591E2,2.5181758E2,2.743599E2,1.0207267E2,6.666314E0,1.1703195E2,2.7878555E2,9.153385E1,3.6624005E2,2.2681804E2,1.6476712E2,3.5175323E1,1.2607059E2,1.1640926E1,2.4017665E2,6.169839E1,2.126615E2,2.3747587E1,7.832508E1],"tree_param":{"num_deleted":"0","num_feature":"10","num_nodes":"29","size_leaf_vector":"1"}},{"base_weights":[1.45964585E-2,1.3403317E-1,-2.3798257E-1,9.7939465E-3,4.0636674E-1,-4.3059942E-1,-4.747881E-2,2.9684186E-1,-5.11812E-2,2.9401955E-1,5.1608413E-1,-3.8301584E-1,-5.264698E-1,5.6483988E-2,-2.3194972E-1,-6.432514E-3,2.00989E-2,-1.2526794E-2,4.18878E-4,9.773097E-3,2.1335755E-2,1.872716E-2,3.0759562E-2,-2.5713516E-2,-1.6893635E-2,-2.009863E-2,-2.8713945E-2,9.549497E-4,2.8711174E-2,-1.7618142E-2,-2.8534837E-3],"categories":[],"categories_nodes":[],"categories_segments":[],"categories_sizes":[],"default_left":[0,0,0,0,0,0,0,0,0,0,0,0,0,0,0,0,0,0,0,0,0,0,0,0,0,0,0,0,0,0,0],"id":42,"left_children":[1,3,5,7,9,11,13,15,17,19,21,23,25,27,29,-1,-1,-1,-1,-1,-1,-1,-1,-1,-1,-1,-1,-1,-1,-1,-1],"loss_changes":[5.369691E1,4.0882713E1,2.094984E1,1.4557839E1,4.5144997E0,1.09412E0,5.5449038E0,6.570447E0,8.149045E0,2.393076E0,2.4375916E0,9.7275734E-1,3.1405258E-1,3.5752807E0,2.1733222E0,0E0,0E0,0E0,0E0,0E0,0E0,0E0,0E0,0E0,0E0,0E0,0E0,0E0,0E0,0E0,0E0],"parents":[2147483647,0,0,1,1,2,2,3,3,4,4,5,5,6,6,7,7,8,8,9,9,10,10,11,11,12,12,13,13,14,14],"right_children":[2,4,6,8,10,12,14,16,18,20,22,24,26,28,30,-1,-1,-1,-1,-1,-1,-1,-1,-1,-1,-1,-1,-1,-1,-1,-1],"split_conditions":[1.1875E-1,4.6875E-1,-7.247341E-2,-8.181818E-1,1.5585107E0,1.7105263E0,8.0050504E-1,2.3529412E-1,2.3529412E-1,1.0666667E0,7.659575E-1,1.0172414E0,7.9E1,1.604762E0,5.5789477E-1,-6.432514E-3,2.00989E-2,-1.2526794E-2,4.18878E-4,9.773097E-3,2.1335755E-2,1.872716E-2,3.0759562E-2,-2.5713516E-2,-1.6893635E-2,-2.009863E-2,-2.8713945E-2,9.549497E-4,2.8711174E-2,-1.7618142E-2,-2.8534837E-3],"split_indices":[4,9,8,4,3,7,4,9,9,8,8,3,1,7,9,0,0,0,0,0,0,0,0,0,0,0,0,0,0,0,0],"split_type":[0,0,0,0,0,0,0,0,0,0,0,0,0,0,0,0,0,0,0,0,0,0,0,0,0,0,0,0,0,0,0],"sum_hessian":[1.7779187E3,1.2074315E3,5.7048724E2,8.2987604E2,3.7755548E2,2.8304367E2,2.8744354E2,1.4472014E2,6.851559E2,1.8836021E2,1.8919527E2,1.924966E2,9.05471E1,1.8428136E2,1.0316217E2,2.8629843E1,1.160903E2,1.5687119E2,5.2828467E2,1.09502144E2,7.885806E1,7.988533E1,1.0930994E2,4.6603672E1,1.4589291E2,2.773405E1,6.2813046E1,1.7283795E2,1.1443415E1,6.0494194E1,4.2667976E1],"tree_param":{"num_deleted":"0","num_feature":"10","num_nodes":"31","size_leaf_vector":"1"}},{"base_weights":[7.718814E-3,2.6459709E-2,-3.4307954E-1,-2.987547E-2,8.976026E-2,-4.571924E-1,1.6549906E-1,1.6491624E-2,-1.8697879E-1,1.6711594E-1,2.6838945E-3,-3.4429473E-1,-5.3320867E-1,5.357568E-1,-2.2365177E-1,4.3185414E-3,-2.665819E-3,-6.065519E-3,-1.9100618E-2,1.0527639E-2,-1.8733293E-4,-9.601069E-3,1.2718742E-3,-2.0519288E-2,-2.0522587E-3,-2.7958816E-2,4.446251E-3,1.9902259E-3,3.170473E-2,-2.7140085E-2,2.2896258E-2],"categories":[],"categories_nodes":[],"categories_segments":[],"categories_sizes":[],"default_left":[0,0,0,0,0,0,0,0,0,0,0,0,0,0,0,0,0,0,0,0,0,0,0,0,0,0,0,0,0,0,0],"id":43,"left_children":[1,3,5,7,9,11,13,15,17,19,21,23,25,27,29,-1,-1,-1,-1,-1,-1,-1,-1,-1,-1,-1,-1,-1,-1,-1,-1],"loss_changes":[1.0191872E1,5.2492743E0,4.638524E0,5.6791883E0,4.667844E0,3.6978817E-1,2.3016183E0,2.9439816E0,2.228901E0,2.7245245E0,1.4538249E0,5.5973077E-1,6.428137E-1,3.6756134E-1,2.0079677E0,0E0,0E0,0E0,0E0,0E0,0E0,0E0,0E0,0E0,0E0,0E0,0E0,0E0,0E0,0E0,0E0],"parents":[2147483647,0,0,1,1,2,2,3,3,4,4,5,5,6,6,7,7,8,8,9,9,10,10,11,11,12,12,13,13,14,14],"right_children":[2,4,6,8,10,12,14,16,18,20,22,24,26,28,30,-1,-1,-1,-1,-1,-1,-1,-1,-1,-1,-1,-1,-1,-1,-1,-1],"split_conditions":[7.119565E-1,1.08E2,7.659575E-1,7.4E1,3E-1,2.4355848E0,6.486486E-1,1.3791667E0,1.939785E0,5E-1,-7.631579E-1,1.6563861E-1,1.81E2,3.8E1,1.71E2,4.3185414E-3,-2.665819E-3,-6.065519E-3,-1.9100618E-2,1.0527639E-2,-1.8733293E-4,-9.601069E-3,1.2718742E-3,-2.0519288E-2,-2.0522587E-3,-2.7958816E-2,4.446251E-3,1.9902259E-3,3.170473E-2,-2.7140085E-2,2.2896258E-2],"split_indices":[5,0,8,0,5,2,9,3,3,9,8,8,1,1,0,0,0,0,0,0,0,0,0,0,0,0,0,0,0,0,0],"split_type":[0,0,0,0,0,0,0,0,0,0,0,0,0,0,0,0,0,0,0,0,0,0,0,0,0,0,0,0,0,0,0],"sum_hessian":[1.5478846E3,1.4702626E3,7.762208E1,7.782111E2,6.9205145E2,6.3479774E1,1.41423E1,6.0156244E2,1.7664867E2,3.6599484E2,3.260566E2,2.7768244E1,3.5711533E1,7.0540175E0,7.088282E0,3.0050934E2,3.0105313E2,1.3336594E2,4.3282734E1,2.9162534E2,7.4369514E1,3.333822E1,2.9271838E2,2.250923E1,5.2590146E0,3.4377808E1,1.3337228E0,1.3996842E0,5.654333E0,4.9663754E0,2.121907E0],"tree_param":{"num_deleted":"0","num_feature":"10","num_nodes":"31","size_leaf_vector":"1"}},{"base_weights":[2.8281193E-3,-1.7428505E-1,2.3050776E-1,-3.0751638E-2,-3.0384433E-1,3.3492303E-1,-8.784297E-2,-3.0094668E-1,5.409297E-2,-5.3835475E-1,-2.666741E-1,2.4552636E-1,4.4032842E-1,-2.4602386E-1,1.08757645E-1,1.2706938E-2,-1.993393E-2,-7.939198E-3,5.6859157E-3,-3.0912866E-3,-2.7828444E-2,-1.1246697E-2,-2.195848E-2,2.409679E-2,9.885139E-3,2.6797503E-2,1.706541E-2,-1.4506784E-2,4.787778E-3,1.9573497E-2,-1.2251678E-4],"categories":[],"categories_nodes":[],"categories_segments":[],"categories_sizes":[],"default_left":[0,0,0,0,0,0,0,0,0,0,0,0,0,0,0,0,0,0,0,0,0,0,0,0,0,0,0,0,0,0,0],"id":44,"left_children":[1,3,5,7,9,11,13,15,17,19,21,23,25,27,29,-1,-1,-1,-1,-1,-1,-1,-1,-1,-1,-1,-1,-1,-1,-1,-1],"loss_changes":[8.02932E1,2.0817345E1,2.8988777E1,1.2222107E1,4.9864197E0,6.0755615E0,6.74287E0,7.012126E0,5.1719236E0,6.559372E-1,3.573059E0,3.9448395E0,2.65662E0,1.8366828E0,3.0500429E0,0E0,0E0,0E0,0E0,0E0,0E0,0E0,0E0,0E0,0E0,0E0,0E0,0E0,0E0,0E0,0E0],"parents":[2147483647,0,0,1,1,2,2,3,3,4,4,5,5,6,6,7,7,8,8,9,9,10,10,11,11,12,12,13,13,14,14],"right_children":[2,4,6,8,10,12,14,16,18,20,22,24,26,28,30,-1,-1,-1,-1,-1,-1,-1,-1,-1,-1,-1,-1,-1,-1,-1,-1],"split_conditions":[3.75E-1,3.263158E-1,4.3103448E-1,9.7278666E-1,1.6666667E-1,5.263158E-1,5.3333336E-1,1.5384616E-1,2.3684211E-1,-2.7105495E-1,1.0666667E0,-8.1578946E-1,1.0789474E0,1.3421053E0,7.409131E-1,1.2706938E-2,-1.993393E-2,-7.939198E-3,5.6859157E-3,-3.0912866E-3,-2.7828444E-2,-1.1246697E-2,-2.195848E-2,2.409679E-2,9.885139E-3,2.6797503E-2,1.706541E-2,-1.4506784E-2,4.787778E-3,1.9573497E-2,-1.2251678E-4],"split_indices":[5,9,8,2,5,5,5,9,5,8,8,8,3,7,8,0,0,0,0,0,0,0,0,0,0,0,0,0,0,0,0],"split_type":[0,0,0,0,0,0,0,0,0,0,0,0,0,0,0,0,0,0,0,0,0,0,0,0,0,0,0,0,0,0,0],"sum_hessian":[1.9891523E3,1.11895E3,8.702024E2,5.314337E2,5.875162E2,6.552395E2,2.1496286E2,1.2638921E2,4.050445E2,7.853685E1,5.0897934E2,3.5634482E2,2.988947E2,